/*
 * Crystal Neural Network - Compiled from PyTorch
 *
 * This code was automatically generated from a trained crystal model.
 * Frozen neurons: 44 (68.8%)
 * Active neurons: 20 (31.2%)
 *
 * Generated by Crystal Compiler
 */

#include <math.h>
#include <stdint.h>
#include <string.h>

// Activation function
static inline float tanh_activation(float x) {
    return tanhf(x);
}


// Network dimensions
#define INPUT_DIM 784
#define OUTPUT_DIM 10
#define NUM_NEURONS 64
#define NUM_FROZEN 44
#define NUM_ACTIVE 20
#define INTERACTION_SCALE 1.122189998626709f


// Frozen neuron weights (compile-time constants)
static const float FROZEN_INPUT_WEIGHTS[44][INPUT_DIM] = {
    { -0.22144954f, -0.13430952f, -0.05415863f, 0.02975891f, -0.04889717f, 0.07761098f, -0.02235369f, -0.22143829f, 0.02799079f, 0.04114420f, 0.05653377f, -0.07957973f, -0.21130253f, 0.01506420f, 0.07517625f, -0.10369841f, 0.12883955f, 0.07750101f, 0.11623318f, -0.06362430f, -0.28085029f, 0.23980312f, 0.09849549f, 0.09127703f, -0.04835115f, 0.01039436f, -0.09704357f, -0.02140298f, -0.14888045f, -0.05277938f, -0.09638569f, 0.03939278f, 0.02610666f, -0.00145487f, -0.03721754f, -0.08841836f, 0.01896261f, -0.02071418f, 0.17464876f, -0.09545545f, -0.09865902f, -0.09618581f, 0.03319284f, -0.14110701f, -0.05572070f, 0.10319207f, -0.03482719f, -0.10815009f, -0.05676157f, -0.18345582f, -0.11119024f, -0.08939707f, -0.07557561f, -0.04705964f, 0.01738057f, -0.18972893f, 0.01463027f, -0.06165697f, -0.07260355f, 0.14525752f, 0.06661454f, -0.08826096f, -0.12692758f, 0.01225210f, 0.09423529f, -0.16325992f, -0.06432507f, 0.00358146f, 0.00345328f, -0.15030089f, 0.08131713f, -0.14797537f, 0.03603035f, -0.01144092f, -0.00888892f, -0.06409552f, -0.04265510f, -0.14268439f, -0.05600585f, -0.03991941f, -0.02130491f, -0.02911121f, -0.04914641f, 0.01263965f, 0.04661392f, 0.08073969f, 0.15098734f, -0.22323364f, 0.13486934f, 0.02064654f, -0.15219347f, -0.07125413f, -0.06660607f, 0.02959604f, -0.04602181f, -0.11457011f, 0.18451205f, 0.09326121f, 0.02630256f, 0.08713011f, 0.02885685f, 0.03110054f, -0.09961572f, 0.08425835f, -0.13568488f, -0.21599501f, 0.05305472f, -0.06643522f, 0.16997512f, 0.08204351f, -0.08833115f, 0.03022611f, 0.03555800f, -0.01810363f, -0.02578980f, -0.04009710f, -0.06062575f, -0.00189660f, 0.04625783f, -0.06731936f, 0.14499344f, -0.03910295f, 0.17878522f, 0.01432857f, -0.05885127f, 0.03262731f, 0.20944718f, -0.12399802f, 0.09693004f, 0.06408795f, 0.09693170f, -0.03391443f, 0.05893955f, -0.06141240f, -0.13295044f, 0.00590661f, -0.06098651f, -0.02298836f, -0.10819409f, -0.05658465f, -0.16237494f, 0.13025402f, -0.07916598f, -0.09913865f, -0.16994894f, -0.07271286f, -0.01446377f, 0.06275046f, 0.14772989f, 0.03632724f, 0.05745268f, 0.03101140f, 0.15164435f, -0.10308503f, -0.08296498f, -0.27453515f, 0.17870151f, -0.08428908f, 0.06693354f, -0.14112321f, -0.10342658f, -0.21671361f, -0.06569316f, -0.07397328f, -0.18673408f, 0.03496427f, 0.12896690f, -0.00495579f, -0.20512377f, 0.13390382f, -0.07630598f, 0.01581545f, -0.07780251f, -0.03382141f, 0.15407017f, 0.07072377f, -0.02940738f, 0.10141934f, 0.07992315f, 0.11999159f, 0.10496442f, -0.07147301f, 0.07023992f, 0.05318143f, -0.01541304f, -0.17068557f, -0.06976153f, -0.16222326f, 0.02078574f, 0.00753496f, 0.06823099f, -0.24242701f, -0.05399266f, -0.05056326f, -0.24881929f, -0.02945018f, 0.02429128f, -0.06915887f, -0.07942026f, 0.09384255f, -0.02814398f, -0.07162079f, 0.00892488f, 0.00113960f, 0.07899008f, 0.02476905f, -0.06616658f, 0.00071009f, 0.08452794f, 0.05656226f, 0.11771774f, -0.02072788f, -0.19888352f, 0.17985663f, 0.04376845f, 0.06886166f, -0.01679430f, -0.03740763f, -0.02325469f, -0.13757905f, 0.02471461f, -0.11077736f, -0.07428848f, 0.05233899f, 0.08938086f, 0.08941971f, 0.07918025f, -0.02772663f, 0.11822814f, 0.00775644f, 0.04767191f, -0.00286979f, 0.13711920f, 0.05116869f, 0.17247291f, 0.12495947f, 0.07394017f, 0.07226759f, -0.01410040f, -0.02750370f, 0.15077211f, 0.03693987f, 0.00581017f, 0.08387052f, -0.03074865f, -0.00179774f, 0.08008189f, -0.03515987f, -0.00010417f, -0.18490775f, -0.16250215f, -0.01075081f, -0.27478984f, -0.06385489f, 0.07608083f, 0.02538978f, -0.10079560f, 0.01795118f, 0.00321957f, 0.14132214f, -0.05932055f, 0.06983739f, -0.07708803f, -0.01852002f, 0.04587328f, -0.21462178f, -0.09956504f, -0.00314234f, -0.02060482f, 0.05130735f, -0.17306866f, 0.06334461f, 0.08183261f, -0.09126594f, 0.07265410f, -0.09467217f, -0.03082525f, -0.11435107f, -0.18213075f, 0.10666139f, -0.06594061f, -0.11383098f, -0.09079878f, 0.07776076f, 0.06895179f, 0.05656906f, 0.02766479f, 0.17793752f, 0.01737426f, 0.07595267f, 0.14186274f, 0.15888797f, -0.21001580f, -0.05967835f, -0.26865783f, 0.07872292f, -0.07049505f, 0.01590338f, -0.14006238f, -0.11147139f, -0.00906649f, -0.02996391f, 0.03933831f, -0.06935636f, -0.06548867f, -0.03491832f, -0.22885284f, 0.08213671f, -0.25345874f, -0.11888727f, -0.00327239f, -0.01531110f, -0.23413631f, -0.01972492f, 0.34521660f, 0.05941710f, 0.03740533f, 0.16736172f, 0.02534981f, 0.13402545f, -0.28186640f, -0.16092232f, -0.04933562f, -0.09674467f, 0.04625000f, 0.07503761f, 0.02514318f, 0.05827702f, 0.02001391f, 0.17662092f, 0.01244063f, -0.04532617f, 0.02046117f, -0.17462550f, -0.11034584f, -0.14976972f, -0.12742086f, -0.03915441f, 0.04166012f, -0.04135340f, 0.06395462f, -0.12682962f, -0.04363954f, -0.02105331f, 0.04508218f, 0.18123746f, 0.21629414f, 0.13826926f, -0.13663833f, -0.18506242f, -0.07801309f, -0.08563778f, -0.03096081f, 0.14490454f, 0.04095975f, 0.17123985f, 0.01704017f, 0.09178980f, 0.00491528f, -0.00648138f, -0.03128888f, 0.06566312f, -0.00248634f, 0.06761819f, -0.17985260f, 0.00437654f, 0.11844480f, -0.24826267f, 0.04426929f, -0.07346624f, 0.08358581f, 0.02017039f, 0.10779759f, 0.06485178f, 0.06039802f, 0.08189742f, -0.26530120f, -0.01994582f, -0.07542769f, -0.12406676f, -0.07020629f, -0.07496499f, 0.09465880f, 0.04511167f, 0.14755289f, -0.04887914f, 0.02963609f, -0.04851734f, -0.01243821f, 0.14934283f, -0.11135270f, -0.17612030f, -0.11029565f, 0.03765921f, 0.12874335f, -0.07158278f, 0.02998964f, -0.06346729f, 0.24749239f, -0.05726971f, 0.08950905f, -0.00960955f, 0.08631083f, -0.05875191f, 0.02612547f, -0.00290308f, -0.04569785f, -0.07133473f, 0.10061423f, 0.02706777f, 0.07926016f, 0.15038911f, 0.17011079f, 0.13487396f, 0.05831955f, 0.04200730f, 0.21547101f, -0.12739246f, -0.05797284f, -0.13545823f, 0.08052725f, -0.02752660f, 0.02784730f, -0.11097619f, -0.10677402f, 0.05829410f, -0.04338202f, 0.07419040f, 0.01409137f, -0.07446302f, 0.17897791f, 0.13323098f, 0.01634674f, -0.06826708f, 0.11515947f, -0.17952792f, 0.06633733f, -0.10773180f, 0.16478080f, 0.03666585f, 0.19505781f, 0.04510036f, 0.01227176f, 0.01483349f, -0.02782616f, 0.01871094f, -0.02944660f, -0.08182441f, -0.11652801f, 0.03066149f, -0.08916833f, -0.12961383f, -0.10407124f, 0.05378938f, -0.03565849f, -0.07550506f, -0.03171476f, 0.00732103f, 0.09419806f, 0.11002290f, 0.02389266f, -0.03243921f, 0.13967060f, 0.10897593f, -0.10327398f, -0.04083077f, -0.00705424f, 0.00240962f, 0.14340329f, 0.02427601f, 0.18979663f, -0.04349976f, 0.25710222f, 0.01117713f, 0.07518046f, 0.04340437f, 0.05873644f, -0.01404900f, 0.01055949f, 0.06684034f, -0.01813451f, -0.01888142f, -0.01950629f, 0.01996872f, 0.09648906f, 0.00877257f, 0.00854071f, 0.15408590f, 0.02694633f, 0.06544140f, -0.09805758f, -0.10047021f, -0.10088667f, -0.30752686f, 0.02402448f, 0.31121498f, 0.11201206f, 0.31845090f, 0.27643278f, -0.00799382f, -0.00711014f, 0.10921680f, 0.18759064f, -0.15288930f, 0.03316885f, 0.14747775f, 0.03066347f, 0.07093298f, -0.03434447f, -0.26069796f, -0.00483728f, 0.08723475f, 0.11538503f, 0.10512540f, -0.00185773f, -0.01066512f, -0.06933197f, 0.11558934f, 0.01789531f, -0.03646891f, -0.11333154f, -0.12493537f, 0.05180540f, 0.16176304f, 0.12408856f, -0.00605345f, 0.06279354f, -0.06126489f, 0.13895389f, -0.02014401f, -0.00726488f, 0.08653870f, -0.04712520f, -0.00626564f, -0.11245786f, -0.03055754f, 0.20010127f, 0.11065564f, -0.01315856f, -0.01794674f, 0.05042093f, -0.05938570f, -0.01644213f, 0.04395014f, -0.10594819f, -0.06311614f, -0.08645686f, 0.15252922f, -0.14119643f, 0.07908119f, 0.00092804f, 0.04458940f, 0.25547338f, 0.21927370f, 0.19141200f, 0.05281335f, 0.16664608f, -0.05540097f, -0.08991727f, -0.03639670f, -0.05380420f, 0.03952006f, 0.04438187f, -0.14725000f, -0.02659014f, 0.08133156f, 0.04747833f, 0.02028167f, -0.13047780f, 0.03082879f, 0.03728458f, 0.00703514f, -0.02085013f, 0.06149029f, -0.06510243f, -0.15235516f, -0.07869405f, 0.08926055f, 0.18018121f, 0.09074041f, 0.07997903f, 0.09597088f, 0.05532099f, -0.07012810f, 0.11492682f, -0.03168365f, 0.15097457f, -0.01406808f, -0.08632352f, -0.04512523f, 0.12431730f, -0.08648536f, -0.12881523f, -0.10814676f, -0.00786801f, -0.13551174f, 0.00880249f, -0.13991499f, 0.11152275f, 0.05516631f, 0.08033604f, 0.00316423f, 0.01634479f, -0.11722361f, 0.11908156f, 0.00154277f, 0.15413226f, 0.12953234f, 0.01692015f, 0.02444158f, 0.02878202f, 0.01581729f, 0.06440140f, 0.14763239f, -0.08261412f, 0.03999473f, -0.07836745f, 0.07253067f, 0.07304638f, 0.01547513f, -0.13008663f, -0.16033341f, -0.02001423f, -0.29535508f, -0.04099343f, -0.05840870f, -0.09144437f, -0.10891550f, -0.11869304f, 0.10738218f, -0.07457182f, -0.02134531f, 0.12039275f, 0.08704075f, 0.08965960f, -0.08651951f, 0.09432165f, -0.02124627f, 0.00354101f, -0.00621303f, 0.09317145f, -0.04660085f, -0.03556452f, -0.15591750f, 0.08553474f, 0.01220606f, -0.14393970f, 0.10188903f, 0.11846370f, -0.08421320f, 0.26077276f, 0.09308337f, -0.07374234f, -0.09568131f, -0.05096583f, 0.01729814f, 0.02429307f, 0.11542568f, 0.23866446f, -0.00000765f, 0.09082460f, -0.01619539f, 0.22958809f, 0.15478081f, -0.06463406f, 0.13597924f, 0.22017772f, 0.10209150f, 0.03270675f, -0.11348928f, -0.10317496f, 0.09313765f, -0.07127998f, -0.04263866f, -0.13670950f, -0.03085983f, 0.17938145f, -0.02580146f, 0.10357034f, -0.04177660f, -0.03332436f, 0.00804778f, 0.08329119f, 0.18909718f, 0.13144550f, 0.00820376f, 0.09623975f, 0.02622860f, 0.18717904f, 0.26077193f, 0.12855878f, -0.03706935f, -0.07999319f, -0.10232437f, 0.05896950f, -0.04536043f, -0.15139961f, -0.09595447f, 0.10917564f, -0.16638304f, 0.16374983f, -0.13187352f, 0.03012568f, -0.03636461f, 0.01255724f, 0.08215394f, 0.13121390f, 0.05631073f, 0.14637636f, -0.02942620f, 0.14745022f, 0.06361444f, -0.03985725f, 0.02500821f, 0.21792100f, 0.24986820f, 0.13839793f, 0.09630650f, -0.06219085f, 0.19880277f, -0.21271706f, -0.25812152f, 0.00260107f, -0.10099313f, -0.06744903f, -0.02324679f, -0.06864044f, -0.13508165f, -0.08087447f, -0.02629434f, -0.12253807f, -0.14249636f, -0.07605664f, -0.20867428f, 0.26737684f, -0.01488572f, 0.00975077f, -0.06198243f, -0.10820897f, -0.07925552f, 0.15657037f, 0.05035137f, 0.08437860f, 0.01287305f, -0.10281207f, -0.09116537f, 0.02767379f, -0.09774438f, -0.14868745f, -0.21045007f, 0.14072034f, -0.01375805f, 0.02465392f, -0.00115494f, 0.02356120f, -0.05551787f, 0.07539826f, 0.00369922f, -0.11550719f, -0.19656739f, 0.00760540f, -0.01193599f, -0.17665349f, 0.05794338f, -0.05600539f, -0.14613134f, -0.10847282f, 0.03406574f, -0.08707628f, -0.06472005f, 0.02111528f, -0.06467338f, 0.04665604f, 0.08286169f, -0.20448148f, 0.04024455f, -0.11400858f, 0.05010295f, -0.11102673f, 0.05532496f, -0.13490961f, -0.05360081f, 0.09677346f, 0.10997743f },
    { 0.01397924f, 0.02848594f, 0.00825743f, -0.04535183f, 0.01537500f, 0.03759538f, 0.04532403f, 0.10270693f, -0.03064487f, 0.11003435f, -0.02116588f, 0.09613468f, 0.14540844f, -0.08169018f, -0.01913130f, -0.07004236f, -0.00544846f, 0.22086886f, 0.02103547f, 0.09467173f, -0.04234617f, 0.09275272f, 0.01243031f, -0.02108706f, -0.03007961f, 0.07012601f, 0.01529096f, 0.13120621f, -0.16272469f, -0.07879017f, -0.01077907f, -0.07751222f, -0.07219496f, 0.19032185f, -0.01551239f, -0.08635587f, -0.08755106f, 0.02035029f, 0.03463108f, -0.06299378f, 0.00516347f, -0.17726383f, -0.12044967f, -0.18506700f, -0.01588522f, -0.12377135f, -0.08884518f, -0.03419251f, 0.10276794f, 0.01022343f, 0.04792539f, 0.00047349f, 0.07721353f, -0.00290673f, -0.01880063f, -0.16849700f, -0.10995176f, 0.02105043f, -0.16904773f, 0.09415015f, -0.01642943f, -0.08278050f, -0.08269560f, 0.17214033f, -0.11792845f, -0.09841759f, 0.05586291f, 0.08715282f, 0.09763268f, 0.03500339f, 0.10737403f, -0.06098081f, -0.03584637f, 0.04380012f, 0.02753543f, -0.04554785f, -0.04843587f, -0.11537307f, 0.16833521f, -0.05475415f, 0.03901402f, -0.05190625f, 0.10704149f, -0.20156416f, -0.06164752f, -0.05503004f, -0.01330046f, -0.04368204f, -0.04755245f, 0.01370509f, -0.13537259f, 0.13636842f, -0.09394418f, 0.08156734f, -0.16879958f, -0.07347749f, -0.04734889f, -0.13794753f, 0.32275501f, -0.09963199f, -0.06412398f, -0.07000188f, 0.01217797f, 0.05621577f, 0.15383638f, 0.06436418f, -0.05299082f, 0.06335626f, -0.09885066f, 0.16830948f, -0.21161458f, -0.03025378f, -0.17342621f, 0.22366408f, -0.06745166f, 0.05124374f, -0.18681400f, -0.10007836f, -0.02861480f, 0.13064492f, -0.11117358f, 0.02095717f, 0.10427131f, -0.01618319f, 0.23171417f, 0.24128090f, 0.15075815f, -0.20440650f, 0.08621907f, 0.02937280f, 0.21402816f, 0.00546959f, 0.12620018f, 0.04428743f, -0.04751619f, -0.04074685f, -0.07039365f, -0.05138308f, 0.08936724f, 0.08723490f, -0.08127664f, 0.03066448f, 0.02690959f, 0.20470172f, -0.13008697f, 0.21539553f, -0.08932291f, 0.02983421f, 0.31272659f, -0.00050915f, 0.11727317f, -0.00962774f, 0.19368987f, 0.08733748f, 0.14014277f, 0.07386076f, 0.05246014f, 0.12065061f, 0.11773750f, 0.16068403f, 0.10382618f, -0.08087569f, -0.03808168f, -0.22198045f, -0.23827446f, 0.07342948f, 0.05125535f, -0.02406891f, -0.19076246f, -0.04988440f, -0.03929432f, -0.06157953f, 0.04156508f, 0.02868946f, -0.22899178f, -0.11671735f, -0.02431997f, -0.02256916f, 0.16822061f, 0.08760664f, 0.09248064f, 0.33442429f, 0.07057111f, 0.11500846f, -0.12206853f, -0.04592295f, -0.00747149f, 0.13519430f, 0.14823100f, 0.11276684f, -0.26836574f, -0.19860752f, -0.36982197f, 0.02801397f, -0.00140936f, 0.00934099f, 0.11918078f, -0.08207203f, -0.03909605f, 0.11123493f, 0.05323495f, -0.13128163f, -0.17647384f, -0.19752616f, 0.13847917f, 0.00833656f, -0.12689239f, 0.08341982f, 0.18175597f, 0.01829962f, 0.19333991f, 0.12651268f, 0.05109670f, 0.10712565f, -0.13537034f, 0.10604459f, -0.07205748f, -0.10418238f, -0.11047108f, -0.17823334f, -0.07693946f, -0.15805937f, -0.11164028f, 0.10994336f, -0.03831432f, -0.12585217f, -0.09768953f, -0.10625818f, 0.05486660f, -0.14838757f, 0.03160549f, -0.05532223f, -0.13345663f, 0.18188022f, 0.00084212f, -0.12276464f, -0.07749478f, -0.01123540f, 0.05933734f, 0.05070750f, -0.10821794f, 0.11978467f, -0.08621377f, -0.02785849f, -0.21995573f, -0.23986566f, -0.00194037f, -0.19260225f, -0.05150708f, -0.15826061f, 0.08260752f, -0.19228660f, -0.06706788f, -0.02957696f, 0.22933152f, -0.09604264f, 0.01686867f, -0.18517557f, -0.03750034f, -0.04215729f, -0.09478646f, -0.03015200f, -0.06062661f, 0.19977200f, 0.03801346f, 0.04685463f, -0.08289153f, 0.01633685f, -0.05724885f, -0.02511158f, -0.12162745f, -0.01968906f, 0.09450721f, -0.08729153f, -0.18391965f, -0.01979047f, -0.03730105f, 0.04008537f, -0.01698170f, -0.00800984f, 0.03672364f, -0.05330645f, -0.04353507f, -0.08577124f, -0.08838998f, -0.05476274f, 0.06748547f, -0.15194897f, -0.07819077f, -0.16960825f, -0.06466188f, -0.00085840f, -0.15965962f, -0.04353169f, 0.07160201f, 0.00669131f, -0.10829978f, 0.07708438f, -0.05358611f, -0.13167882f, -0.07504573f, 0.20079277f, 0.24550344f, 0.14102684f, 0.10260303f, -0.08318769f, -0.04961796f, -0.01930740f, -0.04917939f, 0.01585733f, 0.06630540f, -0.15569279f, -0.05282599f, 0.08962401f, -0.30771545f, 0.00659295f, 0.02493129f, -0.11105919f, -0.16509715f, -0.09179624f, 0.02601919f, -0.12971725f, 0.03728918f, 0.11912831f, 0.06683671f, 0.02116958f, 0.06220834f, 0.02927158f, 0.14300764f, 0.12021258f, 0.21037608f, 0.23684637f, 0.26641235f, 0.05442360f, 0.06997116f, 0.22424400f, -0.04085507f, -0.11178748f, 0.10456076f, -0.09757692f, 0.04233487f, 0.04038151f, -0.15153395f, -0.00836059f, -0.14837162f, 0.06654797f, -0.08651400f, 0.02218657f, -0.06223302f, -0.05736584f, -0.03534730f, 0.09195606f, 0.07280901f, 0.02611814f, 0.04273495f, 0.00708103f, 0.04040480f, -0.08271872f, 0.29663944f, 0.10475256f, 0.14811647f, 0.07560300f, -0.08879101f, 0.17160334f, -0.18139291f, -0.06694287f, -0.07060978f, -0.09037559f, -0.11012500f, -0.05162373f, -0.01711894f, -0.03805091f, -0.14272960f, -0.08753456f, -0.14313537f, -0.05200024f, -0.08224453f, 0.10265045f, 0.00512272f, 0.16079429f, -0.11988290f, 0.02479929f, 0.12592264f, 0.13931166f, -0.05512949f, 0.10910294f, -0.21426323f, -0.00371511f, 0.22156452f, -0.02517471f, -0.02161491f, -0.03164668f, 0.08464959f, -0.19114037f, -0.01810097f, 0.11844614f, -0.04556528f, -0.13235034f, -0.06360769f, -0.09024741f, 0.04617038f, -0.10364500f, -0.08288364f, 0.02461277f, 0.05758996f, 0.35348994f, -0.03893583f, 0.07251196f, 0.20385529f, -0.07445364f, 0.01681855f, -0.04058323f, 0.17334290f, 0.22292219f, 0.00867794f, -0.06563771f, -0.03909381f, -0.01879574f, 0.10520693f, -0.00958047f, 0.04501095f, 0.06936746f, 0.02859540f, -0.04844065f, -0.00787604f, 0.02376099f, 0.02185301f, 0.07643886f, -0.06572720f, 0.03099546f, 0.11435591f, 0.16819435f, 0.12961058f, 0.06015146f, 0.05034912f, 0.14156520f, -0.10167775f, -0.11088482f, 0.02178375f, 0.35163972f, -0.12166724f, -0.13471210f, -0.24078535f, 0.11147140f, 0.01483784f, -0.00306396f, 0.14320549f, -0.05081889f, -0.02359469f, 0.03217678f, -0.09234213f, -0.22595809f, 0.06415161f, 0.10429351f, 0.18504399f, 0.06326175f, -0.02492763f, 0.09349165f, 0.15042962f, 0.22746804f, 0.20969933f, 0.13838390f, 0.03643952f, -0.05691638f, 0.16201450f, -0.07237355f, -0.03670545f, -0.05262462f, 0.19262350f, 0.06488509f, 0.02219031f, 0.13335860f, -0.01132555f, -0.04020968f, 0.19169962f, 0.05816204f, -0.13603392f, 0.13794364f, 0.00907590f, 0.07374445f, -0.05034881f, 0.14014879f, 0.00171132f, -0.10407723f, 0.21556900f, 0.07962894f, 0.03230840f, 0.05012681f, 0.20095819f, -0.12500922f, -0.06032931f, -0.05674295f, 0.02221848f, 0.13506034f, 0.05524676f, 0.03092374f, 0.10229915f, 0.07926530f, -0.13079759f, -0.00951835f, 0.05409001f, -0.19537924f, 0.11446914f, -0.05395529f, -0.10081907f, -0.03271778f, 0.08592932f, -0.21107773f, 0.00287347f, 0.26197094f, 0.11097890f, 0.00950910f, 0.09055028f, 0.06350501f, 0.04767725f, 0.15291066f, 0.22608440f, 0.13305208f, 0.00640694f, -0.11680239f, -0.12604655f, -0.00011656f, 0.06457083f, -0.00646910f, -0.09070864f, 0.17700189f, 0.00244884f, -0.08470956f, -0.06256289f, 0.05728463f, 0.11721657f, -0.02464756f, 0.36152527f, -0.10852939f, 0.02593832f, -0.04100481f, -0.07112627f, 0.02588614f, 0.02206348f, 0.10441424f, 0.03821718f, -0.02635550f, 0.04893064f, -0.02316511f, 0.10398437f, -0.12138310f, 0.15461029f, 0.10843988f, 0.02708029f, 0.13816752f, 0.01493935f, -0.03721599f, 0.22671427f, 0.12597616f, -0.03705049f, 0.04022132f, -0.10221194f, 0.00407926f, 0.07283144f, -0.12686686f, -0.20733806f, -0.01210511f, -0.26274028f, 0.00919454f, 0.06726604f, 0.14122671f, 0.03308945f, 0.11661588f, -0.04485375f, 0.02458693f, 0.02083359f, 0.13400908f, -0.02197408f, 0.04151619f, -0.01183558f, -0.03770070f, -0.11030342f, -0.09844871f, 0.11096571f, 0.00635919f, 0.11844885f, 0.15694690f, 0.05226223f, -0.19541253f, 0.10900297f, 0.20119005f, -0.02571869f, -0.17089960f, -0.26851878f, -0.11459748f, -0.10178836f, -0.05066922f, 0.06212818f, -0.05555121f, 0.10393666f, 0.00419964f, 0.18429156f, 0.15066768f, -0.03766135f, -0.07246340f, -0.09543148f, 0.11319629f, -0.08653931f, -0.01402373f, -0.02179484f, 0.04061455f, 0.00784429f, -0.01942848f, -0.07324831f, 0.01706554f, -0.06908182f, -0.23280013f, -0.09905813f, 0.06161695f, -0.02243374f, -0.06111519f, -0.05942236f, -0.07781766f, -0.10063960f, 0.01358336f, 0.12538262f, -0.00856557f, 0.13037857f, -0.08392365f, 0.07824582f, 0.04808092f, 0.12302135f, 0.08062972f, 0.09656608f, 0.08500345f, -0.15482230f, -0.13140777f, 0.01752111f, -0.11366833f, -0.11042830f, -0.00074770f, -0.02536430f, 0.05504190f, -0.12223312f, -0.12288567f, -0.04467741f, -0.18569158f, 0.02951978f, -0.03419093f, 0.06778648f, -0.17752561f, 0.13981718f, -0.06271600f, 0.00327783f, -0.20021889f, 0.06352067f, -0.02400516f, 0.08485687f, -0.05144390f, 0.01339279f, 0.01343536f, 0.08302939f, 0.04026441f, 0.03890567f, -0.00337317f, -0.05597580f, -0.09433366f, 0.06835101f, 0.04650623f, 0.01518521f, 0.11650523f, -0.04906406f, 0.11518968f, 0.14424020f, 0.03336859f, 0.10879427f, 0.00114870f, -0.13502966f, 0.19316791f, -0.01061739f, 0.13117523f, 0.01219600f, -0.07887489f, -0.06882679f, -0.03609895f, 0.04293654f, -0.11383305f, -0.06051492f, -0.06424796f, -0.03967593f, 0.05862807f, -0.05927022f, -0.03208305f, 0.00408435f, -0.00564082f, -0.00644065f, -0.05102622f, -0.13652311f, -0.04607693f, 0.01182017f, -0.04313950f, -0.06248821f, 0.13489112f, -0.04338893f, 0.05432282f, -0.13864550f, -0.05184405f, 0.05745773f, -0.04870132f, -0.06142719f, -0.07631288f, -0.02898131f, 0.08913789f, -0.00438691f, 0.04214820f, 0.05992028f, -0.13205396f, 0.05983572f, 0.06686264f, 0.02904931f, 0.03189618f, 0.05889195f, -0.10541456f, -0.14908172f, -0.13397649f, 0.16613065f, -0.08508477f, 0.10388301f, 0.00733271f, 0.03514875f, -0.06297578f, 0.15832995f, 0.07815584f, -0.03719969f, -0.02128022f, 0.06260454f, -0.06670553f, 0.02718822f, -0.15376288f, 0.09424824f, 0.03857544f, 0.13923447f, 0.03629182f, 0.00490494f, 0.00375125f, -0.00408391f, 0.03381750f, -0.03391756f, -0.11417929f, -0.04740416f, -0.02162183f, 0.08585591f, 0.06111982f, 0.17108195f, 0.07137553f, 0.08804847f, 0.03941629f, -0.04887762f, -0.03458662f, -0.10231579f, -0.03273099f, 0.01100079f, -0.08804341f, -0.11496909f, 0.08594117f, -0.21946409f, -0.06122024f, -0.12565444f, -0.11108518f, -0.18119629f, 0.02123819f, -0.01768120f, -0.04281001f, -0.10274424f, 0.00371478f, -0.00694375f, 0.06603902f, 0.03310689f, -0.16792144f, -0.19935717f, -0.08542360f, -0.05656977f, 0.09755543f, -0.11899205f, 0.03271552f, -0.00456598f, 0.25557539f, 0.04269089f, 0.04970613f },
    { -0.02099123f, -0.12811194f, -0.11157923f, -0.07466512f, -0.04194253f, -0.08619611f, -0.10109232f, -0.01203440f, 0.00611445f, 0.11443194f, -0.09552782f, -0.02511423f, 0.08149825f, -0.09634586f, -0.15029433f, -0.08987486f, 0.09029383f, -0.26942098f, -0.07802049f, -0.07621995f, -0.01679726f, -0.10224201f, -0.16807547f, -0.09009672f, 0.13594113f, 0.00045925f, -0.01080383f, 0.13494571f, -0.09912664f, 0.10486865f, -0.08801285f, 0.05839348f, -0.08242944f, 0.04617403f, 0.05778421f, 0.07512093f, -0.00482163f, 0.06290955f, -0.04093720f, 0.23507421f, -0.02206656f, -0.06125103f, -0.03552511f, 0.12303981f, -0.02929539f, -0.04790760f, -0.00120777f, -0.07899980f, -0.04721307f, -0.10475354f, 0.00195283f, -0.02225026f, 0.12351511f, -0.01401592f, 0.02576649f, -0.13677886f, -0.08282920f, 0.04296800f, -0.01238999f, -0.06022159f, 0.14431061f, 0.04504460f, 0.02611574f, 0.13325360f, -0.04653136f, -0.04145838f, 0.00748326f, 0.14096630f, 0.32403317f, 0.13907260f, 0.02649050f, 0.07280912f, 0.26253745f, 0.14773285f, 0.09003852f, -0.06677813f, 0.16042288f, -0.08027877f, -0.07222585f, 0.06811749f, -0.06370358f, -0.05320670f, -0.03590437f, 0.15489295f, 0.15590361f, 0.02210136f, 0.01140588f, -0.05730703f, -0.06661116f, 0.01086399f, 0.19371673f, 0.01453198f, 0.14908411f, 0.18134829f, 0.20446838f, 0.36149457f, 0.47166938f, 0.43800238f, 0.38194346f, 0.00853481f, -0.01928171f, -0.10188589f, -0.33265623f, -0.16446371f, -0.12039236f, -0.10489015f, 0.02219074f, 0.08929928f, 0.02216120f, -0.16203845f, 0.08058909f, 0.01553112f, -0.08719672f, -0.08071511f, 0.08738367f, 0.02844730f, -0.02430344f, -0.00856891f, 0.09368382f, -0.05230986f, 0.11381562f, -0.04476312f, -0.11927115f, -0.17065452f, 0.12591259f, -0.07120270f, 0.05400695f, 0.02457785f, 0.13434781f, -0.11074413f, 0.07796664f, -0.34730893f, -0.00216155f, 0.02161674f, -0.06644832f, -0.16254824f, -0.10209431f, -0.01305365f, -0.14911060f, 0.01561466f, -0.04469232f, -0.08235144f, -0.09215099f, 0.01898159f, 0.02821964f, 0.09660859f, 0.15072967f, -0.04246530f, -0.06416850f, 0.01579264f, 0.03947136f, -0.09240787f, -0.18022752f, 0.04635202f, 0.07738129f, -0.18642984f, -0.02264426f, -0.03655907f, 0.16811824f, 0.06828395f, -0.07756351f, 0.09362041f, 0.14023305f, -0.06772393f, -0.18195456f, -0.11513031f, -0.12445986f, -0.19167411f, 0.10434935f, 0.03537971f, 0.06807183f, -0.09806135f, 0.00887475f, 0.25558797f, 0.15783353f, -0.00278580f, -0.02287637f, -0.08868481f, -0.04291243f, -0.13313071f, -0.12667395f, -0.03999547f, -0.04165077f, 0.10857663f, 0.08365956f, 0.03720238f, 0.12825212f, 0.03881984f, -0.03024935f, -0.03262381f, -0.03646187f, -0.15428206f, -0.02208261f, 0.04205777f, 0.16560015f, 0.01613970f, -0.16992328f, 0.07841236f, 0.10548344f, 0.16108106f, 0.20571432f, 0.22412646f, -0.03232447f, 0.10285302f, -0.04777228f, -0.21744496f, -0.31432641f, 0.11663803f, -0.01165048f, 0.06999736f, 0.03387414f, 0.04678091f, -0.17602171f, -0.15350185f, 0.05769392f, -0.13228172f, -0.12593402f, -0.10436877f, -0.15994336f, -0.08943439f, 0.04306754f, 0.14959691f, -0.13573520f, 0.03809521f, -0.01282517f, -0.15548256f, -0.09280244f, -0.02427831f, 0.32920945f, -0.14033403f, -0.18825011f, -0.19653089f, -0.09072930f, -0.03689612f, -0.22799286f, -0.15202750f, 0.00396165f, 0.29634380f, 0.06317956f, -0.06277631f, -0.04227603f, -0.11594658f, -0.08638081f, -0.07627878f, -0.11483633f, -0.04572575f, -0.08321020f, -0.09830630f, -0.37757325f, -0.21319802f, 0.05452052f, 0.12100825f, 0.14469115f, -0.13650364f, -0.08918414f, -0.11427204f, -0.28295371f, -0.06191726f, -0.23177579f, -0.10430446f, -0.14837357f, -0.19413029f, -0.29254141f, -0.24563280f, 0.27097341f, 0.46268773f, 0.19856496f, -0.31907865f, 0.03438784f, -0.11650810f, -0.00173519f, 0.04694306f, -0.09058931f, 0.11137611f, 0.06539845f, 0.00616302f, -0.28955886f, -0.16671054f, -0.08249685f, 0.04770565f, -0.00408165f, -0.17479299f, 0.06459757f, 0.00486996f, -0.15773407f, -0.08411772f, -0.03665384f, -0.07441584f, -0.21124762f, -0.04693368f, -0.41255465f, -0.21348964f, -0.06275909f, 0.68515140f, 0.25464275f, 0.00264395f, -0.04851827f, -0.11659522f, 0.03915030f, -0.02325422f, -0.18649071f, 0.11104787f, 0.00543262f, 0.04827405f, -0.19504695f, -0.22280583f, -0.02069434f, 0.07847240f, 0.04227259f, -0.05383129f, -0.18429816f, 0.16508310f, -0.04179200f, -0.09840699f, -0.21725392f, -0.30907303f, 0.05986073f, -0.21126595f, -0.54273885f, -0.42721468f, 0.06093407f, 0.15070856f, 0.15898502f, 0.07841962f, -0.00757567f, 0.13297057f, 0.01411460f, -0.06334695f, 0.02672715f, -0.00312164f, -0.20316361f, -0.11810700f, -0.11603201f, 0.04082524f, -0.11011920f, 0.04961164f, 0.13525976f, -0.05638440f, 0.06875093f, 0.04355131f, -0.06602733f, -0.07053068f, 0.00772019f, -0.26273713f, -0.07328040f, 0.00929626f, -0.02454932f, -0.36940622f, 0.02269873f, 0.07043470f, 0.14588192f, -0.11233326f, 0.01345377f, 0.01707746f, 0.04933725f, 0.11778221f, -0.07232517f, -0.12075279f, -0.10326307f, -0.34525129f, -0.07546867f, 0.17578088f, -0.06863532f, 0.12898411f, -0.06727304f, -0.00721159f, 0.02751931f, 0.04547421f, -0.05386447f, -0.14661984f, 0.20574535f, -0.09265418f, -0.12575714f, -0.15231989f, -0.12989949f, -0.07945368f, -0.05183911f, 0.25257358f, 0.11007556f, 0.11142568f, -0.03953925f, -0.13090216f, 0.11125997f, -0.01229309f, -0.05984311f, -0.11440457f, -0.28840026f, -0.08810709f, -0.00469819f, -0.19105667f, -0.27826920f, 0.05768402f, -0.01931989f, -0.08304585f, 0.09883923f, -0.00523212f, -0.08015005f, -0.01860896f, 0.03691823f, -0.15521912f, 0.04188114f, -0.06658293f, -0.18011101f, -0.12902139f, 0.12851015f, 0.08328962f, 0.21565939f, 0.21344793f, 0.12042002f, -0.12390576f, -0.07432153f, -0.03607399f, -0.32972729f, 0.11086192f, -0.27560028f, -0.05500704f, 0.08698787f, -0.15890469f, -0.15292846f, -0.07319079f, -0.08706842f, -0.22090881f, -0.00379717f, 0.01681781f, -0.34742355f, 0.02588415f, 0.01526251f, -0.17530105f, -0.10475241f, -0.22302291f, -0.17626359f, -0.04661501f, -0.03288238f, -0.12126005f, 0.21695037f, 0.25554910f, 0.07191791f, -0.06384332f, -0.03933234f, -0.05470100f, 0.20869495f, 0.15119331f, 0.20494199f, 0.30638885f, 0.24541980f, -0.15543640f, -0.12977713f, -0.10352512f, 0.02900147f, -0.08205006f, -0.06450928f, 0.29657081f, -0.01547026f, -0.07088116f, -0.03627724f, -0.04768156f, -0.05076540f, -0.04416532f, 0.07994819f, -0.03793112f, 0.11221533f, 0.08930784f, 0.23176709f, 0.05444529f, -0.03527824f, -0.04959737f, 0.20014898f, 0.22474761f, 0.08713367f, -0.04760066f, -0.03218804f, -0.07147510f, 0.07868496f, -0.02692671f, 0.00888257f, 0.10352336f, 0.03942552f, -0.04536897f, 0.12528884f, 0.01177444f, 0.13498975f, -0.00836271f, -0.00521256f, 0.14046377f, 0.10889157f, 0.06755421f, -0.08233286f, 0.00103159f, 0.19945613f, 0.05161339f, 0.18015148f, 0.04155241f, -0.15521923f, 0.09412543f, -0.00499115f, -0.04728346f, -0.00566222f, 0.24004686f, 0.01647968f, -0.07554430f, 0.06196386f, 0.02218246f, -0.15125453f, -0.06668706f, 0.08008425f, 0.05903885f, 0.01084457f, 0.00048742f, 0.11901267f, 0.00276660f, -0.07318284f, 0.12563735f, 0.13164979f, 0.07084133f, 0.11184711f, -0.10331890f, 0.07414173f, -0.07005112f, 0.15044758f, 0.11620808f, 0.03224933f, 0.10607206f, 0.22612830f, 0.15673466f, -0.02763393f, 0.35886505f, 0.27135172f, 0.03967811f, 0.13592632f, 0.14887539f, -0.04417004f, 0.06707886f, -0.09428611f, 0.08755632f, -0.08393415f, 0.09317629f, 0.07383946f, 0.11855613f, 0.01507904f, 0.21278475f, 0.05850857f, 0.22016349f, -0.03024767f, 0.06740849f, -0.04091801f, 0.08048239f, -0.08324112f, 0.05736930f, 0.13689440f, 0.09216674f, -0.19194454f, -0.12377568f, 0.08323017f, -0.10102894f, 0.01513364f, -0.15345702f, -0.02906636f, -0.06525750f, 0.04515542f, -0.10892854f, -0.26424325f, 0.01019813f, 0.04068837f, -0.06237576f, 0.16347560f, -0.09711677f, -0.02420754f, 0.09421834f, -0.15802528f, 0.18929575f, 0.26615417f, -0.03794013f, -0.26809779f, -0.02094458f, 0.18522426f, 0.08873522f, 0.08813465f, 0.27365074f, -0.00935590f, 0.17635269f, 0.16970941f, 0.03672152f, 0.10724735f, -0.03390310f, 0.02096227f, -0.13202457f, 0.03475304f, -0.12330648f, -0.13217740f, 0.11535753f, -0.05133613f, -0.16511923f, 0.20568192f, -0.00420702f, 0.06314723f, 0.04435025f, -0.01445203f, -0.01163814f, 0.11513085f, -0.03658327f, -0.13083161f, 0.03861564f, 0.08553927f, -0.01080670f, 0.09840697f, 0.20105723f, 0.25502980f, 0.23163466f, 0.10679415f, -0.11874193f, -0.07858592f, 0.03187408f, -0.05623814f, -0.08867644f, 0.20036957f, -0.08362658f, -0.32354334f, -0.02861113f, 0.04034964f, -0.10283705f, -0.14451848f, 0.15014488f, 0.38158253f, 0.03878250f, 0.00358245f, -0.08604149f, 0.00228193f, 0.10506386f, -0.07898148f, -0.02136623f, 0.13720784f, -0.05265197f, 0.17598261f, -0.02638192f, 0.00359216f, 0.10343531f, -0.16232546f, -0.19204138f, -0.05339015f, -0.09755198f, -0.17079884f, 0.04453153f, -0.04853189f, 0.11562390f, -0.04092731f, 0.06459969f, -0.17460106f, -0.07595728f, -0.08777161f, 0.08692797f, 0.09859119f, 0.34005922f, 0.01422329f, 0.05568346f, -0.03236203f, 0.04632785f, 0.05440226f, 0.02387501f, -0.04989301f, -0.15767893f, -0.14118545f, -0.17063078f, 0.04635960f, -0.17811367f, -0.19089697f, 0.02552391f, 0.18091941f, 0.11012929f, -0.06490790f, 0.02164681f, 0.06817827f, 0.03018670f, -0.04776490f, 0.01685936f, -0.01668771f, -0.11722397f, 0.19536473f, -0.10439163f, 0.12715578f, 0.14343926f, 0.14313488f, -0.09166557f, 0.13630210f, -0.10979399f, 0.10287601f, 0.00831545f, -0.01767668f, -0.02633568f, 0.17061180f, 0.08552789f, 0.05958350f, -0.09219623f, 0.06605676f, 0.17782123f, 0.12466741f, -0.17688628f, -0.00402659f, 0.00349489f, -0.05132247f, 0.11703034f, 0.10805411f, 0.16945015f, -0.01264889f, -0.17164876f, -0.05043645f, -0.18524547f, -0.00675696f, -0.03477677f, 0.00953694f, 0.08346292f, 0.06129939f, -0.02053333f, 0.18989526f, 0.07246092f, 0.17574044f, 0.08641150f, -0.01853868f, 0.19369036f, -0.19851018f, -0.07962034f, -0.12811071f, 0.01511420f, -0.07976316f, 0.05172459f, 0.26359156f, -0.18391676f, 0.00221893f, -0.12895912f, 0.04501922f, 0.01956488f, -0.03200983f, -0.14635602f, -0.07402463f, -0.24308316f, -0.30935290f, -0.04511110f, -0.06771284f, -0.04296060f, 0.01029393f, 0.02980326f, 0.02324450f, -0.14132528f, -0.09746302f, 0.13041344f, 0.00827856f, -0.00029590f, -0.17133693f, 0.08748662f, -0.07668243f, -0.07630739f, 0.03679676f, 0.01341675f, -0.14415810f, -0.00795569f, 0.00012314f, 0.11313384f, 0.10932086f, 0.06539252f, 0.03127280f, 0.06346624f, -0.07272342f, 0.06241247f, -0.04399018f, 0.11642601f, 0.04416470f, 0.09899890f, -0.11432225f, -0.19235052f, 0.02354679f, 0.08673507f, -0.02378221f, -0.04160433f, 0.10989301f, -0.12514070f, -0.13467586f, 0.13821240f, 0.09424697f, 0.02581649f, -0.18511760f, -0.20569682f, -0.01483947f, 0.04174016f, 0.14135720f, -0.16340916f },
    { -0.09833530f, 0.06262758f, 0.02994164f, -0.03750842f, 0.02835343f, -0.03659312f, -0.14557028f, -0.02822405f, 0.00141693f, -0.04612702f, 0.00481738f, -0.06637631f, 0.01665675f, -0.13956028f, -0.08758449f, 0.07233645f, -0.02202043f, 0.10033404f, 0.03402727f, -0.06623346f, -0.14643419f, 0.03305620f, -0.24849021f, -0.19297381f, 0.10884149f, -0.03656445f, -0.13668938f, -0.21481429f, 0.15973939f, -0.18072741f, -0.11047098f, -0.13011985f, 0.04515481f, -0.07314169f, -0.19844526f, 0.07643584f, 0.01186564f, 0.03765947f, 0.00206637f, -0.10493007f, -0.08302029f, -0.14033140f, -0.05349117f, -0.02093070f, -0.09680171f, -0.07450733f, -0.12206056f, -0.12203430f, -0.06871630f, 0.01068287f, 0.00937157f, -0.25477540f, -0.03370169f, -0.11679462f, -0.07282306f, -0.01819314f, -0.04502017f, -0.02545256f, 0.03593661f, 0.06511580f, -0.12712857f, -0.05251774f, -0.18563953f, -0.06225842f, -0.08139373f, 0.00235590f, -0.10682768f, 0.04639310f, 0.02114321f, -0.15142529f, -0.13501509f, -0.00788479f, -0.15426351f, -0.09784649f, 0.06377531f, 0.09457013f, -0.16214375f, -0.12128021f, 0.03777402f, 0.07706272f, -0.05065496f, 0.17501201f, -0.18462843f, -0.17259508f, -0.09683561f, -0.19331250f, 0.06908625f, -0.13614760f, 0.07012751f, -0.15114979f, -0.04854031f, -0.07287844f, 0.13110693f, 0.17505492f, 0.02638954f, -0.00646230f, 0.08611424f, 0.18353216f, 0.09084035f, 0.09570370f, 0.04514744f, 0.12187189f, 0.11186472f, 0.08484278f, 0.05461714f, -0.03363051f, 0.00510320f, 0.05142113f, -0.11553666f, -0.05015608f, 0.18024103f, -0.06464302f, -0.12820017f, -0.12159175f, 0.06011607f, -0.02498022f, -0.00641534f, -0.02365974f, -0.28889915f, -0.08891466f, 0.00297149f, -0.01481029f, 0.11391848f, -0.03599690f, -0.01537828f, -0.03974440f, -0.05868367f, -0.03321206f, 0.02686039f, 0.14249025f, -0.02808832f, -0.09015939f, 0.10610552f, 0.04938531f, 0.04439315f, -0.01697937f, 0.03546809f, -0.08464764f, -0.21336518f, -0.02088507f, 0.09794082f, 0.05715158f, -0.03575033f, -0.04932688f, -0.17909922f, 0.04826235f, -0.09073631f, 0.15005216f, 0.03842101f, 0.35182226f, 0.20118098f, 0.05942884f, 0.16719736f, -0.03236304f, 0.10976959f, 0.10575837f, 0.06413112f, 0.06969750f, -0.01319223f, -0.05608352f, 0.05765842f, 0.20829207f, 0.08254285f, 0.05514853f, 0.00277434f, 0.09614280f, 0.04629972f, -0.09856905f, -0.23032513f, -0.11084684f, -0.14919850f, 0.23828909f, 0.03704837f, 0.14425497f, -0.07833331f, -0.05247830f, 0.26242131f, 0.25410241f, 0.22859834f, 0.26718712f, 0.32580248f, 0.14678973f, 0.10452373f, -0.01753420f, -0.03425231f, 0.01914060f, -0.14247435f, -0.06935045f, -0.21981940f, -0.10303331f, -0.06513233f, 0.19643904f, 0.07504929f, 0.02293477f, -0.05178221f, -0.11513919f, -0.10615958f, 0.07657930f, -0.15010655f, -0.00730448f, -0.01257948f, -0.12116044f, 0.03809641f, 0.08034693f, 0.28163654f, 0.48001727f, 0.40891272f, 0.09365276f, -0.09572975f, 0.09206406f, -0.08650563f, -0.22243810f, -0.10542738f, -0.09140109f, -0.10845816f, -0.09029357f, -0.23182362f, 0.03708297f, -0.08009855f, -0.09249590f, 0.20607296f, -0.04186173f, -0.05774938f, -0.02660073f, -0.26617545f, 0.07828930f, 0.02136802f, -0.04107815f, -0.12604190f, 0.10066389f, -0.01495868f, 0.22867984f, 0.30608147f, 0.29966262f, 0.06840979f, 0.18872634f, -0.08874814f, -0.09925274f, -0.08087954f, -0.10191226f, 0.01896410f, -0.06013345f, -0.23189463f, 0.04173077f, -0.01277897f, -0.10400246f, -0.08709933f, -0.03428937f, -0.13123146f, 0.09695952f, 0.11206660f, -0.11757483f, -0.02567157f, -0.02343756f, 0.04555044f, -0.14365296f, 0.00608701f, -0.16515881f, 0.16092974f, 0.18224418f, 0.43011847f, -0.01733670f, -0.11199649f, 0.06411225f, 0.03342730f, -0.14150420f, -0.10968449f, -0.05141026f, -0.19941337f, 0.17405514f, -0.02075735f, -0.17297140f, -0.01402830f, -0.03216733f, -0.01881105f, 0.11408217f, 0.00783457f, 0.01730938f, 0.06241714f, -0.21817832f, 0.00027066f, -0.02265144f, 0.09222560f, -0.14575994f, -0.00249891f, 0.20942383f, 0.20167594f, 0.18005189f, -0.03422439f, 0.02220844f, 0.01681331f, -0.09917311f, -0.09761349f, 0.00244032f, -0.05255445f, 0.06988090f, -0.20128994f, 0.06103970f, 0.11662836f, 0.07666326f, 0.00253483f, 0.13763981f, -0.00427738f, -0.16651128f, -0.05748886f, -0.12280664f, -0.17074494f, 0.04283622f, 0.21056724f, -0.03619342f, 0.07953332f, 0.03122380f, 0.13897479f, 0.18776603f, -0.03278480f, 0.02785398f, -0.00353700f, -0.03725526f, 0.01356731f, -0.00493042f, 0.16531052f, -0.05671562f, -0.05861257f, -0.12715344f, -0.00842982f, -0.05963564f, -0.02049866f, -0.02984716f, -0.19766656f, -0.19189073f, -0.17712116f, -0.23672712f, -0.31458214f, -0.20175883f, 0.00931736f, -0.07005858f, -0.09796751f, -0.04492065f, -0.05978880f, 0.02755215f, -0.07910001f, -0.15064974f, 0.05808330f, -0.09754638f, 0.02647937f, 0.00298316f, -0.08987439f, -0.09302359f, 0.16486432f, 0.09687892f, -0.02608658f, -0.01110158f, -0.03150213f, -0.16389258f, 0.05438530f, -0.07532509f, 0.06458147f, -0.17286752f, 0.13670878f, -0.17253126f, -0.19883248f, -0.07172733f, -0.04318189f, -0.03548431f, -0.28113076f, -0.04564935f, -0.05975600f, -0.22792870f, -0.15914734f, 0.19091487f, -0.04535524f, 0.06959749f, 0.02213149f, 0.14856012f, -0.06130679f, 0.10777774f, 0.05223912f, 0.08161564f, -0.08145307f, 0.05971653f, 0.02082948f, 0.03795726f, 0.09296878f, -0.08114703f, 0.12273701f, -0.00368192f, -0.21274397f, -0.24564171f, 0.12720713f, -0.08842102f, -0.05533638f, -0.04612610f, -0.07829715f, 0.05439250f, 0.02239149f, 0.02577084f, -0.13855934f, 0.04324314f, 0.08364103f, 0.15069525f, 0.03429679f, 0.11484259f, 0.15984303f, -0.00135041f, 0.02927033f, -0.13547455f, -0.11981528f, -0.05066238f, -0.04091625f, 0.03433332f, 0.03514870f, 0.09185824f, 0.00682292f, -0.02396193f, 0.02043633f, 0.06468759f, -0.10299768f, -0.02190140f, 0.02120931f, -0.21934976f, 0.09440147f, 0.03728011f, 0.13131195f, -0.11314805f, 0.07445466f, -0.20515634f, -0.13536519f, 0.21418338f, -0.08471548f, -0.00567465f, 0.07408687f, -0.08755556f, 0.06380217f, -0.05919680f, 0.04050168f, 0.07234015f, 0.01697917f, -0.09909739f, 0.18059361f, 0.02616774f, 0.02693864f, 0.11446600f, 0.02167094f, -0.00678413f, -0.08788127f, -0.03202135f, -0.11122476f, 0.01855239f, -0.04174031f, 0.13667057f, -0.07240712f, 0.04352241f, 0.03821227f, 0.01190915f, -0.10997551f, -0.07042194f, 0.04531478f, -0.05851847f, -0.07627078f, 0.00096433f, 0.03853487f, 0.04247996f, -0.00410611f, 0.12366784f, -0.00944775f, -0.03124200f, 0.06077002f, 0.33399501f, 0.22091414f, 0.25139409f, 0.00458214f, -0.04061934f, -0.04677259f, 0.16681828f, 0.01270437f, 0.01197243f, 0.08910412f, 0.08602685f, 0.01164220f, 0.00721553f, 0.02576435f, 0.06296391f, -0.03518252f, -0.02311553f, -0.07534632f, -0.06697273f, -0.07810897f, -0.05731523f, -0.00861204f, -0.11233224f, -0.05159013f, 0.01889720f, 0.01906484f, -0.00319925f, 0.19889694f, 0.22048871f, 0.41683060f, 0.09233042f, -0.22307116f, -0.04002537f, -0.04902026f, -0.03679496f, 0.08677094f, 0.00309802f, -0.14460891f, -0.12124290f, -0.08125506f, -0.07039688f, 0.18834223f, 0.10071755f, 0.00447136f, -0.02217048f, 0.06826416f, -0.13396379f, -0.01644257f, -0.00826765f, -0.05456210f, 0.08477721f, -0.02732758f, 0.01308883f, 0.10709140f, 0.08261058f, 0.05047848f, 0.32867703f, 0.05988592f, 0.05227201f, -0.01329690f, 0.10067359f, 0.01090457f, -0.03858998f, -0.12080807f, -0.07358094f, 0.06358953f, 0.10366159f, 0.13750973f, 0.12332986f, 0.02387944f, 0.21385296f, 0.05927103f, -0.14521798f, -0.02892123f, 0.14155394f, 0.08054332f, -0.07967118f, 0.02055867f, -0.10859649f, 0.00155812f, -0.08252320f, 0.00146838f, -0.08445333f, 0.18717483f, 0.23499660f, 0.15605119f, 0.11994449f, 0.01286499f, -0.21914305f, -0.04617553f, 0.07382265f, -0.15603592f, -0.03332755f, 0.08600304f, 0.00858366f, 0.00841500f, 0.11698204f, 0.11357930f, 0.03940510f, 0.15620866f, -0.09880510f, -0.01982665f, 0.11446740f, 0.13739410f, 0.03287055f, 0.17281438f, 0.03637377f, -0.02175580f, -0.04557697f, -0.07883893f, 0.02171871f, 0.35004252f, 0.13155745f, 0.07517397f, 0.26558629f, -0.00129402f, -0.13184950f, -0.02144270f, -0.06986552f, -0.13507901f, 0.05619729f, -0.07692987f, -0.06643490f, 0.12575296f, -0.03794726f, 0.04822103f, 0.10453657f, 0.08251018f, 0.15931740f, 0.23060860f, -0.08950007f, 0.11660151f, 0.18489920f, 0.15338612f, 0.08990702f, -0.02817662f, 0.05698737f, -0.06804895f, -0.03934456f, 0.21720667f, 0.06219259f, 0.06331892f, 0.14023118f, 0.06128880f, 0.07553363f, -0.07723182f, -0.13713846f, -0.06478824f, -0.05779147f, -0.18672937f, 0.12679648f, 0.17202358f, -0.09136016f, -0.02936578f, -0.07913019f, -0.09949814f, -0.09331074f, -0.05031626f, -0.02600395f, -0.03923200f, -0.02082064f, 0.06214489f, 0.06247580f, -0.16181527f, 0.00987086f, 0.02756004f, 0.07585055f, 0.27445999f, 0.19099265f, 0.09321739f, -0.08256687f, 0.08348864f, 0.01417178f, -0.14150377f, 0.10886067f, 0.05198352f, -0.20688467f, -0.04151774f, 0.02659586f, -0.14492387f, 0.10879236f, 0.01334722f, -0.08154029f, 0.02558994f, 0.13912132f, 0.04777312f, -0.08458517f, 0.05303032f, -0.00292153f, -0.07539310f, -0.21965881f, 0.17551139f, -0.00938215f, 0.08490000f, -0.00140486f, 0.04170945f, -0.02784307f, 0.05153384f, 0.01707120f, -0.13354470f, -0.15359423f, 0.06774888f, 0.11430860f, -0.16449742f, 0.11431710f, 0.20432995f, -0.08558609f, -0.05706828f, -0.01439122f, -0.03984621f, -0.03431538f, 0.06493022f, 0.00732499f, 0.07267940f, 0.06262896f, -0.06146516f, -0.06324792f, 0.02831647f, 0.03214293f, 0.07077257f, 0.00922635f, 0.08201056f, -0.11732747f, 0.17984921f, 0.06630178f, -0.03268613f, 0.05444572f, -0.01893330f, 0.06698733f, -0.11365074f, -0.02126496f, 0.06684908f, -0.11442238f, -0.16612996f, 0.03695723f, -0.12731992f, -0.03986052f, -0.07622567f, 0.04486849f, 0.02211891f, 0.01511975f, -0.05103638f, -0.06272857f, 0.01780824f, 0.18968043f, 0.13236319f, -0.05261568f, -0.10276783f, -0.16726114f, -0.08617826f, -0.00299655f, 0.00272420f, -0.18089335f, -0.12732318f, -0.23203751f, -0.07717493f, -0.12980181f, 0.01582192f, -0.04525659f, 0.00297793f, 0.00454023f, -0.11942640f, 0.06282523f, 0.00992933f, -0.04013042f, -0.28494737f, -0.13529511f, -0.22708604f, -0.14482437f, -0.04586436f, -0.06651330f, -0.13284422f, -0.15792429f, -0.24798295f, -0.11597454f, -0.12063765f, -0.02671166f, -0.10255280f, -0.17960785f, 0.01431099f, -0.18494605f, -0.19870439f, -0.23620535f, -0.15421914f, 0.01610250f, -0.04078825f, 0.00186787f, -0.11103291f, -0.00188915f, -0.00350788f, 0.04573561f, -0.05476274f, -0.17061053f, 0.07362346f, 0.05477512f, -0.26331121f, -0.04960418f, -0.21851091f, 0.02078173f, 0.02600581f, -0.01640984f, -0.06791830f, -0.09663789f, -0.05919404f, 0.09341824f, -0.09508239f, 0.10428930f, 0.05411117f, -0.02253225f, 0.01637331f, 0.01750299f, -0.04416125f, -0.03416373f, -0.22105588f, -0.12312834f, -0.12179461f, 0.07647295f },
    { -0.04402525f, 0.25879550f, 0.04549218f, 0.05590793f, 0.07027916f, -0.08234122f, 0.18534493f, 0.24887900f, 0.04200712f, -0.06137112f, 0.18175496f, 0.10982035f, -0.04367324f, -0.05028370f, 0.02948574f, 0.05982278f, 0.13070980f, -0.00971476f, -0.04875343f, 0.09225200f, -0.05420232f, -0.06180810f, -0.00244515f, 0.01202576f, -0.00954323f, 0.07400805f, 0.08691259f, 0.08801696f, 0.00394028f, 0.07165103f, -0.01760747f, 0.14617173f, -0.10605225f, 0.09429289f, 0.11743668f, 0.07486498f, 0.05627889f, 0.22857796f, 0.02432595f, -0.23498268f, 0.12727661f, -0.01916972f, -0.12742867f, 0.04626735f, -0.15034172f, 0.17268947f, 0.09551597f, 0.07153494f, -0.04114597f, 0.04006310f, 0.22964409f, -0.03911181f, 0.12620389f, 0.09049839f, -0.13419199f, 0.25114891f, 0.01762466f, 0.12509723f, 0.10387097f, -0.01094796f, 0.13679951f, 0.11929075f, 0.07231969f, 0.04449061f, 0.17105961f, 0.13436206f, 0.15414485f, 0.15253283f, 0.21579640f, 0.14339526f, 0.19827032f, 0.08945917f, 0.15588573f, 0.27719003f, 0.16746810f, 0.02501529f, 0.03956974f, -0.12358274f, 0.01519546f, 0.04805935f, -0.11615492f, -0.09176701f, 0.02427550f, 0.14600086f, 0.01524347f, -0.16724426f, -0.06039212f, -0.06703155f, 0.09293390f, 0.00106678f, 0.11090627f, 0.14876874f, -0.05849240f, -0.03828535f, -0.10016616f, -0.01384233f, -0.03940265f, 0.07674594f, 0.13793586f, -0.09969980f, -0.05772846f, 0.07588284f, 0.15709709f, -0.20602421f, 0.05515408f, -0.02449727f, 0.16413373f, 0.07716365f, 0.10761750f, -0.01656285f, 0.10395274f, 0.10496701f, 0.14422040f, 0.06678940f, 0.07031865f, 0.16812699f, 0.04431013f, 0.05620203f, 0.08186902f, -0.08381154f, -0.08956438f, -0.05186598f, 0.25379604f, -0.17214724f, 0.13001177f, -0.02765455f, 0.14661448f, 0.04813392f, 0.15003203f, -0.23764136f, 0.06667212f, -0.10806353f, 0.08960991f, -0.06206801f, 0.11897989f, -0.02161605f, 0.00324825f, -0.03443857f, 0.07265066f, -0.13908230f, -0.03867679f, -0.12628688f, 0.14137477f, -0.07404248f, -0.07078867f, -0.03356791f, 0.05958983f, -0.02578791f, -0.25347951f, -0.00696555f, 0.07247734f, -0.06170070f, -0.10041261f, 0.06532492f, -0.05500309f, 0.01005963f, -0.12763765f, -0.04626270f, 0.26071018f, -0.01810022f, 0.10645533f, 0.08733039f, -0.08321392f, 0.06784087f, -0.09312377f, -0.07399681f, 0.04552121f, -0.03660377f, -0.05720744f, -0.00487201f, 0.02232792f, 0.09040761f, -0.02079814f, 0.08254384f, -0.06850377f, 0.11123898f, -0.12924923f, -0.17958033f, 0.23231034f, 0.06757344f, -0.02944112f, 0.03701689f, 0.04136861f, -0.10067090f, -0.00310544f, 0.27138445f, -0.14906478f, 0.18937156f, -0.12809747f, -0.12774883f, -0.06863495f, -0.05101659f, -0.04799115f, -0.12492584f, 0.02994794f, 0.02448925f, -0.01429668f, 0.02735630f, 0.16470572f, 0.07335787f, 0.02645966f, -0.10552521f, -0.11229850f, -0.13688152f, -0.01642314f, 0.05463021f, -0.01614242f, -0.05908272f, -0.13904716f, 0.05943276f, -0.21350101f, 0.11810684f, 0.01253177f, 0.00194481f, 0.04677827f, 0.13210143f, 0.10016904f, 0.00841257f, 0.08369922f, 0.29509920f, -0.09258415f, -0.09455024f, 0.02517084f, 0.00873844f, 0.01469914f, 0.04791668f, 0.09232489f, 0.02300106f, 0.13336250f, -0.22674696f, -0.08567015f, -0.08565935f, -0.05786700f, -0.13205092f, -0.01300617f, 0.02023020f, 0.00657480f, -0.05635024f, -0.02236210f, -0.09296347f, 0.02528531f, 0.01143950f, 0.07136528f, 0.16257499f, -0.00995743f, 0.01963171f, -0.03079051f, 0.03712784f, -0.14932242f, 0.08188342f, 0.00576444f, -0.02180298f, 0.00554428f, 0.03927296f, -0.06559108f, 0.08110306f, 0.19440442f, 0.10935096f, 0.04611950f, -0.25143474f, 0.00674348f, 0.01880701f, 0.12241001f, -0.02338127f, -0.13035464f, 0.07427252f, -0.05460732f, 0.10780166f, -0.11876059f, -0.00687410f, -0.13937452f, 0.15201999f, 0.04524594f, -0.08170553f, 0.11850218f, 0.12988527f, -0.18634340f, -0.03287365f, 0.29630867f, -0.01485245f, 0.01360165f, -0.07305986f, -0.00282745f, 0.03353582f, 0.04419264f, -0.12124681f, 0.03753418f, -0.02982360f, 0.00563042f, -0.03881477f, -0.17674682f, -0.10099392f, 0.16881064f, 0.00650220f, 0.02521993f, -0.09198259f, 0.00225951f, -0.01904125f, -0.10072524f, 0.08805453f, 0.13267712f, 0.23052786f, 0.06852564f, 0.11904875f, -0.05940548f, 0.02864659f, -0.02067703f, 0.10453180f, 0.08657651f, -0.11488824f, 0.11403592f, 0.03170013f, 0.17872234f, -0.08961691f, -0.06310975f, -0.08020754f, -0.05683178f, -0.00692206f, -0.07446803f, -0.00863512f, -0.01916525f, -0.07760050f, -0.13297178f, -0.11405326f, -0.16479024f, -0.23729177f, 0.00633470f, -0.02505425f, -0.02058468f, -0.02208701f, 0.07310376f, 0.07967329f, -0.00597739f, -0.07967051f, 0.29113269f, 0.10067853f, -0.02701352f, 0.05784643f, -0.04682596f, -0.34289512f, -0.09715895f, 0.01651568f, 0.04089477f, 0.11505833f, 0.12908642f, -0.12789477f, 0.01950333f, -0.11346342f, -0.10367616f, -0.16048959f, 0.02771432f, -0.03422197f, -0.01344377f, -0.02218931f, -0.00438821f, 0.31226283f, -0.00647429f, 0.01283899f, -0.10137709f, 0.22912446f, 0.14872319f, 0.14953287f, 0.01052839f, 0.04092738f, 0.05457558f, 0.04170014f, 0.09378587f, -0.00854344f, -0.03305082f, 0.12538117f, 0.21416354f, 0.00185563f, -0.08305078f, 0.07620964f, 0.03314450f, 0.13686298f, 0.14515775f, 0.06787362f, 0.09460045f, -0.14742787f, 0.05210259f, 0.04363825f, -0.03091914f, 0.00123060f, 0.05484064f, -0.12188478f, 0.02725157f, -0.02566655f, 0.14235100f, 0.12286656f, 0.01330292f, 0.08567619f, 0.02642406f, -0.02983370f, -0.00905425f, 0.00060761f, -0.08347238f, 0.06203259f, -0.06281839f, 0.08366019f, 0.14266399f, 0.08387547f, 0.17065176f, 0.03398827f, -0.08404228f, 0.01606872f, -0.16038951f, -0.03462851f, -0.17783800f, 0.08659975f, -0.21711625f, -0.05876246f, 0.05572501f, 0.04577151f, 0.10324945f, -0.14721934f, 0.21675242f, 0.13036603f, 0.03472913f, 0.04651910f, 0.15392596f, 0.22503358f, -0.11899392f, 0.10172155f, 0.01843591f, 0.15383668f, 0.10205960f, 0.12636088f, 0.11119290f, -0.03964654f, 0.31536356f, 0.01676041f, -0.05524351f, -0.13963141f, -0.06623145f, -0.06059490f, -0.11012261f, 0.01674426f, 0.05127910f, -0.00802618f, 0.11563072f, -0.03798870f, 0.17522152f, 0.28290895f, 0.06013025f, 0.15775453f, 0.04612474f, -0.02550787f, -0.07456196f, 0.11824182f, -0.01011962f, 0.00591954f, -0.05504417f, 0.10276211f, -0.12166371f, 0.15518224f, 0.07094817f, 0.10544603f, 0.14778647f, 0.05867141f, -0.25527525f, -0.11289624f, -0.13728875f, -0.13287143f, -0.12434820f, -0.04492039f, -0.02508145f, 0.01992547f, -0.09610245f, 0.13249116f, -0.00691194f, 0.12488709f, 0.09259873f, -0.05190020f, -0.03091562f, -0.02901002f, -0.21758972f, -0.09924358f, -0.01696272f, -0.06495165f, 0.03107597f, -0.04343751f, 0.10255558f, -0.02726956f, 0.28482273f, 0.16766728f, -0.04720833f, -0.11511052f, -0.15762039f, -0.31803077f, -0.04829793f, 0.07874638f, 0.01197125f, 0.10262380f, -0.16780809f, -0.00574758f, -0.01486791f, 0.03784918f, -0.13027242f, -0.07676448f, -0.03303201f, -0.18220274f, 0.08565347f, -0.06167580f, -0.12563822f, -0.04805114f, 0.01617384f, -0.17084384f, 0.02704596f, -0.08395451f, 0.21360056f, 0.07894324f, 0.11822113f, 0.09727673f, -0.01796071f, -0.19915518f, -0.08571203f, -0.14402750f, -0.03520043f, -0.14022243f, -0.03808133f, -0.02716273f, 0.13967629f, 0.01224080f, 0.08840259f, 0.16158436f, 0.11230409f, 0.16671680f, -0.12461388f, -0.16041902f, 0.04532985f, -0.01457288f, -0.02936426f, 0.00458860f, 0.01115372f, -0.08169182f, -0.12685765f, -0.09154469f, -0.00247831f, 0.05888875f, 0.19466287f, 0.09167930f, -0.06796212f, -0.00770537f, -0.12670478f, 0.11743759f, -0.06371713f, -0.10648211f, -0.13975121f, -0.13618146f, 0.06176725f, 0.01914280f, -0.03350124f, -0.01404774f, 0.21772484f, 0.05742526f, -0.01569463f, -0.10548855f, -0.00810457f, -0.07507719f, -0.05005245f, 0.04715531f, 0.22796667f, -0.08213045f, 0.07049517f, 0.05548834f, -0.08202145f, 0.09025037f, 0.17152223f, -0.06162771f, -0.04491323f, -0.08408406f, -0.13991442f, -0.06102696f, -0.08303893f, 0.11719411f, -0.03028607f, -0.13972902f, 0.01585040f, 0.04281800f, -0.16182204f, 0.07955038f, 0.00459087f, 0.08831508f, -0.04208840f, -0.02192644f, 0.02001489f, 0.19574213f, 0.03978827f, 0.05244752f, 0.06359517f, 0.00822613f, -0.17168552f, 0.08999000f, -0.01236460f, 0.18827316f, 0.04304248f, 0.22662504f, 0.12486274f, 0.03911775f, 0.02217836f, -0.22763325f, -0.05995791f, -0.12531497f, 0.03971635f, -0.03138252f, 0.04064381f, -0.08733927f, 0.04080750f, -0.04020387f, -0.11892168f, -0.18286966f, 0.06471241f, 0.12443694f, 0.00678561f, 0.02105015f, 0.10206915f, 0.08552827f, -0.10312527f, 0.07787927f, -0.11099879f, -0.01065040f, 0.00636103f, 0.04723709f, 0.06539188f, 0.09832743f, -0.07409140f, -0.19996321f, 0.11220835f, 0.06422500f, -0.10263567f, -0.03054581f, -0.16203339f, -0.10964274f, 0.02687147f, -0.07539687f, -0.12119894f, 0.13680638f, -0.24222362f, 0.05104320f, 0.04948913f, 0.12933855f, 0.03893891f, 0.07024366f, 0.08871829f, 0.03703292f, -0.08837461f, -0.11262545f, -0.05448256f, -0.03749153f, -0.05785175f, 0.14473136f, 0.08155531f, 0.26484603f, 0.03321777f, 0.08083016f, 0.12167075f, 0.12052660f, 0.02612548f, -0.03849065f, 0.06074215f, -0.02884684f, -0.05552262f, 0.00782745f, -0.00881169f, -0.17689441f, -0.02401887f, -0.13809244f, 0.07814706f, -0.02767711f, -0.05642496f, -0.04214939f, -0.00034105f, 0.07669678f, -0.02436308f, 0.00259188f, 0.07897451f, -0.03558914f, 0.04645054f, 0.20545648f, -0.01298487f, -0.08909182f, -0.08409064f, 0.09468654f, 0.05183558f, 0.16698729f, -0.13983600f, -0.12458700f, -0.00042002f, -0.07638954f, -0.10601781f, 0.01133741f, -0.01222005f, -0.10190544f, 0.10197537f, 0.15880445f, -0.03369136f, 0.00963375f, 0.11558740f, 0.02191531f, -0.08789160f, 0.11753174f, 0.15461312f, -0.07360978f, 0.08384729f, -0.00137872f, -0.10330106f, 0.07339263f, 0.00573289f, -0.00243987f, -0.14933208f, -0.14616895f, -0.09192146f, 0.01329336f, -0.11823519f, -0.14014584f, -0.14182459f, -0.11286487f, 0.05047489f, -0.11845802f, -0.09313872f, 0.06567831f, 0.03914587f, 0.16025868f, -0.05483093f, -0.11354274f, 0.03056222f, 0.22895586f, -0.04125945f, 0.06627254f, 0.04258230f, 0.06073941f, -0.05882844f, 0.06874894f, 0.06231185f, -0.06479687f, -0.10076900f, 0.03174293f, -0.13507129f, 0.00537725f, 0.08587968f, 0.02073089f, -0.06507605f, 0.04716696f, -0.04293176f, 0.02831324f, -0.04534582f, -0.05800892f, -0.12191957f, -0.04160145f, -0.06509735f, -0.07943015f, 0.07375398f, 0.02995961f, 0.14276294f, -0.10286646f, 0.08175815f, 0.13436103f, 0.07682215f, 0.11256757f, 0.10302451f, 0.02743962f, 0.09722652f, -0.14894684f, 0.06122806f, 0.05295969f, -0.10437035f, 0.15910198f, 0.08465865f, -0.17890060f, 0.14598325f, -0.04842689f, -0.13837014f, 0.11111040f, 0.30717814f, 0.00977922f, 0.13882047f, 0.22508073f, 0.21014300f, 0.06792970f, 0.02881620f, -0.01927949f, 0.20651956f, 0.19930407f },
    { -0.11618349f, -0.02239603f, 0.07859262f, 0.03997112f, -0.08127908f, 0.04228074f, -0.13959944f, 0.05490192f, -0.03114992f, 0.28570330f, -0.11505274f, -0.00153231f, -0.02624491f, 0.13463400f, -0.03385891f, 0.00051300f, 0.12952770f, 0.06846616f, -0.10890330f, 0.02310801f, 0.02334530f, 0.08575543f, 0.00268613f, 0.10601813f, 0.09346685f, 0.21269286f, -0.10574598f, 0.18207353f, 0.18309006f, -0.09525453f, 0.17742707f, 0.06438249f, -0.01465599f, 0.15008761f, 0.35744032f, 0.05742956f, 0.14108525f, 0.27541688f, 0.20846418f, -0.05299328f, -0.00923261f, 0.18776989f, -0.07903855f, 0.00115901f, 0.10143765f, 0.14251161f, -0.11725274f, -0.08111180f, -0.06346329f, 0.05821646f, -0.08002330f, 0.01093257f, 0.02523664f, -0.03028142f, 0.07225832f, 0.07049374f, 0.11876190f, 0.05219800f, -0.17653035f, -0.01489914f, 0.07744596f, 0.01711220f, -0.06327756f, 0.01297409f, 0.10213632f, 0.27465564f, 0.05001079f, -0.03961252f, 0.07113409f, -0.04092587f, 0.19761845f, 0.04474298f, -0.03989713f, 0.04200597f, 0.01382624f, -0.12840572f, 0.00041695f, 0.02050713f, -0.01939652f, 0.08198716f, -0.02365857f, -0.10441596f, 0.18341702f, -0.00523328f, 0.02062756f, 0.00102811f, 0.03883331f, 0.14362851f, 0.12714821f, -0.11868975f, 0.13117628f, 0.18149373f, 0.12991500f, 0.12650506f, -0.06621376f, 0.08177397f, -0.17819966f, 0.04423454f, 0.06550870f, -0.05181752f, -0.10277571f, -0.10105766f, -0.05051656f, 0.00454369f, -0.05807728f, 0.12038301f, 0.13788687f, 0.12179545f, 0.14263164f, 0.07633638f, 0.02493331f, 0.00018594f, 0.03555433f, 0.18024226f, -0.01544236f, 0.13325371f, -0.02687128f, 0.15278836f, 0.07472559f, 0.10344125f, 0.15212166f, -0.06062930f, -0.09580473f, -0.02625808f, -0.02367657f, 0.16709553f, -0.08034528f, -0.14655164f, 0.10157244f, 0.04074321f, -0.14962572f, 0.10023732f, 0.06617765f, -0.03352107f, 0.20247133f, 0.02468416f, 0.01929637f, -0.00923651f, 0.16156520f, -0.06720834f, 0.12014936f, 0.05812030f, -0.11984023f, 0.02094181f, -0.05604903f, -0.00212340f, -0.02369659f, -0.08595965f, -0.08915041f, -0.06951898f, 0.05372604f, 0.01795365f, 0.02074111f, 0.06511598f, 0.08613108f, 0.05607222f, 0.04495862f, 0.05990335f, 0.16031510f, 0.01854870f, -0.02155686f, 0.13576679f, 0.05287538f, 0.03312958f, 0.20617019f, 0.12616156f, 0.19010182f, -0.00858705f, 0.05311232f, -0.03263629f, 0.18699680f, 0.01506882f, 0.10077147f, -0.03949199f, -0.01633607f, -0.09631792f, -0.14000846f, 0.09943365f, -0.15253858f, -0.09579437f, 0.06667148f, -0.02586243f, -0.02538721f, 0.04299938f, -0.01662422f, 0.02376668f, -0.11902568f, -0.10785530f, -0.02992118f, -0.02538894f, -0.23448619f, -0.15686943f, -0.02812477f, 0.04108044f, -0.12530619f, 0.10291462f, -0.00346455f, 0.24022724f, 0.04371486f, -0.00078519f, -0.07762684f, -0.08808157f, -0.04108519f, -0.01233299f, -0.06817339f, -0.12616973f, 0.15430379f, 0.10062435f, -0.03517729f, -0.12533112f, -0.10913677f, 0.05544894f, -0.18884155f, -0.02799877f, 0.07446454f, -0.16757341f, -0.05614107f, -0.09788955f, -0.25291401f, -0.01356404f, 0.05659185f, 0.07123159f, 0.08233500f, 0.08912471f, 0.12470291f, 0.05011778f, -0.03073593f, 0.00028206f, -0.04857481f, -0.08011172f, -0.16783366f, -0.16353631f, -0.04645539f, 0.08428861f, -0.01331818f, -0.11155449f, 0.06915443f, 0.07149230f, -0.07905022f, 0.09860153f, -0.04133639f, -0.15008029f, -0.24102856f, -0.10035299f, -0.20517682f, -0.02076413f, -0.04962600f, -0.04408599f, -0.11883940f, 0.02212199f, -0.05036789f, -0.15261257f, -0.06854443f, -0.04772209f, -0.12743475f, 0.02201406f, 0.09025725f, -0.20426285f, -0.24351622f, -0.02046950f, -0.13378802f, 0.01035334f, 0.01755541f, 0.02034657f, 0.01460631f, -0.06718737f, -0.06793787f, -0.18246712f, -0.20838930f, -0.10751499f, -0.19512290f, -0.07997374f, 0.02524011f, -0.22408618f, -0.01832485f, -0.01331718f, -0.08125552f, -0.14610516f, 0.07148980f, 0.03558632f, 0.07894927f, 0.09035946f, 0.03498485f, -0.18949845f, 0.15147318f, 0.04634176f, 0.03722510f, -0.19819067f, 0.10577036f, -0.00654820f, 0.09084339f, 0.12765710f, -0.21951593f, -0.32128522f, -0.00902157f, -0.06440746f, -0.10701473f, -0.03791871f, -0.05708304f, -0.03701150f, 0.03100578f, -0.10441174f, -0.02833142f, 0.10184694f, -0.11489522f, -0.13972303f, 0.11587214f, 0.00750766f, 0.04872741f, -0.13760588f, 0.11734293f, -0.03186924f, 0.07739180f, 0.02239344f, -0.22991712f, -0.14941749f, -0.20972779f, -0.00512969f, 0.12005810f, -0.28959832f, 0.03121171f, 0.02137339f, -0.21500389f, -0.23867467f, -0.10624967f, -0.08495564f, -0.07319139f, 0.07181178f, -0.07472032f, -0.00537166f, 0.18768987f, 0.33779806f, 0.24706137f, -0.08687843f, 0.16761884f, 0.05750538f, -0.06614242f, 0.13733232f, -0.03513068f, -0.11860245f, -0.11183473f, -0.24772590f, -0.19467099f, -0.14654215f, 0.03517684f, 0.00783423f, 0.16438365f, 0.06877083f, 0.01135641f, 0.11455376f, -0.08423231f, -0.20761316f, -0.13647507f, -0.19490695f, -0.09044465f, 0.09802938f, -0.07568002f, 0.13727833f, 0.09445750f, 0.26796365f, 0.15126587f, 0.01234122f, -0.08157203f, -0.09979478f, -0.25742441f, -0.02950564f, -0.10141516f, 0.12427374f, -0.02420606f, 0.05391537f, 0.02273495f, -0.17269576f, 0.03538073f, 0.02950719f, -0.05426910f, 0.09628042f, 0.17014150f, 0.10542174f, -0.04804269f, 0.11221030f, -0.13239463f, -0.04456785f, 0.01041177f, 0.11387205f, 0.01602354f, -0.04371263f, 0.15397239f, 0.17566295f, -0.01109826f, -0.06935804f, 0.02454111f, 0.11557203f, -0.10464766f, 0.12324630f, 0.07059558f, 0.06552383f, -0.19403337f, -0.04486091f, -0.01748755f, 0.01327370f, -0.05804313f, -0.00109380f, 0.11273520f, 0.08428601f, 0.04023870f, 0.02944623f, -0.10560106f, 0.03903394f, -0.09636554f, -0.20457383f, -0.27288932f, -0.14077114f, 0.14747003f, 0.07093827f, 0.00710287f, -0.03557306f, 0.13248324f, 0.17418048f, 0.07050265f, 0.10245171f, 0.09379624f, 0.00935873f, 0.04855801f, 0.05429288f, -0.15601981f, 0.07588409f, 0.00991072f, 0.11753611f, 0.03834995f, 0.00618544f, 0.08688345f, 0.12965770f, 0.08129994f, 0.03061751f, 0.06424376f, -0.13382779f, 0.01732241f, -0.23208266f, 0.02936051f, 0.18646637f, 0.03365143f, -0.11058345f, 0.03986815f, -0.08789361f, 0.21583284f, 0.09809992f, 0.13066067f, -0.06288486f, -0.01611404f, 0.08451193f, -0.04170945f, 0.01143005f, -0.08910435f, 0.04192385f, -0.01682237f, 0.16978104f, 0.07006446f, -0.01475134f, 0.11343377f, 0.16535562f, 0.21828745f, 0.04062689f, -0.03696201f, 0.02157888f, -0.02444865f, -0.01091495f, -0.02950460f, 0.04591116f, -0.18473440f, -0.04027634f, -0.02127041f, -0.08833520f, 0.06250373f, 0.36356759f, 0.00901847f, 0.08864565f, -0.05812776f, -0.11790761f, 0.11007003f, -0.07640777f, -0.21804313f, -0.09788761f, -0.11086272f, 0.09347425f, 0.08477634f, -0.01967337f, 0.28717074f, 0.12616862f, 0.05714366f, -0.05325939f, 0.03767119f, -0.11307187f, -0.13611799f, 0.00014774f, -0.06207208f, -0.03358418f, 0.11881252f, 0.03105664f, -0.06330515f, 0.08032265f, 0.14116921f, 0.21152909f, -0.05395290f, 0.13939740f, -0.17875239f, 0.09162124f, -0.19744621f, -0.09601634f, -0.00193599f, -0.24166499f, 0.15875338f, 0.02562922f, 0.06623146f, -0.04396350f, 0.29387894f, -0.07150411f, -0.04331349f, -0.20467114f, -0.02690282f, 0.03005570f, 0.17242640f, -0.11800456f, 0.22127244f, -0.06340358f, 0.07583088f, 0.04132907f, 0.01610196f, -0.02168741f, 0.00254910f, 0.17765452f, -0.04917083f, -0.14334349f, -0.25946930f, 0.08146299f, 0.12505829f, -0.16936235f, -0.22485670f, -0.10091046f, 0.15227407f, 0.06249562f, 0.16168606f, 0.19748311f, 0.26537421f, 0.15203871f, -0.01975066f, 0.01513995f, 0.08652343f, 0.15868831f, -0.01151207f, 0.08184994f, 0.01917923f, 0.11566404f, 0.04601591f, -0.06912450f, -0.00468601f, 0.08825632f, 0.12784278f, -0.09736761f, -0.03372346f, 0.03938958f, -0.00453449f, 0.05241428f, 0.05106996f, -0.00871988f, -0.01164289f, -0.12942065f, 0.19704595f, 0.07385614f, 0.06737056f, 0.05356263f, 0.10942354f, -0.03656650f, -0.07794309f, -0.31315127f, -0.14494403f, 0.00671206f, -0.11864109f, -0.16953035f, -0.04580559f, -0.08165421f, 0.05818920f, 0.08407075f, 0.05727303f, 0.13122591f, -0.03971522f, 0.11337080f, 0.29827616f, -0.26295909f, 0.09983870f, 0.04976068f, -0.12317632f, 0.10832464f, 0.03153253f, -0.00722779f, 0.03199368f, -0.04975308f, 0.13462840f, 0.14857730f, 0.11747255f, 0.03840746f, -0.06311944f, 0.09747051f, -0.10887715f, -0.06519023f, -0.00544878f, -0.01739083f, 0.08184351f, 0.17749861f, 0.18159541f, 0.10654593f, 0.12115427f, 0.13185422f, 0.16820084f, 0.10233590f, 0.09096242f, -0.04735488f, 0.04117164f, -0.12756762f, 0.02101883f, 0.06607764f, 0.18731615f, -0.06936762f, -0.09316223f, -0.11167082f, 0.09563491f, 0.03500541f, 0.21707757f, -0.02568333f, 0.22534324f, -0.20080929f, -0.08123421f, -0.19017768f, -0.07775901f, -0.05003778f, -0.00073643f, 0.10255473f, -0.08371598f, 0.07710143f, -0.08933083f, -0.08792172f, 0.28517476f, 0.05626258f, 0.02298468f, -0.07681043f, 0.03164478f, 0.15735224f, 0.01754171f, -0.06157576f, -0.13809583f, -0.18070115f, 0.04234447f, -0.09217215f, -0.04942624f, 0.01697827f, 0.08147214f, 0.21907066f, -0.15676954f, 0.00356500f, -0.09054222f, -0.02082914f, -0.12454456f, -0.27021843f, -0.01568268f, -0.15516801f, -0.06435603f, 0.00895966f, 0.04180929f, -0.00555439f, -0.07613507f, 0.07171457f, -0.09920030f, 0.02107267f, -0.07016151f, 0.02154866f, -0.00451101f, -0.02519011f, -0.05007730f, -0.07824311f, -0.36474699f, 0.01960900f, -0.14253390f, -0.02978359f, -0.02076701f, -0.05307020f, 0.10522995f, -0.14185557f, -0.12648070f, -0.05003652f, -0.08177391f, -0.23363072f, -0.26805001f, -0.24212331f, -0.13420227f, -0.22619390f, -0.19748482f, -0.04213179f, -0.13614194f, -0.00045677f, 0.14737213f, 0.13805792f, 0.06206200f, 0.07925183f, -0.19472104f, -0.07942218f, 0.05180723f, 0.16830477f, 0.11214329f, 0.06423197f, -0.12422238f, -0.18584546f, 0.06851061f, -0.13219047f, -0.21785107f, -0.04777558f, -0.04546526f, -0.11505785f, -0.10537027f, 0.11375336f, -0.26410562f, -0.11175983f, -0.07460706f, -0.00201600f, 0.04352900f, 0.00942034f, 0.03056314f, 0.06468464f, -0.02277477f, -0.07267687f, -0.13496438f, -0.12032067f, 0.07605945f, -0.20445092f, 0.11765923f, 0.09316654f, -0.10104251f, 0.09288673f, 0.00534676f, -0.03246265f, 0.04340466f, 0.08713993f, -0.02400722f, -0.12558888f, 0.13447985f, -0.02837696f, 0.11624838f, 0.08128267f, 0.07990029f, 0.07250847f, -0.03460151f, -0.15697315f, -0.14280179f, 0.08449624f, 0.23265421f, 0.10150013f, 0.04341935f, 0.10514870f, 0.00501821f, 0.19138409f, 0.14479281f, 0.12777601f, -0.03199210f, -0.09661889f, 0.07128823f, 0.13582680f, -0.01162193f, 0.00925311f, 0.00471598f, -0.13855949f, 0.13687629f, 0.03765106f, 0.18637636f, 0.07465906f, 0.03500785f, -0.02856834f, 0.03053159f, -0.12309447f, -0.00572365f, -0.03654176f, -0.05807088f, -0.05066508f, 0.09624019f, -0.06424081f, -0.13456747f, -0.14257401f },
    { -0.01923498f, -0.03411334f, 0.12964988f, 0.04361876f, 0.00308589f, -0.02833619f, -0.09264199f, -0.17790042f, 0.11031386f, 0.10982270f, -0.01474200f, 0.14650401f, -0.13962486f, 0.01630630f, -0.09142073f, -0.07145423f, 0.09281496f, 0.13084686f, 0.04773797f, 0.07445885f, -0.02845246f, -0.03455304f, 0.02725416f, 0.09560044f, 0.01697697f, -0.06813420f, -0.09477621f, 0.08673056f, 0.10743176f, -0.01291746f, 0.08380160f, -0.06232383f, 0.03958866f, -0.08920536f, -0.17743133f, 0.00290589f, -0.04245915f, -0.06729442f, -0.08399502f, 0.02515028f, 0.03571982f, 0.11281375f, 0.01952801f, 0.04082171f, -0.07405293f, -0.12912183f, 0.05692660f, 0.06707969f, 0.08750391f, 0.03134478f, -0.06284707f, -0.00782098f, -0.18161833f, -0.02013959f, -0.05112908f, -0.04571911f, -0.02494683f, -0.02047082f, -0.15043280f, 0.07652707f, -0.06945714f, 0.06096561f, -0.01010720f, -0.03903299f, 0.11743407f, 0.20653532f, -0.08165678f, -0.00727692f, 0.15250607f, -0.20038944f, -0.16624667f, 0.13011363f, -0.23768581f, -0.09170324f, -0.14486624f, -0.09976698f, -0.01113921f, -0.03959342f, 0.01391712f, -0.11974089f, -0.04132193f, 0.00678174f, 0.07721514f, 0.01760432f, -0.15625755f, -0.16875514f, 0.09171589f, 0.00420072f, -0.14710668f, -0.17951310f, -0.08293680f, -0.07087365f, 0.05728533f, -0.05950711f, 0.05459015f, 0.20859705f, -0.10413658f, -0.48630878f, 0.06551009f, 0.08615503f, -0.11140934f, -0.01971619f, -0.00324814f, -0.02518982f, 0.14910682f, -0.04185386f, 0.12337980f, 0.12166379f, -0.02265639f, -0.05298537f, 0.19110167f, 0.17417033f, 0.05270084f, -0.04775393f, 0.02130321f, -0.10294169f, 0.00916206f, -0.07980343f, -0.10219344f, -0.05347925f, 0.06350563f, -0.14781152f, -0.13590173f, -0.28234240f, -0.34355572f, -0.13276632f, -0.14760149f, 0.08117004f, 0.13143882f, 0.06636468f, -0.08993693f, 0.21107699f, 0.12582482f, 0.10502332f, 0.16820988f, -0.16718407f, -0.00509392f, -0.03859726f, -0.08970844f, 0.09083571f, -0.06617263f, 0.16484493f, 0.03071133f, -0.05072557f, -0.00273031f, -0.13717437f, -0.10209268f, 0.28695902f, 0.12432498f, -0.00035317f, 0.09404866f, -0.23872326f, -0.02836727f, -0.00455934f, 0.05305556f, -0.00439036f, 0.18625504f, 0.03931537f, 0.11992300f, -0.10897972f, -0.04172111f, -0.00200704f, -0.16451907f, -0.23987095f, 0.04607358f, 0.06159163f, 0.09355401f, 0.12947765f, 0.02441697f, -0.11241192f, -0.15373902f, 0.01910798f, 0.03991995f, -0.24500468f, -0.24893141f, 0.11956542f, -0.14290811f, -0.02921892f, -0.18009047f, -0.34814799f, -0.01791451f, 0.01423600f, -0.08327155f, 0.08326784f, 0.01640230f, -0.18612467f, -0.03254610f, -0.05529431f, 0.06406170f, -0.00131036f, -0.19079047f, -0.09226859f, -0.04638048f, 0.00758670f, -0.08331665f, -0.00360923f, 0.00852143f, -0.11961943f, -0.06122845f, -0.02603726f, -0.00968776f, -0.04171038f, 0.00624611f, 0.05531502f, -0.11114224f, 0.12160282f, -0.06785523f, -0.18412606f, 0.08882497f, -0.13000779f, -0.13167371f, -0.04271622f, -0.07124128f, 0.17556450f, -0.02409478f, 0.03055347f, -0.22942564f, -0.10926419f, -0.05050185f, 0.14479636f, -0.10482828f, -0.16501597f, 0.02931754f, 0.13099243f, 0.01106220f, -0.09144806f, 0.18947190f, 0.15726139f, 0.02853702f, 0.14196202f, -0.02624126f, -0.03498491f, -0.00024194f, 0.06673343f, 0.07426193f, 0.05988002f, -0.11376035f, -0.13777040f, -0.17905094f, -0.16160023f, 0.12527405f, 0.04690751f, -0.03683837f, 0.02592934f, -0.09158087f, -0.02842034f, -0.10371657f, -0.08334125f, 0.22678447f, -0.04116809f, -0.08598273f, 0.00427358f, -0.14583737f, -0.15713260f, -0.07961133f, 0.10326915f, 0.14715029f, 0.17282704f, -0.15127060f, -0.33700237f, 0.08531830f, -0.02794265f, 0.02952031f, -0.17058352f, -0.05879939f, -0.17958911f, -0.28853843f, -0.24546693f, 0.35043520f, 0.30313057f, 0.12034523f, 0.26209942f, 0.30189824f, 0.18029827f, 0.04772247f, 0.29516661f, 0.11096858f, 0.10084953f, 0.07476927f, 0.00480252f, -0.10072869f, 0.08920529f, -0.14087129f, -0.10039079f, 0.32288879f, 0.15588599f, -0.09152067f, -0.09166408f, -0.12026617f, 0.16213837f, -0.13917285f, 0.13646249f, -0.05819646f, -0.02785495f, -0.07454724f, 0.12499633f, 0.13144717f, 0.22135164f, 0.27928683f, 0.18636101f, 0.22405910f, 0.25499979f, 0.29197332f, 0.50203431f, 0.37502149f, 0.03083023f, -0.00918763f, -0.05694373f, 0.00897148f, 0.03281031f, 0.07425815f, -0.06843264f, -0.01482294f, -0.03140533f, 0.14992684f, 0.29317179f, 0.29144770f, -0.05838406f, -0.02914475f, 0.10253058f, 0.13388899f, 0.00024374f, 0.08186884f, 0.01004335f, 0.04212275f, -0.10342799f, 0.02943607f, 0.07023415f, 0.20127490f, 0.08495355f, 0.31590313f, 0.54191405f, 0.39591762f, 0.12411287f, -0.29716477f, 0.00306793f, -0.35013652f, 0.17786141f, -0.12191226f, -0.03784475f, 0.01047339f, 0.13760510f, 0.11064303f, -0.06498697f, 0.14882191f, -0.00860792f, 0.21211308f, -0.07722607f, 0.08329999f, 0.01060750f, -0.29748237f, 0.18787491f, 0.01681694f, 0.03116743f, -0.07702260f, 0.08211380f, 0.10940761f, 0.19360152f, 0.05611234f, 0.02622413f, 0.24347177f, 0.20300373f, 0.23587506f, -0.08214892f, -0.10987207f, 0.14810331f, -0.01328347f, 0.04836630f, -0.07359115f, -0.16910546f, -0.04742584f, 0.03809766f, 0.15605250f, 0.06002638f, 0.04939106f, 0.17316151f, 0.02488647f, 0.01044149f, -0.11491696f, 0.16117755f, -0.07028686f, 0.06841792f, -0.00980744f, 0.16665378f, 0.06682529f, -0.04597334f, 0.07429906f, -0.00539487f, 0.04324583f, 0.18140650f, -0.05167155f, 0.00125878f, -0.01948693f, -0.04771212f, 0.12806825f, 0.14991197f, -0.04043376f, 0.28320289f, 0.02551829f, -0.11851589f, -0.17645633f, -0.06031121f, -0.04555379f, 0.26169431f, -0.05643940f, 0.03166458f, -0.00244665f, 0.12829457f, 0.07108748f, 0.08644582f, -0.11701662f, 0.13072503f, 0.08054474f, 0.05989996f, -0.07278024f, -0.17554063f, -0.04820913f, 0.34233251f, 0.12381017f, 0.04446401f, -0.07639253f, -0.06754759f, 0.04051416f, 0.01709436f, -0.00893109f, 0.10550143f, 0.30856040f, 0.14022368f, -0.00710781f, 0.01819284f, -0.11187608f, -0.10908392f, 0.07491668f, -0.03528944f, 0.05390619f, 0.15991774f, 0.01988624f, 0.22886387f, -0.03111879f, 0.06027628f, 0.03253004f, -0.25116640f, 0.19344184f, 0.03677075f, -0.15612085f, 0.13170068f, 0.05063334f, 0.00201458f, -0.06116794f, -0.06825513f, 0.18112682f, 0.00167054f, -0.16369097f, -0.07367184f, 0.22232598f, 0.34510806f, 0.10797635f, 0.13620287f, -0.02800263f, -0.05244683f, -0.05914642f, -0.16193160f, -0.19198951f, 0.04007227f, -0.09151483f, 0.14762677f, -0.11092035f, 0.34515226f, 0.06371542f, 0.03901701f, 0.17586339f, -0.05291099f, -0.10238180f, -0.02940204f, 0.06310856f, -0.13078791f, 0.08824974f, -0.06951535f, 0.07876229f, -0.04157786f, 0.14575097f, 0.18450931f, 0.34883475f, 0.26029152f, 0.40470046f, 0.25958040f, 0.07579768f, 0.04783064f, -0.29405573f, -0.29221031f, -0.04742135f, 0.26824775f, 0.23871572f, 0.00484765f, 0.08140343f, -0.05683481f, -0.05294778f, -0.14350758f, -0.12202511f, -0.17704479f, -0.14747016f, 0.08140568f, 0.00675558f, 0.06507643f, 0.02196766f, 0.00376424f, 0.24533881f, -0.23435508f, -0.15057720f, 0.38210016f, -0.04969667f, 0.09039228f, 0.40680712f, 0.36131537f, 0.48150378f, 0.77559108f, 0.48465145f, 0.28762129f, 0.21163289f, 0.21104701f, 0.01976849f, 0.09726071f, -0.03609050f, -0.04595155f, -0.05847444f, -0.15645975f, -0.19520278f, -0.35028264f, -0.29452217f, -0.01526796f, -0.02886297f, 0.00149912f, 0.00604169f, -0.00212114f, -0.04464622f, -0.08625171f, -0.13982342f, 0.01323784f, -0.07982190f, 0.05090072f, 0.24909741f, 0.16303997f, 0.40738502f, 0.30279016f, 0.42430776f, 0.00380318f, 0.08844244f, -0.03920529f, -0.03852851f, -0.08200701f, -0.11768898f, -0.10399234f, 0.03613911f, -0.12106813f, 0.08704922f, -0.02379456f, -0.43350580f, -0.24642512f, -0.06622535f, -0.05118826f, -0.00697332f, 0.16040143f, 0.06667539f, -0.10258926f, -0.02857348f, 0.13865690f, 0.02664990f, -0.16324623f, -0.02321992f, -0.15800981f, 0.00823469f, -0.18215203f, 0.22361815f, -0.05988202f, -0.08461289f, 0.04465667f, -0.17942658f, -0.06002595f, -0.13529161f, -0.02462820f, -0.13412318f, -0.12697294f, 0.09908813f, -0.13071059f, -0.08521511f, 0.06487522f, -0.00397755f, -0.03870676f, 0.25685391f, 0.03639881f, -0.09783663f, -0.08258122f, -0.05659044f, 0.04368912f, -0.15266661f, -0.02318917f, -0.18702206f, -0.16086192f, -0.02150495f, -0.10133967f, 0.00236867f, -0.09143463f, -0.02037993f, -0.20963179f, 0.05475042f, -0.06755540f, -0.09827692f, -0.03508637f, -0.02180263f, -0.12886918f, 0.09122182f, -0.17031789f, -0.30753672f, -0.16430452f, 0.02795554f, 0.03608701f, 0.05794789f, -0.08600494f, 0.04560520f, -0.06820618f, -0.30442545f, -0.07542679f, -0.04663670f, -0.05050304f, -0.15033242f, 0.03116341f, -0.06811412f, -0.18778965f, 0.04680909f, 0.03774757f, 0.02101962f, 0.02465323f, 0.15210423f, 0.15982847f, -0.11895067f, -0.20717300f, -0.19532059f, -0.03469084f, -0.13179789f, -0.08670215f, 0.16436653f, -0.12209072f, 0.05984877f, -0.11152464f, -0.05269514f, 0.15527287f, -0.08640426f, -0.07653335f, -0.33258232f, -0.16944903f, -0.22576895f, -0.31789216f, -0.18908392f, 0.15487057f, -0.17673497f, -0.16127267f, 0.20176716f, 0.03232864f, -0.29980665f, -0.06587825f, 0.09053343f, 0.00269461f, -0.08766709f, 0.08742421f, -0.05082808f, 0.07725317f, -0.00221034f, 0.04895354f, -0.08749913f, -0.09662211f, -0.00249139f, 0.10450198f, -0.06952136f, -0.02419071f, -0.01603203f, -0.02142966f, -0.09862629f, -0.04873458f, -0.06167021f, -0.21050206f, 0.22145541f, 0.14337635f, -0.14403845f, -0.09396111f, 0.01501447f, 0.07601658f, 0.16710424f, 0.18425672f, 0.05927898f, -0.07746760f, -0.19356889f, -0.39317775f, -0.05775922f, -0.23473929f, -0.08569491f, -0.17755118f, 0.16394316f, 0.01607168f, -0.00902794f, 0.09528714f, -0.21915540f, -0.00993524f, 0.02026409f, 0.09495910f, -0.09698664f, 0.09511890f, -0.12461088f, -0.14897399f, -0.09224085f, -0.24668168f, -0.07771908f, -0.14423017f, -0.03697223f, -0.19285034f, 0.11382869f, 0.00921123f, -0.14198649f, -0.21247484f, -0.33338079f, -0.23555249f, -0.15955901f, -0.14049551f, -0.19789702f, -0.16634852f, -0.01876327f, 0.12555915f, 0.08777553f, 0.11111021f, 0.10235009f, -0.13872200f, 0.04095296f, -0.04790628f, -0.03203760f, -0.12868387f, -0.07499772f, -0.02783179f, -0.08263362f, 0.00109500f, -0.02942606f, -0.06753638f, -0.06966740f, -0.32838681f, -0.09259242f, -0.42753842f, -0.34354776f, 0.03092685f, 0.04963016f, -0.04191719f, -0.13639854f, -0.12800646f, -0.06291559f, 0.01197415f, 0.13488495f, -0.10545921f, 0.00972826f, -0.10401154f, -0.03205856f, -0.02098927f, -0.01554820f, 0.09250498f, 0.20376781f, -0.12320688f, 0.12878637f, 0.02500240f, 0.09259207f, -0.20613362f, -0.06312834f, -0.04498202f, 0.09186886f, 0.07005214f, -0.26595435f, -0.09812779f, 0.03348216f, 0.11142102f, 0.14905445f, 0.13353263f, 0.12032273f, 0.22999696f, -0.02211211f, 0.09210510f, -0.08911998f, -0.08526018f, -0.00376406f, 0.04385065f },
    { 0.07087119f, -0.05666064f, -0.04085592f, 0.26961526f, -0.00811527f, 0.11264657f, -0.01235252f, 0.06504183f, 0.07322980f, 0.00008456f, -0.03942730f, 0.02318324f, 0.12903102f, -0.10863125f, 0.11231560f, 0.07377232f, -0.04107365f, 0.01129103f, 0.06514750f, -0.11968800f, -0.04092690f, -0.04091281f, 0.09418003f, 0.02238927f, -0.02243790f, 0.04099294f, -0.11433665f, -0.02396532f, -0.06850902f, -0.05869721f, 0.02163160f, 0.05428366f, 0.07484516f, -0.00726782f, -0.04064443f, -0.05505927f, 0.05292619f, 0.03854664f, 0.05775739f, -0.04531006f, -0.02155329f, -0.01795715f, -0.08558892f, 0.12255082f, 0.12430616f, 0.16134810f, -0.02313501f, -0.03948231f, 0.03033814f, -0.15664127f, -0.25144461f, 0.02980893f, 0.12984441f, 0.15503396f, 0.14191733f, -0.06294283f, 0.03818353f, -0.00080081f, 0.09182599f, -0.09764924f, -0.02241579f, 0.19083217f, 0.05670186f, 0.01149735f, -0.05693797f, 0.29634172f, 0.27117303f, 0.08234690f, 0.00533736f, -0.02946013f, -0.07300913f, 0.31740069f, 0.06492327f, 0.05499145f, 0.02606903f, 0.11397078f, 0.22370949f, 0.05073091f, -0.03230162f, -0.07367516f, 0.05053376f, 0.09350088f, 0.15554374f, -0.18976945f, 0.09231549f, -0.05265958f, 0.08767914f, -0.20019811f, -0.09933029f, -0.00083163f, 0.01744812f, -0.07993512f, -0.10492826f, 0.28251463f, 0.23582421f, 0.26971576f, 0.02641241f, -0.02224572f, -0.31002304f, -0.06796960f, -0.02162027f, 0.20534521f, -0.09035099f, -0.14499709f, 0.14043525f, 0.31559569f, 0.15616207f, -0.12156875f, -0.23716845f, 0.10457743f, 0.19978927f, -0.02783925f, 0.05359651f, 0.08364691f, -0.09993073f, 0.09105166f, 0.07954303f, -0.01944617f, 0.13336270f, 0.08266112f, -0.16410044f, 0.04051491f, 0.07308969f, 0.06047006f, 0.08283148f, -0.19507049f, 0.13820326f, -0.05330696f, -0.15717120f, 0.00061923f, -0.28059939f, -0.29784188f, -0.00064636f, -0.09373568f, -0.10288480f, 0.05784083f, 0.09257650f, 0.12272737f, -0.06619612f, 0.21905151f, 0.13470200f, -0.17907636f, -0.02601133f, -0.14270984f, -0.01812103f, 0.01967029f, -0.04144179f, -0.00051641f, 0.00997916f, 0.09655035f, 0.24438696f, 0.13778529f, 0.17530352f, 0.26307237f, -0.11589593f, -0.03654057f, -0.08888293f, -0.01513672f, -0.20663206f, -0.27867293f, -0.07498898f, 0.12018594f, 0.10830680f, 0.07292747f, 0.14438877f, 0.00146922f, -0.03844259f, -0.03357081f, 0.08254769f, -0.00898287f, 0.08420011f, 0.03371808f, -0.01075854f, 0.07414187f, 0.11533245f, 0.09442551f, 0.05853986f, 0.15001570f, 0.08013871f, -0.18661028f, 0.12947591f, -0.02330329f, 0.07677697f, -0.10940955f, -0.05177056f, 0.20825849f, -0.13618337f, -0.29260901f, -0.18318421f, -0.05545893f, 0.01916088f, -0.23275287f, -0.26371571f, -0.07549930f, -0.06540280f, -0.05682756f, 0.04187883f, -0.05545354f, 0.13446507f, 0.18476926f, -0.05310115f, -0.01790407f, 0.19028784f, 0.06309175f, 0.04012245f, -0.20880292f, -0.01324040f, -0.04608922f, -0.11786271f, 0.04498138f, 0.00791290f, -0.03552494f, -0.12714848f, -0.02185123f, 0.06325287f, -0.07901472f, -0.07905526f, 0.05842995f, 0.02240363f, -0.11324430f, -0.05848038f, 0.10480040f, -0.03783863f, 0.05798077f, -0.02422862f, -0.08885169f, 0.10162656f, -0.03865220f, 0.12189042f, 0.12160381f, -0.02540059f, -0.10375646f, 0.00729827f, 0.16154672f, 0.13226403f, 0.12817781f, -0.09428901f, -0.09850363f, -0.06376544f, -0.15148018f, -0.26459318f, 0.05822895f, 0.03113392f, 0.02580351f, -0.05324487f, 0.03279550f, -0.25334832f, -0.01132865f, -0.18337575f, 0.00186910f, -0.07374938f, 0.24780482f, -0.08178762f, 0.03508162f, 0.04489981f, 0.02776016f, -0.03294276f, 0.01315947f, 0.07302693f, 0.04554047f, -0.01341739f, -0.03557100f, 0.18557821f, 0.10524079f, -0.15072839f, -0.13593841f, -0.12285236f, 0.05956867f, -0.01841221f, -0.04567667f, -0.07131629f, -0.09440921f, -0.04667883f, -0.01610874f, 0.02605599f, -0.12559329f, -0.10498749f, -0.04437482f, -0.10376137f, 0.09302416f, -0.06173082f, -0.10211307f, -0.04957751f, -0.32594106f, -0.00306564f, -0.05605269f, -0.07649288f, -0.00200784f, 0.04386261f, -0.05611815f, 0.20618397f, -0.04512244f, -0.09382395f, -0.16982771f, -0.23381482f, 0.05643439f, 0.00204680f, -0.20324038f, 0.15933670f, -0.21365216f, 0.13068095f, -0.04613385f, 0.03586987f, -0.00165638f, -0.14887027f, 0.12986536f, -0.02991094f, 0.15709165f, 0.09605095f, -0.10162146f, 0.03767547f, -0.15665568f, -0.13092536f, 0.07083873f, 0.01941175f, 0.02916089f, 0.07213752f, 0.11618647f, 0.04992320f, 0.16228384f, -0.14724748f, -0.00651880f, -0.02564645f, -0.13906598f, 0.05705458f, -0.04296904f, 0.00022609f, 0.00201709f, -0.14277032f, -0.02423763f, 0.12498430f, -0.03553665f, -0.02303192f, -0.14114518f, 0.00824604f, -0.03933126f, -0.01240048f, -0.20654902f, -0.11240105f, 0.01786933f, -0.08179754f, 0.24003467f, -0.20102952f, -0.11932202f, 0.05468087f, -0.16520421f, -0.13931127f, -0.08694468f, -0.13071951f, -0.21308714f, -0.23144069f, -0.08761207f, -0.14835341f, -0.14760062f, 0.05923285f, -0.08913911f, 0.07845072f, 0.02361415f, -0.17167550f, 0.25076702f, 0.25714946f, -0.13232534f, -0.00593929f, -0.02406367f, -0.02135160f, -0.12904498f, 0.04755999f, 0.01724574f, -0.06275959f, 0.44585612f, -0.08347510f, 0.00735630f, 0.09008966f, -0.17933021f, -0.05371893f, 0.17179650f, 0.05241995f, 0.31807783f, 0.18647492f, 0.02635654f, -0.07052524f, -0.21604635f, 0.09457703f, 0.15423228f, 0.17957814f, -0.01143298f, 0.01242219f, 0.02187647f, -0.00068596f, 0.09249312f, -0.14110047f, -0.01062857f, -0.01275693f, 0.19271870f, -0.04610754f, -0.01827232f, 0.23058981f, 0.11212809f, 0.04425028f, 0.09687009f, 0.01836988f, 0.04163354f, 0.08941138f, 0.12144178f, 0.08899450f, 0.07042784f, -0.22402741f, -0.03947791f, -0.17767093f, -0.06279010f, 0.19367334f, 0.12095775f, 0.08303857f, 0.27478102f, 0.13397710f, -0.03720662f, -0.31399277f, 0.21754590f, 0.02833213f, 0.18574949f, 0.01379194f, -0.12926282f, -0.19845666f, 0.07127898f, -0.26748478f, -0.22789490f, 0.19960958f, -0.04388447f, -0.09683419f, 0.00944878f, 0.17426451f, -0.23497045f, -0.30363122f, -0.10673586f, -0.19220050f, 0.04303365f, 0.04301168f, 0.18442963f, 0.02418578f, 0.07299774f, 0.08427671f, 0.02758853f, 0.22680072f, -0.14800562f, -0.24025576f, 0.04738005f, 0.12258012f, -0.00540721f, -0.01955265f, -0.07485805f, -0.14103511f, 0.01514887f, -0.07640181f, -0.12436698f, 0.22156873f, 0.01368457f, 0.10466359f, 0.11909359f, 0.02623701f, -0.20675591f, 0.03745226f, -0.00371676f, -0.04107034f, 0.26485690f, 0.25029814f, 0.32137862f, 0.11975491f, 0.33049601f, 0.08817124f, 0.23300125f, 0.04170843f, -0.12911136f, 0.05683610f, 0.05300950f, -0.13426015f, -0.07355969f, -0.05749555f, 0.08486356f, 0.06015211f, -0.33571556f, -0.06778647f, 0.01502187f, 0.09130509f, 0.01825056f, -0.03370377f, -0.17869106f, -0.25817123f, -0.10802087f, -0.01909239f, 0.40950125f, 0.09617867f, -0.00204442f, 0.13698407f, 0.20326228f, 0.11839931f, -0.00235682f, -0.03277506f, -0.13839883f, -0.12875274f, -0.03214610f, 0.09716666f, 0.13600557f, -0.05495513f, -0.01843238f, 0.13124190f, 0.09871407f, -0.01491608f, -0.21602876f, -0.05686269f, 0.27837127f, 0.16733089f, 0.13232745f, -0.03544045f, -0.27159712f, -0.86042815f, -0.35862929f, 0.35233679f, 0.33440059f, 0.02980277f, 0.07896683f, 0.25916371f, 0.00520616f, 0.29278257f, 0.13170207f, 0.00354130f, -0.17469478f, -0.04847456f, -0.01862029f, 0.07570660f, 0.19817200f, -0.00515562f, -0.02296935f, -0.06328831f, 0.01656946f, 0.01242827f, 0.03460152f, 0.04296786f, -0.04722448f, 0.06681132f, 0.01917690f, -0.00284350f, -0.18279360f, -0.50728363f, -0.43191096f, 0.19082086f, 0.09174111f, -0.04027265f, 0.03516062f, 0.27849972f, -0.13053687f, -0.05360446f, -0.00392821f, 0.08921167f, 0.09728546f, -0.02306002f, 0.07539954f, 0.34350309f, 0.05746518f, -0.02102807f, 0.02578273f, -0.01470419f, -0.08074196f, 0.11592846f, -0.09660181f, -0.21737406f, -0.14400619f, 0.05205333f, -0.14569889f, -0.10843389f, -0.22572768f, -0.25852269f, -0.22199735f, 0.04709304f, 0.03384424f, 0.10915544f, 0.23471527f, 0.01390213f, 0.05819414f, -0.09517065f, -0.12174693f, 0.04507874f, 0.05536741f, -0.20197621f, 0.17651300f, 0.33981636f, 0.30272746f, -0.19022484f, -0.00754176f, 0.04713521f, 0.18717326f, -0.01805369f, 0.04818930f, -0.26965970f, -0.09374666f, -0.00335464f, -0.52437377f, -0.03719301f, -0.15024814f, 0.00914528f, -0.13066508f, 0.10726319f, 0.08243221f, -0.10286520f, -0.02027132f, -0.01089992f, 0.00290975f, -0.15309089f, -0.11411403f, 0.00275470f, 0.11706911f, -0.09086520f, -0.03966656f, 0.32812569f, 0.24627528f, 0.08016866f, -0.03941182f, 0.16280721f, 0.09163564f, -0.21218030f, -0.02194513f, -0.21453832f, -0.20910710f, -0.14435434f, 0.00944350f, 0.01578197f, -0.17464337f, -0.03069872f, 0.08577143f, -0.06312418f, -0.10285820f, 0.03528836f, 0.05868387f, -0.20858257f, -0.20680380f, -0.11558694f, -0.23616402f, 0.25249940f, 0.33232763f, -0.07551799f, -0.12043217f, 0.09128786f, 0.35956058f, -0.19076785f, -0.03576299f, -0.13814691f, -0.07710215f, 0.06778240f, -0.26836461f, -0.00166793f, -0.36115202f, -0.02482087f, -0.21290392f, -0.09267177f, -0.03901408f, -0.05745723f, -0.16676036f, -0.11261734f, -0.11204521f, 0.07968202f, 0.03878846f, 0.08144199f, -0.25441429f, 0.08251245f, -0.04075592f, 0.10782720f, 0.36390665f, 0.05855836f, -0.12043504f, 0.03101330f, -0.17076752f, 0.00843517f, -0.02030914f, 0.11999459f, -0.06882989f, -0.01629832f, -0.06752530f, -0.38973704f, 0.11373939f, -0.27391118f, -0.09256798f, -0.08066481f, -0.08804636f, -0.29536316f, 0.06549121f, -0.45362556f, -0.12249274f, 0.00992554f, 0.03496654f, 0.09579377f, -0.10174006f, 0.23526563f, 0.53312647f, 0.19179636f, 0.01040812f, -0.04559900f, 0.11322875f, -0.04455458f, -0.04931135f, 0.15348780f, -0.09968928f, 0.06420500f, -0.14681794f, 0.02711401f, 0.01112064f, 0.13032274f, 0.01806668f, 0.14008299f, 0.03268371f, 0.10107218f, -0.12118012f, -0.10419688f, -0.17227730f, -0.24628499f, -0.01467320f, 0.22126850f, 0.07593097f, 0.01883690f, 0.49483401f, 0.32378882f, 0.13701774f, 0.21104296f, 0.00400649f, 0.15556017f, -0.12334824f, 0.01001770f, -0.09598869f, 0.00972045f, 0.11545268f, 0.10259008f, 0.00856126f, 0.07512408f, -0.03862896f, 0.19296542f, 0.01375198f, 0.20944770f, 0.21850882f, 0.26259977f, 0.19325851f, -0.03205076f, -0.00004350f, -0.19030838f, -0.00723431f, 0.21700603f, 0.04145232f, -0.01423192f, 0.01899003f, 0.08912338f, 0.02918735f, -0.03149065f, -0.03146091f, 0.11213687f, -0.01094700f, -0.00644159f, -0.02308286f, -0.00543281f, -0.08840448f, 0.03837164f, -0.01566725f, -0.17678237f, -0.00766080f, 0.06581514f, 0.14492817f, 0.00914800f, -0.26619092f, -0.06341887f, 0.13604298f, -0.08935055f, 0.06484725f, 0.05489425f, 0.09737711f, 0.22396357f, 0.16931336f, 0.03657968f, 0.02954725f, -0.10472111f, -0.00755541f, 0.04769587f, 0.00384911f, 0.16166477f, -0.02607924f, -0.07291146f, 0.01815362f, -0.02931648f, -0.00184907f },
    { 0.02719700f, -0.05277131f, 0.03136671f, 0.01309020f, -0.01444024f, -0.14766622f, -0.10438300f, -0.20620917f, 0.04813803f, 0.07180452f, 0.05764209f, -0.11258922f, 0.21058884f, 0.09750631f, -0.08577990f, -0.04186516f, -0.07437816f, -0.17043780f, -0.09348163f, 0.08091447f, 0.06692336f, -0.07444703f, 0.08122017f, 0.01221288f, -0.09890814f, -0.01442334f, 0.11271992f, -0.05347001f, 0.01922892f, -0.03014093f, -0.10413683f, 0.12306816f, 0.08582139f, -0.03567716f, 0.03071394f, -0.00864606f, 0.08335380f, 0.00926813f, 0.16910765f, 0.08474650f, -0.05867767f, 0.05044384f, 0.06865773f, -0.24584301f, 0.23928455f, -0.11029180f, 0.04371518f, -0.00240651f, -0.00320372f, 0.08273973f, 0.32413316f, 0.06956517f, 0.06049775f, -0.10304110f, -0.17152795f, 0.02326281f, 0.25522852f, -0.06390234f, 0.00971314f, -0.11689414f, 0.18464455f, 0.16579634f, -0.07246906f, 0.05395899f, -0.00270990f, 0.15816493f, -0.19691753f, -0.07911732f, 0.17621025f, 0.14623731f, 0.05291984f, 0.01909588f, -0.02909261f, 0.06228110f, 0.06564555f, 0.04937216f, 0.11917520f, -0.05097712f, -0.16889665f, -0.00855489f, -0.09510309f, 0.10375598f, 0.06531081f, 0.01225447f, -0.10302688f, -0.01851165f, 0.13469122f, -0.04079124f, -0.14147028f, 0.09740152f, 0.02407473f, 0.00969436f, 0.17063677f, 0.16325521f, 0.04903759f, 0.15164015f, 0.08359569f, 0.04082821f, 0.02903735f, 0.01505003f, 0.06380329f, -0.03581531f, 0.00458362f, -0.03187054f, -0.02425446f, 0.04375500f, -0.09209148f, 0.26634207f, -0.14528055f, 0.05017094f, 0.02578284f, 0.04066589f, 0.13556741f, 0.19635548f, 0.15463382f, -0.17266388f, 0.22825868f, 0.01466449f, -0.18592592f, -0.01436897f, 0.03302010f, -0.16619436f, -0.03221715f, -0.02623542f, 0.09653553f, 0.00277838f, 0.06713592f, 0.00676898f, -0.03476685f, 0.03360257f, -0.03601087f, 0.13110854f, -0.05521233f, -0.03942367f, -0.04180591f, -0.04338075f, -0.04390268f, -0.08376417f, -0.01969612f, 0.11684011f, -0.06222216f, 0.04729462f, -0.03469164f, 0.19954427f, -0.05054236f, 0.00432873f, 0.10950632f, -0.02745272f, 0.04870689f, -0.01845840f, 0.02522594f, -0.18017112f, 0.02173599f, 0.01333967f, -0.02073994f, 0.06994841f, 0.04247116f, 0.04863698f, -0.03643556f, -0.01249899f, 0.09409342f, -0.06020115f, -0.10087579f, 0.00718081f, -0.17520452f, 0.00006044f, 0.10463571f, 0.00270942f, -0.11787824f, -0.02714765f, 0.21509074f, 0.05975008f, 0.04060886f, -0.04565852f, 0.09751747f, -0.02225249f, -0.07905517f, -0.02185120f, -0.03178144f, 0.02845661f, -0.00792813f, -0.05742626f, -0.00762340f, 0.02186692f, 0.06357486f, -0.02913425f, 0.02440448f, 0.05934278f, 0.08006607f, -0.04954017f, -0.11614379f, -0.02624849f, -0.06744836f, 0.00356530f, 0.00815583f, 0.02471392f, 0.07819026f, 0.04378894f, 0.04874821f, 0.14621659f, 0.06266855f, 0.16271867f, 0.03620122f, 0.07067451f, -0.04114481f, -0.12796468f, 0.09353611f, -0.04480587f, -0.04563593f, 0.03875915f, 0.01597680f, -0.07303535f, 0.06143187f, -0.04196920f, -0.02640030f, -0.00878757f, -0.04433967f, 0.04986300f, -0.14986740f, 0.05940996f, -0.25740972f, -0.14042497f, 0.03153275f, 0.08397957f, -0.15373395f, 0.08816160f, 0.07092483f, 0.04285383f, 0.01256832f, -0.09395937f, 0.11334410f, 0.00262371f, -0.08038510f, 0.19840693f, -0.02743322f, 0.00818531f, -0.03898838f, 0.00582317f, 0.18264878f, 0.16334970f, -0.06764637f, -0.05731665f, 0.18078744f, -0.12093869f, 0.13296537f, -0.17041557f, -0.00492097f, -0.08633563f, -0.18005846f, -0.07410084f, -0.07652017f, 0.08629563f, 0.08095352f, -0.15250532f, 0.14447238f, 0.01024590f, 0.00929112f, 0.10415430f, 0.06870609f, 0.15990485f, 0.09410068f, 0.03129694f, -0.01716570f, 0.00417805f, 0.00115145f, 0.06463294f, -0.00263028f, -0.00950040f, 0.05625851f, 0.16759720f, -0.03374450f, 0.08286279f, -0.14173125f, 0.03039381f, -0.06663957f, 0.13420741f, -0.24704398f, -0.06279753f, -0.13415292f, -0.03987747f, -0.10334888f, 0.04211754f, 0.08121752f, -0.01237010f, 0.12083735f, -0.00823979f, 0.10156442f, 0.12722884f, 0.13198461f, 0.06816778f, 0.06809141f, 0.11369778f, -0.19045803f, -0.11567768f, 0.15737005f, 0.09176695f, -0.04445582f, 0.04853898f, -0.05509349f, 0.15196402f, -0.02541761f, -0.16761658f, -0.03310903f, -0.09976066f, -0.18831694f, 0.10446677f, -0.19285047f, 0.07362776f, -0.08328036f, -0.08468449f, 0.15666083f, 0.07875445f, 0.08399709f, -0.06165490f, 0.03182994f, 0.01537766f, 0.09389039f, -0.17145945f, -0.20465463f, -0.28381193f, -0.31198207f, -0.49123150f, 0.08712979f, 0.12206706f, 0.02903976f, -0.01578846f, -0.08785100f, -0.05626374f, 0.00774028f, 0.10136915f, 0.07512511f, -0.20233777f, 0.08023939f, -0.00411994f, 0.05271140f, 0.00729033f, 0.12199422f, 0.03229054f, -0.12966329f, 0.01725274f, 0.11844015f, -0.03876685f, -0.22034492f, -0.36407238f, -0.12872088f, -0.23807684f, -0.18319444f, -0.33731213f, -0.28154692f, -0.02308537f, -0.16849008f, 0.09807911f, -0.06405418f, -0.03122265f, 0.10336994f, 0.10288750f, -0.08258234f, -0.08806084f, 0.02032948f, -0.08484855f, -0.02133748f, 0.13676862f, 0.10346359f, -0.12492798f, 0.02021817f, 0.13714202f, 0.12390979f, 0.02393986f, -0.19271541f, -0.21507673f, -0.32886079f, -0.35175237f, -0.33991709f, -0.29939553f, -0.33486789f, -0.10105924f, -0.16229822f, 0.05550879f, 0.00384293f, -0.12909706f, -0.02467952f, -0.03007987f, -0.06446593f, -0.07144074f, -0.01551714f, 0.01406245f, -0.06956797f, -0.10606645f, 0.03726165f, 0.21469566f, -0.07537183f, 0.11944211f, -0.04054591f, -0.20071466f, 0.11674191f, -0.00886205f, -0.10600899f, -0.43660456f, -0.23049305f, -0.16058640f, -0.30674708f, -0.02314018f, -0.00646043f, 0.00886540f, -0.03101160f, -0.13915232f, 0.14439599f, 0.03809389f, -0.00041393f, 0.06232072f, -0.08829035f, 0.12891217f, -0.08798998f, -0.05478937f, 0.10900912f, -0.06150799f, 0.00025417f, 0.05447615f, 0.00966559f, -0.06616571f, 0.18574344f, 0.09522521f, -0.07116233f, -0.17003962f, 0.01098972f, -0.19344160f, -0.18832909f, 0.00370241f, -0.01371525f, -0.06620526f, -0.02160993f, 0.05562732f, 0.13042067f, 0.19545169f, 0.13187920f, 0.03183929f, -0.09227264f, -0.03289252f, -0.08990987f, 0.19856773f, -0.08007283f, 0.09075570f, -0.04584593f, 0.03443144f, 0.08211175f, -0.09377456f, -0.03770944f, -0.22652563f, -0.07144500f, 0.07104038f, 0.01401333f, -0.22071005f, -0.14452972f, -0.03035600f, 0.01198231f, 0.12895048f, 0.11638277f, -0.05961117f, 0.19626887f, -0.03449096f, -0.10620826f, -0.00092459f, -0.11068278f, 0.15443757f, -0.04461131f, 0.11412923f, -0.04869866f, -0.12651183f, 0.06768921f, -0.15644787f, 0.05327332f, 0.03270784f, 0.11281614f, 0.10047621f, 0.08290225f, 0.01533959f, -0.00377776f, 0.12838124f, 0.14290312f, -0.02364440f, -0.02379096f, 0.05674958f, 0.01057320f, 0.01421831f, 0.11689873f, -0.08155669f, 0.01583128f, 0.16175447f, 0.01638190f, 0.12425921f, 0.09636552f, 0.08869069f, -0.04368160f, 0.02375006f, 0.11184850f, -0.15535516f, 0.13653833f, 0.05897244f, 0.04227278f, 0.01517388f, 0.18486062f, 0.07761150f, 0.03306762f, 0.22581834f, -0.08835974f, -0.08277757f, -0.04627370f, 0.17097707f, -0.06062553f, -0.01180799f, -0.13199632f, -0.00187486f, -0.11060347f, -0.01302303f, -0.05256675f, 0.03922462f, -0.08745068f, -0.00941972f, 0.13452211f, -0.00455987f, 0.09486874f, -0.11461766f, 0.05484496f, 0.13389459f, -0.04308332f, -0.15353313f, 0.12989900f, 0.12492216f, 0.04742083f, 0.23740952f, -0.02339504f, 0.01895826f, -0.00337134f, -0.11528938f, 0.09962992f, -0.07482221f, 0.18496175f, 0.04443027f, 0.05946786f, -0.01249110f, -0.01682733f, -0.04220930f, 0.08488621f, -0.12476069f, 0.13585852f, 0.04894160f, 0.00536484f, -0.10993262f, 0.08122546f, -0.03457966f, 0.06494940f, -0.15150091f, -0.18251528f, 0.02043276f, -0.11742833f, 0.00161558f, 0.09271451f, 0.01645890f, 0.16233873f, 0.24120902f, -0.00291539f, 0.03256138f, 0.01417664f, 0.14057493f, 0.16550143f, 0.12227572f, 0.03393709f, 0.14039889f, 0.12573570f, 0.02955076f, -0.07644603f, -0.24557076f, 0.00580980f, 0.05404387f, 0.09845819f, -0.00192276f, -0.02421492f, -0.05677573f, -0.06898005f, -0.00647286f, 0.25903431f, 0.00763979f, -0.12072317f, -0.01956831f, 0.11899418f, 0.07710917f, -0.14374633f, 0.09417855f, 0.17806864f, 0.13983375f, 0.27259341f, 0.09159359f, 0.24919197f, -0.06509783f, 0.06143815f, 0.09214593f, -0.06479095f, 0.01141622f, 0.09506381f, 0.17467101f, 0.02166579f, -0.08215890f, 0.08743408f, 0.04954609f, 0.04511257f, 0.01630456f, -0.01126301f, 0.07367247f, -0.12021092f, 0.06412677f, -0.00884790f, 0.11243169f, -0.17612477f, 0.13135111f, 0.01758552f, -0.19021297f, -0.07756735f, -0.09933504f, 0.12361144f, -0.07617425f, 0.09415274f, 0.28395420f, 0.03693409f, 0.25924391f, 0.12596820f, 0.07662519f, -0.09635998f, -0.03193710f, 0.01998439f, -0.12990156f, 0.05895586f, 0.02198052f, -0.10148842f, -0.07716796f, 0.04892173f, -0.10462670f, 0.06688589f, -0.09942427f, 0.06604803f, 0.12985909f, 0.01048799f, -0.08324321f, -0.10334809f, 0.05574426f, 0.04358895f, -0.01331517f, -0.04160269f, 0.04388786f, 0.09632020f, 0.18948796f, 0.18678091f, 0.05086488f, 0.08097576f, 0.11891904f, -0.00373438f, -0.02543511f, 0.09257784f, -0.08083653f, 0.14649853f, -0.00024052f, 0.06735887f, -0.00393454f, 0.11956676f, 0.02023212f, 0.05687999f, -0.08921444f, -0.02201484f, -0.02170419f, 0.03798307f, -0.04125644f, 0.13302802f, -0.00053960f, 0.09740244f, -0.16519766f, -0.03677788f, 0.00689648f, 0.00301406f, 0.06937055f, 0.13201797f, 0.08124381f, -0.14306369f, -0.02985483f, 0.13085021f, -0.10996192f, 0.10634896f, 0.01827537f, -0.07222757f, -0.01873939f, -0.02984182f, -0.11532871f, -0.00418177f, -0.17574733f, 0.10029235f, -0.07865697f, -0.06816027f, 0.01098735f, -0.05089379f, -0.18085882f, 0.08875264f, -0.03068621f, 0.25868681f, 0.07906815f, -0.16076493f, -0.22919376f, 0.10995831f, -0.01377256f, -0.00154746f, -0.11172663f, 0.04013474f, 0.09230383f, 0.15380877f, -0.03867356f, 0.10158024f, 0.01819479f, -0.18039323f, 0.08113583f, -0.03058073f, 0.05247870f, -0.07593583f, -0.13695754f, 0.06654309f, -0.00190691f, 0.12588513f, -0.00408882f, 0.10244825f, -0.05425534f, 0.11230654f, 0.07403038f, 0.13506973f, 0.04393263f, -0.11382116f, 0.08935156f, -0.03429955f, -0.23173873f, -0.07214854f, -0.04706882f, 0.12503876f, -0.03465261f, -0.00213363f, -0.05805831f, -0.00675146f, -0.05394359f, 0.03628901f, 0.11755250f, 0.06058168f, 0.04599186f, 0.02325599f, -0.16584651f, -0.01269957f, -0.05272513f, -0.04044183f, 0.07620249f, -0.04647869f, 0.06745268f, -0.07037903f, -0.07415931f, 0.01560924f, 0.28777456f, 0.11834556f, -0.06028925f, 0.03462206f, 0.06511784f, 0.04293194f, 0.04225754f, -0.09934452f, 0.03499997f, 0.02977537f, 0.08946976f, 0.07317036f, 0.06811086f, -0.01026196f, -0.09777127f, 0.01203715f, 0.08763023f, -0.03012184f, -0.09465238f, 0.11143986f, -0.05335064f, 0.08734544f, 0.02075445f, 0.03759846f, 0.24438937f, -0.03523323f, 0.06178750f },
