/*
 * Crystal Neural Network - Compiled from PyTorch
 *
 * This code was automatically generated from a trained crystal model.
 * Frozen neurons: 0 (0.0%)
 * Active neurons: 96 (100.0%)
 *
 * Generated by Crystal Compiler
 */

#include <math.h>
#include <stdint.h>
#include <string.h>

// Activation function
static inline float tanh_activation(float x) {
    return tanhf(x);
}


// Network dimensions
#define INPUT_DIM 784
#define OUTPUT_DIM 10
#define NUM_NEURONS 96
#define NUM_FROZEN 0
#define NUM_ACTIVE 96
#define INTERACTION_SCALE 0.3777109384536743f


// Frozen neuron weights (compile-time constants)
// No frozen neurons

// Active neuron weights
static const float ACTIVE_INPUT_WEIGHTS[96][INPUT_DIM] = {
    { -0.09370803f, 0.06400509f, -0.06847771f, -0.05373087f, -0.10331098f, -0.21223843f, -0.04102484f, -0.07163388f, -0.07345621f, -0.14939830f, -0.12362259f, -0.35859141f, -0.02476882f, -0.22881293f, 0.05475892f, 0.02910104f, -0.14248854f, 0.03586339f, -0.03908402f, -0.05779977f, -0.09201670f, 0.04256669f, -0.16288003f, 0.00812482f, -0.01758609f, 0.00185948f, -0.14175548f, -0.24415947f, 0.07691640f, -0.06605823f, 0.02566010f, 0.06328628f, 0.00766276f, -0.00457423f, 0.17029996f, -0.00467912f, 0.09058021f, 0.00830468f, -0.19102125f, 0.04236538f, 0.09032803f, -0.15322375f, 0.12725466f, -0.23689395f, 0.08659821f, -0.11451481f, 0.00208323f, -0.08228540f, -0.02370686f, -0.09803634f, -0.03718916f, 0.05790367f, -0.04885059f, -0.09652495f, -0.05203383f, 0.00455323f, -0.03570230f, 0.08766234f, -0.13382465f, -0.01501112f, 0.08429294f, -0.18158801f, 0.05502238f, -0.08088446f, 0.05682503f, -0.18418729f, -0.11128370f, -0.16637409f, 0.04265011f, 0.30678734f, 0.20302945f, 0.61158979f, 0.33888650f, 0.02044392f, -0.18765485f, -0.03957945f, -0.13967636f, -0.04882996f, -0.11068511f, -0.25845736f, 0.12025022f, 0.02785118f, -0.11846447f, -0.08351872f, -0.07536390f, -0.10746717f, 0.11966151f, -0.05440240f, -0.05323082f, 0.01996319f, -0.09053330f, -0.21771546f, -0.25799656f, -0.28312424f, -0.45207757f, -0.45240796f, -0.25221926f, -0.20201735f, 0.20787364f, 0.00076372f, 0.28509036f, 0.41158143f, 0.10004421f, -0.12345549f, 0.03092789f, -0.01052885f, 0.10585836f, 0.02033778f, 0.01266723f, 0.01910585f, 0.15660971f, -0.07309846f, -0.12326058f, -0.16113445f, -0.10091531f, -0.03207823f, -0.10660322f, -0.12963669f, -0.32548407f, -0.38467538f, -0.41144937f, -0.67684186f, -0.79424393f, -0.25829116f, 0.12417714f, -0.06214248f, -0.10256625f, -0.00175734f, 0.04914705f, -0.23197728f, 0.40869433f, -0.46567431f, -0.35979235f, -0.12044812f, 0.02012367f, -0.16504668f, -0.05594132f, 0.05327555f, 0.12400156f, -0.08817077f, -0.17003441f, 0.07307110f, 0.04426078f, -0.01324163f, -0.23138791f, -0.10198925f, -0.31285203f, -0.09662139f, -0.27110282f, -0.09925722f, -0.22996837f, 0.03216733f, 0.03532005f, 0.18931516f, 0.25426558f, 0.63265079f, 0.14577052f, 0.20257385f, 0.27880067f, 0.06472091f, -0.13900919f, -0.11345681f, 0.49494183f, 0.02627684f, -0.37796646f, 0.04617228f, -0.03636330f, 0.04106526f, 0.04492188f, 0.04708619f, -0.03079034f, -0.01424995f, -0.07664827f, 0.01195190f, 0.05314498f, 0.02460201f, 0.24200496f, 0.44621316f, 0.57409942f, 0.28895247f, 0.06055526f, 0.29910874f, 0.40273815f, 0.18148921f, -0.10224844f, -0.14626117f, 0.17200567f, 0.06928124f, 0.18187208f, -0.04517097f, 0.18215789f, 0.23669273f, -0.00895658f, -0.09251539f, -0.15481810f, -0.22136430f, 0.08654924f, -0.21144381f, 0.06125561f, -0.05428532f, 0.19682796f, 0.38260683f, 0.33350497f, 0.56750077f, 0.06076758f, 0.25711215f, 0.34660956f, 0.33068106f, 0.29019025f, -0.07450258f, 0.21224567f, -0.15592413f, 0.05496313f, 0.06024265f, 0.36203140f, 0.20434913f, 0.10480970f, 0.16680978f, 0.38930699f, 0.48203507f, 0.28586897f, 0.29040506f, 0.18929560f, -0.14843360f, 0.00558720f, -0.04627877f, -0.12175474f, 0.15686089f, 0.18008095f, 0.29443580f, 0.27595243f, 0.58852935f, -0.14519984f, 0.02852610f, 0.45492500f, 0.09958521f, 0.23384574f, 0.09945240f, 0.15621346f, 0.24248676f, 0.26259315f, 0.08704036f, 0.26158503f, 0.00267114f, 0.41439533f, 0.00094974f, 0.15812857f, -0.00918579f, -0.18462247f, 0.18402644f, 0.23526852f, 0.02186952f, -0.10505436f, 0.04901218f, 0.03495409f, 0.25457397f, 0.41786128f, 0.66746527f, -0.00017668f, 0.17455707f, 0.21201888f, -0.09064853f, 0.16897148f, -0.02043300f, 0.09349967f, 0.14276901f, 0.22690198f, 0.13861252f, 0.25786063f, 0.39096063f, -0.05844856f, 0.11008363f, 0.07759882f, -0.29447532f, 0.20427452f, 0.30034965f, 0.08089526f, 0.33494368f, 0.40153956f, 0.29855201f, 0.02037263f, 0.10020057f, 0.04812664f, 0.36945260f, 0.31830281f, 0.15061697f, 0.21291217f, 0.33114091f, -0.06057482f, -0.49161986f, -0.10815772f, 0.10499825f, -0.14547975f, 0.49323004f, 0.22805096f, 0.30167612f, 0.46422300f, 0.53278005f, 0.28877226f, 0.14994700f, 0.35708705f, -0.07230818f, 0.06766560f, 0.35858369f, 0.25777075f, 0.42508811f, 0.12369162f, 0.20809975f, -0.04386131f, 0.14076807f, 0.11266693f, 0.60315329f, 0.27201548f, -0.16619268f, -0.15138112f, -0.16886754f, -0.41233999f, -0.09414401f, 0.33026490f, 0.07093740f, 0.20585594f, 0.87086713f, 0.58745021f, 0.62758195f, 0.06376196f, 0.03273855f, 0.02954260f, 0.02543695f, -0.04150066f, 0.11758737f, -0.21387625f, 0.49824077f, 0.17040765f, 0.13234065f, 0.09241396f, -0.02152483f, 0.02644343f, 0.07236903f, 0.14135300f, 0.14059749f, -0.11526155f, -0.41406751f, -0.36296687f, -0.20277321f, -0.15861481f, -0.17988713f, -0.23438901f, -0.32371864f, -0.16957028f, -0.09145395f, -0.04194276f, -0.02219170f, -0.20619473f, 0.05660333f, -0.11405662f, -0.00817654f, -0.08561953f, 0.14872177f, 0.05395413f, 0.00838952f, 0.28472289f, 0.12249887f, 0.25182688f, -0.01351850f, -0.04120791f, 0.20904547f, 0.15334450f, -0.05542578f, -0.22841480f, -0.56897062f, -0.32015839f, -0.40763515f, -0.36366367f, -0.31658155f, -0.76064581f, -0.86263382f, -0.56853241f, -0.24138375f, -0.54671299f, -0.41987246f, -0.26014686f, -0.05818324f, -0.07575389f, 0.06874551f, -0.09749070f, -0.10493813f, -0.25698808f, -0.24701956f, 0.39388824f, 0.08123729f, 0.03554947f, -0.07395795f, -0.25292379f, 0.04815742f, 0.11289536f, -0.11088584f, -0.56547546f, 0.03484893f, -0.14910974f, -0.60995328f, -0.48219651f, 0.03786684f, -0.26572713f, -0.20603806f, -0.22479634f, -0.34361199f, -0.20072895f, -0.19239129f, -0.30064213f, -0.16141708f, -0.06524040f, 0.03493727f, -0.42745155f, -0.04034436f, -0.02651276f, 0.21932912f, 0.54272300f, -0.28347078f, -0.05931254f, -0.24693352f, -0.03898408f, -0.13856627f, -0.02304009f, 0.05326521f, -0.06703009f, -0.44368613f, -0.11154757f, -0.09238351f, -0.19568454f, 0.05279895f, -0.14549540f, 0.07005633f, -0.37254307f, -0.12298512f, -0.33334848f, -0.38556102f, -0.44317088f, -0.28397515f, -0.08575982f, 0.16339628f, -0.27405193f, 0.21093549f, 0.24507181f, 0.23268387f, -0.03606028f, -0.14346775f, -0.03384558f, -0.04849487f, 0.03404419f, -0.12803632f, -0.01313892f, -0.11813123f, -0.27402684f, -0.49572557f, -0.32996058f, -0.04748909f, -0.18732941f, 0.02525094f, -0.39747092f, -0.64407307f, -0.12037040f, -0.28197500f, -0.05433994f, -0.18085156f, -0.08409167f, -0.23786302f, -0.24961771f, -0.05671768f, -0.20834886f, -0.04598600f, 0.07953703f, -0.08800954f, -0.06469311f, -0.38973701f, -0.08645567f, -0.01717323f, -0.01313589f, -0.11803292f, 0.07712973f, -0.13985391f, 0.04128704f, -0.16965897f, -0.39565817f, -0.14661427f, -0.37254730f, 0.03888785f, -0.20099945f, -0.15094206f, -0.06901097f, -0.29373491f, -0.11978056f, -0.15680321f, -0.15473658f, 0.03984175f, 0.06606282f, 0.15490745f, 0.40231636f, 0.06653864f, -0.07593558f, 0.13710760f, 0.14957739f, -0.07222580f, -0.01971238f, 0.00256815f, -0.11445706f, -0.08626573f, 0.09762921f, -0.09759555f, -0.01396878f, -0.22302827f, -0.57029688f, -0.34114698f, -0.24930269f, -0.10386416f, -0.30010435f, -0.05763876f, -0.28925243f, -0.32900983f, -0.33058545f, -0.03172712f, -0.28594902f, -0.02863389f, 0.01204896f, -0.29952517f, -0.24046862f, -0.18566872f, 0.07392955f, -0.11599465f, -0.34039944f, -0.28767800f, -0.19282518f, -0.21195632f, -0.05517971f, 0.02981424f, 0.23217852f, -0.14686981f, -0.03711118f, -0.11105505f, -0.23902386f, -0.20421258f, 0.03685246f, 0.31642824f, -0.23987076f, -0.39379880f, 0.05675806f, -0.15321575f, -0.11989313f, -0.41380763f, -0.42977515f, -0.15582204f, -0.14900692f, -0.19333333f, -0.04596471f, -0.23802155f, -0.03136057f, -0.48264867f, -0.57645500f, -0.38712528f, -0.14237747f, -0.03886558f, -0.12577312f, 0.02900830f, -0.19179854f, 0.08480030f, -0.07400550f, 0.05553101f, 0.09977515f, 0.08632833f, -0.03129762f, -0.19235149f, 0.25682399f, -0.35330778f, 0.11045945f, 0.26827499f, 0.02609061f, -0.22952744f, -0.45157716f, -0.27054718f, -0.16645530f, 0.06677511f, 0.06569807f, -0.06303041f, -0.14394011f, -0.02394568f, -0.28688428f, -0.08089027f, 0.04542100f, -0.12883238f, -0.17039028f, -0.11960886f, -0.21973546f, -0.01441562f, -0.09661420f, 0.22496866f, 0.87630153f, 0.57699031f, 0.45325819f, 0.10076585f, 0.55782062f, 0.18617962f, 0.01632260f, 0.28464341f, 0.08993068f, 0.16330254f, 0.04804434f, -0.16949585f, 0.22899564f, 0.26481232f, 0.39248243f, 0.11900294f, 0.04451641f, -0.38937280f, -0.31036878f, -0.08492190f, -0.00307157f, 0.06921224f, -0.08823282f, -0.06879172f, -0.07711387f, 0.18279518f, -0.13935590f, 0.46450165f, 0.63014245f, 0.64497972f, 0.35660711f, 0.19650625f, 0.06014075f, 0.15380834f, 0.22353685f, 0.37835765f, 0.26651368f, 0.66713262f, 0.16753766f, 0.55603820f, 0.60592866f, 0.31814519f, 0.34900445f, 0.25908720f, -0.36271659f, -0.36654899f, -0.24082416f, -0.22198422f, -0.01019135f, -0.07360342f, -0.06850258f, -0.16526538f, 0.06587093f, 0.02196087f, 0.01208187f, 0.05076683f, -0.03546931f, 0.17561169f, 0.12554067f, 0.35017326f, 0.34938422f, 0.66710532f, 0.19648802f, 0.20712097f, 0.34350562f, 0.76139766f, 0.86813360f, 0.57277298f, 0.14124735f, 0.29623353f, 0.31510773f, -0.12505464f, -0.15321647f, -0.27253824f, -0.28338793f, -0.08617565f, -0.03366875f, -0.06576943f, -0.03817457f, 0.13193691f, 0.04103377f, -0.20136851f, -0.01582245f, -0.14543797f, -0.20322296f, -0.00660553f, -0.14891231f, 0.12153026f, -0.13804175f, -0.09435286f, 0.02434066f, 0.22613354f, 0.06140791f, 0.07048968f, -0.20193748f, -0.31498495f, -0.30184308f, -0.26650569f, -0.65230650f, -0.71400970f, -0.58217877f, -0.11158380f, -0.03456880f, 0.00995598f, -0.04782203f, -0.23354892f, -0.07553605f, -0.17552787f, -0.06728070f, 0.10272700f, -0.09330284f, -0.30047950f, -0.09348425f, -0.15165049f, -0.22202605f, 0.07186073f, -0.18990518f, -0.28677103f, 0.27857906f, -0.14898649f, 0.08681624f, 0.17560193f, -0.40028286f, -0.61436915f, -0.30951032f, -0.13292803f, -0.37761572f, -0.50629210f, 0.03167197f, -0.15761803f, 0.04919835f, 0.09045665f, 0.02837773f, -0.07633503f, 0.11706267f, -0.02907926f, -0.06498668f, -0.06828033f, -0.07918087f, -0.21751548f, -0.24418992f, -0.31115460f, -0.16321978f, 0.08721692f, 0.31922898f, -0.10286622f, -0.27532306f, -0.13482916f, -0.27414787f, -0.09331988f, 0.04894027f, -0.04766954f, -0.11333358f, 0.31363398f, 0.00025894f, -0.02999317f, 0.08397816f, 0.17048971f, 0.10752133f, -0.00543349f, 0.01934263f, -0.01790796f, -0.14654364f, 0.02484769f, -0.06388447f, -0.03252873f, -0.11086316f, -0.10010811f, -0.14341098f, 0.16192199f, 0.00053975f, 0.05756866f, 0.15643215f, -0.06336634f, -0.03975469f, -0.02139916f, -0.00628344f, -0.17736110f, -0.08271484f, 0.08469322f, 0.04667520f, 0.10352366f, 0.13770299f, 0.00497515f, 0.02840506f, 0.03527626f, 0.01000635f, 0.03204482f, 0.10617389f, 0.07455569f },
    { 0.21223707f, 0.01069372f, 0.00443815f, 0.06037949f, -0.02260869f, 0.03681616f, 0.07163510f, 0.09335820f, 0.17209320f, -0.00078473f, 0.03906100f, 0.05022339f, 0.01390579f, 0.14269586f, 0.11519621f, -0.00130332f, 0.14216086f, 0.07014717f, -0.01072012f, 0.14347753f, 0.08302224f, -0.01825573f, -0.00462699f, 0.02966122f, 0.12186699f, 0.19036759f, -0.05251211f, 0.25054905f, 0.13188936f, 0.13452138f, -0.01255168f, 0.06142277f, -0.02400254f, 0.09835361f, -0.00669173f, 0.09403409f, -0.06400981f, 0.16202055f, 0.05503505f, 0.17213653f, -0.02638457f, 0.12884299f, 0.12513246f, -0.16832688f, 0.12806569f, 0.26170433f, 0.22865623f, 0.03244625f, -0.02499292f, 0.12102799f, -0.02624607f, 0.07619899f, 0.06711532f, -0.04495385f, 0.00053330f, 0.18355967f, 0.07872587f, 0.00212963f, -0.12082822f, 0.03828285f, 0.17003736f, -0.01433018f, -0.06194255f, 0.03928292f, -0.11227655f, -0.02297080f, -0.03093091f, 0.29675367f, 0.25283512f, 0.19328581f, -0.08211984f, -0.07555113f, -0.04246619f, 0.14973886f, 0.05968510f, 0.22412400f, 0.01361439f, -0.01319431f, 0.10367040f, 0.00395170f, 0.09399753f, -0.10923520f, 0.05167078f, 0.09487404f, 0.04290412f, 0.10520599f, 0.13737072f, 0.02712572f, -0.00239554f, 0.08280487f, -0.03555406f, -0.03665755f, 0.15440923f, 0.13987343f, -0.09437425f, -0.08176172f, 0.06017978f, 0.25623283f, -0.09221333f, -0.19822767f, 0.07867830f, 0.07081112f, -0.35567325f, -0.02777518f, -0.18581392f, -0.13218467f, -0.21877705f, -0.04511848f, -0.07035040f, -0.05874685f, 0.15069102f, -0.03185800f, 0.04236853f, 0.02140194f, -0.09249333f, -0.01069730f, -0.08109859f, 0.03988950f, 0.03434424f, -0.05195383f, 0.02106073f, 0.09116014f, -0.05863089f, 0.04284110f, -0.15470955f, -0.17346600f, 0.02474137f, -0.19981156f, 0.00947317f, -0.02690284f, -0.07491947f, -0.09392374f, -0.25466767f, -0.25479048f, -0.07396947f, 0.00041541f, -0.28859136f, -0.14571239f, 0.23668844f, -0.03641937f, -0.06369003f, -0.09926254f, 0.04205986f, 0.09021865f, -0.11508781f, -0.09302129f, -0.20110990f, -0.44677821f, 0.01651126f, -0.04160269f, 0.13120089f, 0.10956954f, -0.12405218f, -0.12031893f, -0.08362158f, -0.18597122f, -0.01931584f, -0.02615652f, 0.25788045f, 0.05713069f, -0.03210897f, -0.13917229f, -0.18372923f, 0.10822448f, -0.19683562f, -0.07079986f, -0.03674815f, 0.12014041f, 0.03835423f, -0.09134673f, -0.12198969f, 0.10519940f, 0.21000604f, -0.06314716f, -0.00349306f, -0.37327296f, -0.19311401f, -0.32884151f, -0.12715544f, -0.20780697f, -0.27303538f, -0.18313371f, 0.08365648f, 0.14817142f, 0.02242381f, -0.16701381f, 0.01026391f, -0.11819999f, -0.14271252f, 0.09770381f, 0.08004428f, 0.12598686f, -0.05057666f, -0.22313491f, 0.09848940f, 0.30483618f, 0.06518850f, -0.17909844f, 0.16435027f, 0.36888739f, 0.22976972f, 0.08095790f, 0.30175033f, -0.18490493f, -0.12936422f, -0.07218497f, -0.32609886f, 0.02228065f, -0.07365756f, -0.09324378f, 0.04086983f, -0.02911521f, -0.02576025f, -0.03774336f, -0.25243258f, -0.08265907f, -0.19614042f, 0.06776724f, 0.13367383f, 0.13146946f, -0.07246293f, -0.27272704f, 0.08381917f, -0.06004057f, 0.23350595f, -0.04848832f, -0.02300833f, 0.05971167f, 0.26458162f, 0.31197339f, 0.21664456f, 0.05365819f, 0.00597695f, -0.01184724f, 0.00267256f, 0.03617558f, -0.18480970f, -0.14010370f, 0.01568711f, -0.07064855f, 0.03485687f, -0.00148765f, -0.17999496f, -0.25229251f, -0.13955754f, -0.03239717f, -0.14695382f, -0.08531533f, -0.37510270f, -0.60646909f, -0.14520441f, 0.03021600f, 0.04922775f, -0.09109991f, -0.01226009f, 0.14261454f, -0.35365179f, 0.29182422f, 0.07416837f, -0.01831284f, -0.31502929f, -0.04221166f, 0.10231078f, -0.03857948f, 0.01339318f, 0.05439228f, -0.07509813f, 0.17515343f, 0.23482883f, -0.01441918f, 0.11810138f, -0.07605916f, -0.04732525f, -0.33179337f, -0.21288283f, 0.01185822f, -0.45271021f, -0.55847234f, -0.07954228f, 0.00190596f, 0.00763837f, 0.18425304f, -0.01113273f, 0.04273921f, -0.34253228f, 0.21002679f, 0.20286459f, -0.21033484f, -0.11679388f, -0.00250393f, -0.11265072f, -0.13165298f, -0.07110122f, -0.27605236f, -0.20989890f, 0.04258275f, 0.10695621f, 0.09708274f, -0.01053847f, 0.00793275f, -0.24645257f, -0.09639122f, -0.39506239f, -0.27516502f, -0.66929603f, -0.50804543f, -0.17702509f, -0.04889892f, 0.06266148f, 0.16611251f, -0.03535458f, -0.08077100f, -0.32822695f, -0.05834389f, 0.45020798f, 0.11667322f, -0.13352114f, -0.15614352f, -0.00289947f, 0.13152643f, -0.06819747f, -0.06852572f, -0.43383443f, -0.44191968f, -0.06009172f, -0.23964790f, -0.10316290f, 0.07877385f, -0.09433310f, -0.03950243f, -0.20307626f, -0.57724643f, -0.42776141f, -0.38671225f, -0.25539860f, 0.13399348f, 0.01427429f, 0.10928044f, -0.19413622f, -0.15842867f, -0.16525641f, 0.04338217f, 0.26754367f, -0.05102430f, -0.05425632f, 0.08375276f, -0.12690638f, -0.09817449f, -0.07686785f, -0.26118731f, -0.52285880f, -0.42645186f, -0.14931153f, -0.03521908f, -0.08570111f, 0.30795065f, -0.03027260f, 0.40697220f, 0.17655745f, -0.11739563f, 0.30370003f, -0.04125187f, 0.16363883f, 0.15682092f, -0.00628287f, 0.15551005f, 0.01275092f, -0.25463206f, -0.02398622f, 0.09044813f, 0.13203456f, 0.15584135f, 0.14630720f, -0.07031474f, -0.32613415f, -0.41600457f, 0.01241847f, -0.18676350f, -0.41155785f, -0.28287160f, -0.06209858f, -0.10698011f, -0.13367468f, -0.11646107f, -0.12474041f, -0.06912938f, 0.09542411f, 0.30028796f, 0.31668916f, 0.07453600f, 0.04976784f, 0.03034284f, 0.05008239f, -0.28163096f, -0.17187880f, -0.02029855f, -0.04010577f, 0.40073109f, 0.74257857f, 0.69441313f, 0.11913544f, 0.23808831f, -0.24613310f, -0.16791545f, -0.21618728f, -0.05480246f, -0.20267676f, -0.34386852f, -0.21591102f, -0.26305607f, -0.16355859f, -0.27215445f, -0.20742543f, -0.26373148f, 0.24483646f, 0.56514341f, 0.81417131f, 0.27467808f, -0.06155568f, 0.00556147f, 0.07600431f, -0.02638300f, -0.10617507f, -0.12656187f, 0.26970202f, 0.22217730f, 0.44596308f, 0.63595027f, 0.87687784f, 0.80741459f, 0.00627556f, -0.04733707f, -0.06957235f, -0.05117624f, -0.08742840f, -0.19409671f, -0.15433672f, -0.05511450f, -0.27058396f, 0.06204477f, -0.15140377f, -0.13279171f, -0.07704256f, 0.36260432f, 0.57550597f, 0.43891644f, 0.12524889f, 0.13522552f, -0.05616958f, 0.09602712f, 0.15817294f, -0.13253506f, 0.04982732f, -0.02910119f, 0.14844438f, 0.38106966f, 0.61797518f, 0.49201053f, 0.35384053f, -0.02526582f, 0.08425047f, -0.17087165f, -0.06974336f, -0.04928280f, -0.02575000f, -0.03054458f, -0.04072155f, 0.06091287f, -0.18084554f, -0.00747069f, 0.28024441f, 0.36369163f, 0.78644764f, 0.43765059f, 0.21266592f, 0.04242414f, 0.06706060f, 0.01403236f, 0.13203682f, 0.06884795f, -0.15774137f, -0.12449441f, -0.05985761f, -0.10568555f, -0.09586725f, 0.27742004f, 0.62846720f, 0.29289249f, 0.02888638f, -0.03730747f, -0.06720057f, 0.10719977f, -0.07329202f, 0.11545885f, 0.36327350f, 0.19066621f, 0.07800021f, -0.14292374f, -0.06370374f, 0.45228869f, 0.79121661f, 0.27222091f, -0.02037784f, 0.08411817f, 0.18623279f, -0.07581305f, 0.06228594f, 0.02238946f, 0.01290794f, -0.02241708f, -0.29313329f, 0.04249587f, -0.02417143f, 0.25302795f, 0.46987697f, 0.15276282f, 0.23961248f, 0.01345314f, -0.07234935f, 0.15898784f, 0.18488203f, 0.13238023f, 0.15057215f, 0.01348841f, -0.08452221f, 0.00909409f, 0.20892538f, 0.58128363f, 0.75010520f, 0.15958849f, 0.00301509f, -0.01871566f, 0.06826136f, -0.05747151f, -0.02028264f, 0.09105442f, 0.22313318f, -0.11956207f, 0.04864628f, 0.25624713f, -0.11889521f, -0.00970830f, 0.28996015f, 0.48719895f, 0.43345371f, 0.11494040f, 0.01798124f, 0.00007206f, 0.02321443f, 0.03074823f, 0.00156426f, 0.08417817f, 0.00867168f, 0.17675391f, 0.31665996f, 0.11543245f, 0.63844091f, 0.24290299f, 0.00656979f, 0.01737183f, 0.08444677f, 0.10688656f, 0.04762096f, 0.20793124f, 0.34361169f, 0.36353898f, 0.06839770f, 0.14800183f, 0.11792330f, 0.36284113f, 0.20873746f, 0.34140056f, 0.10578305f, 0.20954251f, -0.08365375f, 0.10530278f, 0.13016163f, -0.01525614f, 0.31793448f, 0.25551885f, 0.20892829f, 0.02377971f, 0.01015302f, 0.26454544f, 0.35881421f, 0.18887997f, 0.00881190f, 0.02368616f, 0.10482119f, 0.01270072f, 0.06318931f, -0.00845744f, 0.09796364f, 0.14351106f, 0.12984537f, 0.00313228f, 0.14601660f, -0.11341123f, 0.21214947f, 0.09002104f, 0.05690831f, 0.20856048f, 0.16755860f, 0.36761796f, 0.02271074f, 0.10324451f, 0.15667659f, 0.32811978f, -0.08604997f, 0.07471334f, 0.17412959f, 0.51551509f, 0.39028096f, 0.06659537f, 0.22810036f, -0.01358697f, -0.04191522f, -0.00484557f, 0.13160615f, 0.16583362f, -0.01170955f, 0.20554119f, -0.07317185f, -0.24411379f, -0.00195666f, 0.21525447f, -0.10240014f, 0.27604157f, 0.31909811f, -0.02450090f, -0.07082583f, 0.14744942f, 0.02048678f, 0.16527075f, 0.16379060f, -0.07091653f, 0.34413600f, 0.34795833f, 0.43504682f, 0.70363361f, 0.25080872f, 0.07793950f, 0.07323868f, -0.01050060f, 0.05733050f, 0.06454100f, -0.02323890f, 0.09276331f, -0.06144040f, 0.36236748f, 0.20117913f, 0.04095092f, 0.21795298f, 0.24120587f, 0.09375382f, 0.25835580f, 0.30682257f, 0.15074033f, 0.00902396f, 0.01749272f, 0.18231677f, 0.05847720f, 0.45518202f, 0.32770124f, 0.42342830f, 0.50890368f, 0.46728599f, 0.27035367f, 0.08019292f, 0.10840582f, 0.01028173f, 0.13329564f, 0.13294142f, 0.04139726f, 0.15065323f, -0.23652813f, -0.16151516f, -0.26705757f, -0.43034446f, -0.43399554f, -0.09884418f, 0.16553190f, -0.41521370f, -0.26634750f, 0.14286354f, -0.09034854f, -0.20883420f, -0.66483200f, -0.30432484f, -0.35241374f, -0.08774559f, -0.35372302f, 0.01082528f, 0.03260985f, 0.16203274f, 0.18077324f, 0.13259716f, 0.00694870f, 0.01677692f, 0.24517785f, 0.26368469f, 0.20723861f, -0.07216518f, 0.05280641f, -0.04887825f, -0.10171989f, -0.18722740f, -0.40883303f, -0.52689242f, -0.91778386f, -1.10475051f, -1.03441107f, -1.02093863f, -1.08473241f, -1.34978831f, -1.11787319f, -1.14923263f, -1.29821992f, -0.93120384f, -0.64002770f, -0.38729888f, -0.09878887f, -0.28867331f, -0.22205202f, 0.04486257f, -0.08851197f, 0.09593190f, -0.06629702f, -0.07265306f, -0.18603636f, -0.05150006f, 0.01173487f, 0.14615341f, 0.21024761f, -0.10045763f, -0.00885895f, 0.04006002f, -0.30103171f, -0.00893926f, -0.14388205f, 0.01787630f, -0.25627461f, -0.35388690f, -0.40991524f, -0.25914395f, -0.33278969f, -0.23691872f, -0.18878363f, -0.09987103f, -0.27591652f, -0.23662715f, 0.24407649f, 0.11393584f, 0.12016485f, 0.14968067f, -0.07079362f, 0.01867880f, 0.13506186f, -0.06634270f, -0.03652024f, -0.05744138f, 0.06999609f, 0.25566968f, -0.02923895f, -0.21062563f, -0.07713486f, -0.00817128f, 0.10878485f, 0.11484703f, 0.06259610f, 0.12501854f, -0.02631093f, -0.01924162f, 0.09816606f, 0.13456535f, -0.00000281f, 0.05379372f, 0.00824439f, -0.02907407f, -0.02235044f, -0.10062016f, 0.00128625f, -0.05550082f, 0.03201811f },
    { -0.05081356f, -0.09568594f, -0.08585250f, -0.08180407f, -0.06612512f, 0.01038521f, -0.30750573f, -0.27184308f, -0.14686616f, -0.08558599f, 0.00854955f, -0.05077422f, -0.05375072f, 0.04599360f, -0.06590299f, -0.09130425f, -0.10118935f, -0.07703613f, -0.21881598f, -0.02253413f, -0.08440967f, 0.00018016f, -0.06821934f, -0.12009597f, -0.04962876f, -0.01696654f, -0.01060906f, -0.28989244f, -0.08661691f, -0.09440277f, -0.08542774f, 0.10706907f, -0.02131901f, -0.38791445f, -0.03103734f, -0.09163167f, -0.10019808f, -0.04551474f, -0.07878330f, -0.08506219f, -0.15745069f, -0.08765549f, -0.06858609f, -0.13306589f, -0.01063167f, 0.10025436f, -0.11921693f, -0.15067539f, -0.02346301f, -0.02646293f, -0.23315552f, 0.04872786f, -0.18095261f, 0.01758525f, 0.00755873f, -0.13960154f, 0.01032656f, -0.16736895f, 0.06762220f, -0.14342038f, 0.01001746f, -0.11549455f, 0.03538037f, -0.06134913f, 0.00186552f, -0.06744192f, -0.00491266f, -0.13561326f, -0.37684336f, -0.34695837f, -0.00120485f, -0.09346544f, -0.07934739f, -0.00016032f, 0.04109192f, -0.52877998f, -0.25277483f, -0.13154124f, -0.22550020f, -0.24926127f, -0.05205582f, -0.13572241f, -0.05097681f, -0.12532383f, -0.20927922f, 0.01048215f, -0.00924969f, -0.00887270f, -0.04035629f, -0.11106041f, -0.18541950f, -0.00315667f, -0.13631217f, -0.15367322f, -0.01396632f, -0.46257645f, -0.34646434f, -0.23153740f, -0.16611226f, 0.01745756f, -0.04647008f, -0.44581172f, -0.28068832f, -0.38821423f, -0.37799364f, -0.22485693f, -0.23633581f, 0.00729725f, 0.02116928f, -0.05072874f, 0.19717963f, -0.06988364f, -0.03742326f, -0.16471782f, -0.08138935f, -0.09952874f, -0.09037434f, -0.14524338f, -0.09677518f, -0.13569739f, 0.00771729f, 0.13994436f, -0.09978816f, -0.21320054f, -0.00297171f, 0.30104706f, 0.47310150f, 0.49031135f, 0.56519216f, 0.11984146f, 0.06615280f, -0.30340219f, -0.26437622f, 0.00257096f, 0.17349491f, -0.04244786f, -0.07389506f, 0.08885475f, 0.00517316f, -0.19917418f, -0.09155951f, -0.30015415f, -0.05852976f, -0.13869289f, -0.05097512f, -0.14969370f, -0.11830612f, -0.12796277f, 0.04782382f, 0.20959127f, 0.04316898f, 0.08086278f, 0.24944642f, -0.03862572f, 0.06033399f, -0.01614546f, 0.07691962f, 0.01440837f, -0.08422410f, 0.09200758f, 0.66086733f, 0.19923930f, 0.03728648f, 0.26279429f, 0.16002291f, 0.10156982f, -0.06521746f, -0.11758529f, -0.15613703f, -0.14861174f, -0.13164143f, 0.09107549f, 0.10438479f, -0.55240607f, -0.41230518f, -0.33337364f, -0.15394381f, 0.00857779f, -0.05047984f, 0.11569941f, -0.19649698f, 0.07057679f, 0.22972704f, 0.09005845f, 0.23759025f, -0.14224038f, -0.29026696f, -0.05873535f, 0.48128918f, -0.03319670f, -0.10514644f, 0.19703534f, 0.10423550f, 0.48114070f, 0.02470168f, 0.06938925f, -0.06154072f, -0.02631361f, 0.05123169f, -0.11641768f, 0.28579110f, 0.08444685f, -0.10016275f, -0.23434532f, -0.04158538f, -0.06345786f, 0.13138592f, 0.20384999f, -0.16976321f, -0.24886741f, 0.13655066f, 0.22420037f, 0.21727701f, -0.15591462f, 0.02962158f, 0.01394381f, 0.03860844f, 0.24594161f, 0.35692120f, 0.26592341f, -0.13585646f, 0.04101291f, -0.21069084f, 0.05715489f, -0.13744232f, -0.07507749f, -0.13364121f, -0.26269966f, 0.32088500f, 0.06846379f, -0.10729503f, -0.16247189f, -0.23514512f, -0.04510378f, 0.00576624f, -0.09140275f, -0.22083196f, -0.15721701f, -0.13454694f, -0.43200368f, -0.04754840f, 0.10880844f, 0.11540134f, 0.34634957f, 0.17074583f, 0.06608254f, 0.04529106f, 0.14898294f, -0.02143176f, -0.17950481f, 0.27496299f, 0.22010551f, -0.01570326f, 0.01468209f, 0.01150803f, -0.07504772f, 0.28968009f, -0.07010432f, -0.42858237f, -0.31501332f, 0.21781878f, 0.42871925f, 0.21379822f, 0.18079273f, -0.31462309f, 0.03341162f, -0.20229319f, -0.42965296f, 0.16497910f, -0.15794782f, -0.06661805f, 0.09760812f, 0.33307523f, -0.06515004f, -0.07123335f, 0.64259148f, 0.52874893f, 0.33068657f, 0.13505654f, -0.22523628f, -0.07111699f, -0.08931820f, -0.22841319f, 0.04395094f, 0.27071577f, -0.08020734f, 0.14688994f, -0.00262248f, 0.03676664f, 0.13525161f, -0.15474989f, -0.20480756f, -0.01096396f, -0.00433866f, -0.29185477f, -0.10536401f, 0.21240672f, 0.09068829f, -0.21443348f, 0.11614600f, 0.05328060f, 0.26748547f, 0.23632734f, 0.97033978f, 0.77659422f, 0.15882994f, -0.04653194f, -0.17422970f, -0.20109878f, 0.20511942f, -0.19467114f, -0.40284461f, 0.30550626f, 0.11167783f, -0.14322136f, -0.21075960f, -0.06853511f, -0.48654842f, -0.45711094f, -0.04428147f, -0.09025865f, 0.09543265f, -0.12008031f, -0.00988998f, 0.02544357f, -0.24060367f, -0.04058595f, 0.22189081f, -0.32796088f, -0.12092508f, 0.18944153f, 0.46612567f, 0.25471640f, 0.46196118f, 0.21424723f, -0.14769828f, -0.10763106f, -0.08286547f, -0.10109262f, -0.02830076f, 0.17266531f, -0.10525445f, -0.03171254f, -0.44640687f, -0.05285207f, -0.05708469f, -0.08341548f, 0.10290480f, 0.21478407f, 0.13946056f, 0.04111588f, -0.33071041f, -0.69427347f, -0.18401225f, -0.53528154f, -0.32558417f, -0.38705364f, -0.28062934f, -0.23386359f, -0.05544744f, 0.62499732f, 0.20592320f, 0.02368033f, -0.11348439f, -0.06954050f, -0.07072157f, -0.05780868f, -0.03237392f, -0.10427196f, -0.13543151f, -0.21658170f, -0.12135671f, 0.26387858f, 0.26501882f, 0.03411505f, 0.42746377f, 0.32267749f, -0.02611539f, -0.22684689f, -0.15535706f, -0.28379488f, 0.08352350f, -0.27923059f, -0.12251547f, -0.17394528f, -0.21642257f, -0.37493441f, 0.11653046f, 0.27678141f, 0.12675615f, 0.11362442f, -0.14015624f, -0.12689343f, 0.07208531f, 0.03228118f, -0.07391513f, -0.26039100f, -0.21268895f, -0.00189738f, -0.08604648f, -0.11797939f, -0.04167638f, -0.23042408f, 0.15490615f, 0.10854679f, -0.15356942f, -0.03391128f, -0.15629897f, -0.11125921f, 0.08240911f, -0.06303506f, -0.68806142f, -0.50406492f, 0.00213320f, -0.71290392f, -0.24757771f, -0.02467907f, 0.12865095f, -0.02004266f, -0.15544257f, -0.06557477f, 0.16323633f, 0.14549720f, -0.12749892f, -0.16251864f, 0.09864013f, -0.01921139f, -0.00634192f, -0.01524310f, 0.28725421f, 0.24815835f, 0.24826741f, -0.17747667f, -0.21137454f, 0.00604729f, -0.35006115f, 0.04313713f, -0.28364992f, -0.54993844f, -0.43138954f, -0.48386133f, -0.66046005f, -0.09767880f, -0.10726362f, 0.15577264f, 0.11335406f, 0.19091514f, -0.07188836f, -0.21258286f, -0.16492285f, -0.11525121f, -0.08205456f, -0.21620017f, 0.15195383f, 0.11613159f, -0.13165615f, -0.28997034f, 0.13972637f, 0.15011628f, 0.16197637f, 0.02514074f, 0.06931809f, -0.07520434f, -0.14762700f, -0.18377244f, 0.06039253f, -0.32503498f, -0.21887919f, -0.49094784f, -0.22867455f, 0.23218401f, 0.16889611f, 0.23075075f, 0.11110384f, 0.05919602f, -0.05779630f, 0.10287938f, -0.05522405f, -0.04507168f, 0.07935723f, 0.08804507f, 0.27451420f, -0.06006927f, 0.09684733f, 0.13389602f, 0.09687886f, -0.25433788f, 0.17448731f, -0.02613153f, -0.18330723f, 0.02040626f, -0.31974518f, -0.26322570f, -0.03902276f, -0.20936123f, 0.00025347f, 0.02148219f, -0.09172866f, 0.33239397f, 0.07091565f, 0.09524631f, 0.20029816f, -0.19146578f, -0.14293578f, -0.01415389f, -0.01046565f, -0.07823916f, 0.14698005f, 0.26300561f, 0.28966197f, 0.46523196f, 0.08440550f, 0.11918931f, -0.15526031f, -0.18568037f, -0.20541771f, -0.15358850f, 0.01197910f, -0.07327696f, -0.06083447f, -0.05337707f, -0.09611874f, 0.01175615f, 0.12031215f, 0.55546761f, 0.06540411f, 0.69570857f, 0.55858040f, 0.33934695f, 0.16729575f, -0.11573508f, -0.25741521f, 0.04747937f, 0.09487391f, -0.02501275f, 0.05225774f, 0.14864391f, 0.55732054f, 0.63651788f, 0.40553513f, 0.47372046f, -0.09375399f, 0.14143021f, -0.30777735f, -0.39716008f, 0.04375411f, -0.10393143f, 0.12733419f, 0.20230177f, 0.24768440f, 0.29488808f, 0.20014153f, 0.10682358f, 0.18558492f, 0.86269397f, 0.50362712f, 0.34009153f, 0.10555162f, 0.03052798f, -0.22985701f, -0.07825093f, -0.30348065f, -0.09642643f, 0.08546098f, -0.08072825f, 0.56505531f, 0.85367727f, 0.93185985f, 1.04616261f, 0.50196177f, 0.39863867f, -0.06283136f, 0.09090140f, -0.16072728f, -0.16134512f, 0.19144201f, 0.22513910f, 0.51209474f, 0.49551430f, 0.45218158f, 0.65394223f, 0.68165404f, 0.77343267f, 0.65930527f, 0.05194609f, -0.12222943f, 0.09183233f, 0.00311846f, -0.03275657f, -0.02913245f, -0.16264202f, 0.20057324f, 0.25510022f, -0.07456237f, 0.38196239f, 0.28508469f, 0.21416938f, 0.47344556f, 0.24425076f, 0.33678138f, 0.33093396f, 0.40276584f, 0.05843311f, 0.16569999f, 0.15867090f, 0.36710730f, 0.46757469f, 0.96681654f, 0.87567687f, 0.42958936f, 0.55848837f, 0.46827495f, -0.13472901f, -0.00467894f, -0.12064277f, -0.24736029f, -0.07099571f, -0.00260713f, -0.05963068f, 0.10306878f, 0.32249871f, 0.05105227f, 0.04017732f, 0.02943731f, -0.30036673f, 0.19062831f, 0.26472256f, 0.90115470f, 0.45285526f, 0.49235064f, 0.29392543f, -0.03294542f, 0.45559314f, 0.30759290f, 0.21594048f, 0.49956739f, 0.41122219f, 0.63149524f, 0.31791532f, 0.38083076f, 0.09454766f, 0.20511706f, -0.04832703f, -0.06472424f, -0.08425165f, 0.13220567f, -0.10381232f, 0.05430925f, 0.17149632f, 0.26651418f, 0.21155155f, 0.22529112f, 0.11655438f, 0.30146271f, -0.09890480f, 0.43319786f, 0.25359190f, 0.43603829f, 0.59393990f, 0.48927245f, 0.38428903f, 0.00890763f, -0.06439557f, 0.12802902f, 0.32449752f, 0.36452603f, 0.32095546f, 0.45752025f, 0.01886798f, 0.03837011f, 0.16188340f, -0.04870366f, -0.01569944f, -0.17830673f, -0.04706353f, 0.05643613f, -0.10402281f, -0.27042636f, -0.19776146f, -0.13317491f, 0.13006768f, 0.51122171f, 0.01573857f, -0.12282535f, 0.53770459f, 0.43096870f, 0.13666898f, 0.55181932f, 0.77781212f, -0.09492967f, 0.22868426f, 0.09755396f, -0.08717372f, -0.24567768f, 0.22224395f, 0.25124151f, 0.05249817f, -0.03151572f, -0.09278011f, -0.24135709f, -0.09034612f, -0.05770576f, -0.20957129f, -0.12180956f, -0.22302908f, -0.28735715f, -0.12786345f, -0.25222105f, -0.22473866f, 0.11745724f, 0.21477617f, -0.15445444f, -0.09872878f, -0.18455489f, -0.19651426f, 0.11968334f, -0.04073318f, 0.36825034f, 0.25286597f, 0.13502249f, -0.29095542f, -0.45330885f, -0.19528881f, -0.08449068f, 0.21377599f, -0.14143838f, -0.00528448f, -0.11397743f, -0.05611577f, 0.07896739f, 0.03057730f, -0.08750553f, -0.07582421f, -0.02742245f, -0.10933147f, -0.19384013f, -0.50948685f, -0.59079510f, -0.49554834f, -0.25144437f, 0.02295860f, 0.00721386f, -0.15252215f, -0.17096150f, 0.05084224f, 0.20194241f, 0.14409716f, -0.01898921f, 0.13318099f, -0.07769333f, -0.16323400f, -0.01159028f, 0.00333776f, -0.04237576f, -0.13363867f, -0.03085309f, -0.12864196f, -0.12747404f, -0.09703115f, -0.05484538f, -0.13447665f, -0.02828452f, -0.07855482f, -0.08430632f, -0.03066545f, 0.07325047f, -0.14103702f, -0.07872956f, -0.12116420f, -0.23571344f, -0.07741845f, -0.06403892f, 0.00622495f, -0.01218712f, -0.00452917f, -0.13019551f, -0.25298938f, -0.16970900f, -0.26030269f, 0.00452567f, 0.04023047f, -0.10831961f, -0.03461966f, -0.02384588f },
    { -0.07333357f, -0.08324125f, -0.02523250f, 0.21392913f, 0.07348610f, -0.15346736f, -0.18407764f, -0.09241661f, -0.12854424f, -0.12549882f, -0.03288680f, -0.03674129f, -0.02671837f, -0.02749451f, 0.04907586f, -0.03741074f, 0.19548629f, -0.04559015f, -0.03182567f, -0.26426962f, -0.12769638f, -0.01231874f, -0.11180154f, -0.12077077f, -0.00358044f, 0.06594291f, 0.06421347f, -0.13185662f, -0.21078679f, -0.21235995f, -0.01284930f, -0.03879806f, -0.05491384f, -0.01047449f, -0.16649696f, -0.08189938f, -0.02032130f, -0.14948535f, -0.15772909f, -0.02736345f, -0.18018943f, -0.20080183f, -0.22389773f, -0.10110334f, -0.04393062f, 0.03840017f, -0.12559435f, -0.15316889f, -0.04690770f, 0.09630980f, -0.02272866f, -0.09452298f, -0.11698318f, -0.09053218f, 0.07072341f, -0.08955377f, -0.18025853f, -0.05232324f, 0.02257260f, -0.23835310f, -0.05154054f, 0.01854015f, -0.00820327f, -0.01337448f, -0.02281906f, -0.16844974f, 0.04643124f, -0.19835052f, -0.26890412f, -0.45055744f, -0.33538833f, -0.57766640f, -0.41997397f, -0.21378314f, -0.11388835f, -0.16930203f, -0.18092121f, -0.18539630f, -0.15197113f, -0.04191713f, -0.24020921f, -0.14927301f, -0.18467429f, -0.09461467f, -0.03216446f, -0.24083377f, -0.12511018f, -0.05325985f, -0.02110624f, -0.10838776f, -0.09963177f, -0.18430260f, -0.10305566f, -0.06008351f, 0.18438497f, 0.19629522f, 0.44182506f, 0.14687358f, -0.00715309f, -0.04155852f, -0.08836741f, -0.14364478f, -0.19977520f, -0.05980168f, -0.14271331f, -0.30384305f, -0.40039194f, -0.31811750f, -0.06173240f, -0.24030888f, -0.12877475f, -0.18543023f, -0.13856792f, -0.04957183f, -0.12148101f, -0.15946634f, -0.07196401f, 0.00801945f, -0.07862487f, -0.04542125f, 0.00301239f, -0.30840352f, -0.10221149f, 0.32078707f, 0.15069635f, 0.17223758f, -0.01853142f, 0.04988489f, 0.12106469f, -0.44406369f, 0.10519436f, -0.07476068f, -0.42332077f, -0.09384727f, -0.20484000f, -0.16446704f, 0.03518235f, -0.12878874f, -0.01806857f, -0.10821758f, -0.13633309f, -0.16915195f, -0.07565869f, -0.12549721f, 0.00782000f, -0.08365819f, 0.07472734f, 0.07260425f, 0.25950468f, 0.22482021f, 0.06483608f, -0.09137245f, -0.01712868f, 0.17661579f, 0.17699683f, 0.19373894f, 0.07198437f, 0.02560465f, 0.17516030f, 0.11293133f, 0.00667576f, -0.03895374f, -0.38459498f, 0.02993658f, -0.05458052f, -0.08826533f, 0.04349165f, -0.18107745f, -0.13326888f, -0.16199403f, 0.02509751f, 0.10513341f, 0.08036727f, 0.17494072f, 0.25572473f, 0.27268064f, 0.16309772f, 0.08149599f, 0.28492457f, 0.16711879f, 0.07879558f, -0.01250874f, 0.13540083f, -0.05784172f, 0.16378888f, -0.01010871f, 0.08690634f, 0.16583964f, 0.09895325f, 0.01846993f, 0.18677297f, -0.16301188f, 0.58727491f, 0.06111513f, 0.17102000f, -0.32584438f, -0.13129707f, -0.09239047f, 0.12548584f, 0.00550535f, 0.02466249f, -0.01839200f, 0.11893047f, 0.22412100f, -0.05881846f, 0.07335752f, 0.17453605f, 0.48687750f, 0.30965811f, 0.02786631f, 0.13399744f, -0.15491256f, 0.08942483f, 0.19315971f, -0.06515465f, 0.03033007f, 0.02663239f, 0.06195022f, 0.18389736f, 0.03053872f, 0.47793761f, 0.13184227f, 0.02709331f, 0.03720620f, 0.00949431f, -0.01731512f, -0.08160380f, 0.26019233f, 0.02067406f, -0.14471538f, -0.17147832f, -0.02073763f, 0.01440170f, -0.11440862f, -0.07570630f, 0.11740830f, 0.11118989f, 0.10504206f, 0.18461840f, 0.12267890f, 0.15779528f, 0.12014161f, 0.11279138f, -0.02733028f, -0.08420289f, -0.04800655f, 0.08501521f, 0.12879606f, 0.37467048f, 0.14694010f, 0.10608643f, -0.24876136f, 0.07809329f, 0.10334680f, 0.07578800f, 0.30205414f, -0.01800062f, 0.00021733f, -0.15377621f, -0.11376861f, 0.02648618f, -0.02543643f, -0.41746643f, -0.15194625f, 0.12646471f, 0.09859732f, 0.16279630f, 0.24731801f, 0.17388143f, 0.13452530f, 0.24354084f, 0.03409987f, -0.00236743f, 0.21317995f, -0.10228064f, -0.02117399f, 0.61412418f, 0.76247835f, 0.37388861f, -0.03738442f, -0.16001862f, 0.02139111f, 0.06731743f, 0.06685547f, 0.06250595f, -0.22896922f, -0.06860266f, -0.34492534f, -0.07687539f, -0.51338786f, -0.35666311f, -0.00223818f, -0.32406750f, -0.25608459f, -0.00667927f, -0.11989083f, 0.01321889f, 0.24312742f, 0.13786842f, -0.11845576f, 0.16253589f, 0.34586006f, -0.15993205f, 0.01437141f, 0.94038540f, 0.48391974f, 0.43122616f, -0.12050196f, 0.04666970f, -0.23272739f, 0.06159437f, 0.05107310f, -0.12848285f, -0.32776761f, -0.24653408f, -0.44659641f, -0.14914775f, -0.52782762f, -0.24806735f, -0.04358127f, -0.28932378f, -0.28576761f, -0.47604731f, -0.28497902f, -0.41377452f, -0.01260069f, 0.38459504f, -0.05477497f, -0.35543916f, -0.30208790f, -0.00016440f, -0.21710272f, -0.20528224f, 0.11665024f, 0.22414902f, -0.09885743f, -0.19649181f, -0.06061643f, 0.12735865f, 0.18458998f, -0.05327449f, -0.24568042f, -0.57433558f, -0.42302334f, -0.23137714f, -0.31398836f, 0.20883150f, -0.30227968f, -0.15532005f, -0.07289366f, -0.39301977f, -0.46306455f, -0.57208031f, -0.37337413f, 0.07906948f, -0.31343347f, -0.16516052f, -0.09313732f, -0.47804600f, -0.60314131f, -0.53414160f, -0.19287808f, 0.00678354f, 0.01573909f, -0.04981048f, -0.23290758f, 0.06651945f, 0.04070616f, -0.17108268f, -0.18494855f, -0.23260592f, -0.07988749f, -0.35600388f, -0.01803361f, 0.10497690f, -0.04684586f, -0.02591595f, 0.03640097f, -0.07603019f, -0.40101111f, -0.35938278f, -0.18256533f, 0.08545247f, 0.12558843f, 0.03778073f, -0.18365599f, -0.41629595f, -0.18956149f, -0.17968152f, -0.30226249f, -0.12548858f, -0.06110125f, -0.22745110f, -0.18204482f, -0.11855623f, 0.02938199f, 0.17701727f, -0.04910357f, 0.07218165f, 0.20886275f, 0.00537738f, 0.07079899f, 0.07892631f, -0.26077446f, -0.03817767f, -0.23606645f, -0.08131596f, -0.29442328f, -0.40850928f, -0.48172176f, 0.10976846f, -0.09183872f, -0.03548732f, -0.20591438f, -0.09366757f, 0.11691843f, 0.35257283f, -0.17774883f, 0.00465224f, -0.22282088f, -0.11704767f, -0.03020025f, 0.10562261f, -0.19304501f, 0.27924421f, 0.33189392f, 0.01025069f, 0.00879239f, 0.02152898f, -0.00518515f, -0.11726420f, -0.09218720f, -0.19494478f, -0.36227611f, -0.44694337f, -0.13512018f, -0.25632995f, -0.43662113f, 0.06225320f, 0.07214274f, -0.07599098f, -0.05434445f, -0.09583859f, -0.02920492f, 0.55622733f, 0.05809832f, 0.04316739f, -0.13980058f, 0.10673463f, -0.17095728f, -0.26023772f, 0.10195861f, 0.28237844f, 0.24330316f, 0.31020138f, -0.17669061f, -0.19579056f, -0.19268771f, -0.04773135f, -0.11753861f, 0.03197373f, -0.09249295f, -0.25529549f, -0.31543228f, -0.37245178f, -0.01779523f, 0.26799196f, 0.29250324f, 0.41782531f, 0.54955190f, 0.45808294f, 0.10898747f, 0.29158846f, 0.37858185f, 0.03504467f, -0.09787348f, -0.16911519f, -0.15295213f, -0.07386844f, 0.13108748f, 0.43147808f, 0.60052586f, 0.20680977f, -0.29666036f, -0.38980514f, -0.70048344f, -0.37368077f, -0.37305638f, -0.23105986f, -0.21713533f, -0.40695095f, -0.25214812f, -0.25890157f, 0.23261075f, 0.23034281f, -0.03192005f, 0.03645960f, 0.01445141f, 0.23797417f, 0.18091741f, 0.17374089f, -0.00527771f, -0.04535976f, -0.17548440f, -0.30835485f, -0.04656108f, -0.02503608f, 0.16128118f, 0.20121856f, 0.62152618f, 0.10978756f, -0.30566022f, -0.46806255f, -0.80409670f, -0.73054355f, -0.66294897f, -0.48998094f, -0.44771755f, -0.37097275f, -0.15532155f, 0.16335879f, 0.14844814f, 0.13761538f, 0.08307765f, 0.05296411f, 0.39579484f, 0.05450851f, 0.25626993f, 0.08883627f, -0.06541309f, 0.02642491f, -0.08908165f, 0.05286637f, -0.08525584f, -0.09252881f, -0.08096022f, 0.38917479f, 0.61455750f, -0.06715662f, -0.08804006f, -0.20785190f, -0.40613741f, -0.42104763f, -0.21304630f, 0.21894477f, 0.18729900f, 0.22919974f, 0.14394206f, 0.13335146f, 0.24079530f, 0.03814065f, 0.13030939f, 0.29320654f, 0.13532871f, -0.30954361f, 0.07258182f, 0.31369314f, -0.04663316f, -0.01010045f, -0.11764717f, -0.21904455f, 0.22285213f, -0.06141775f, 0.05821272f, 0.47952473f, 0.49637604f, 0.01194951f, 0.16434307f, 0.31452537f, 0.11193790f, 0.23538499f, 0.44189250f, 0.28175107f, 0.26708174f, 0.32416904f, 0.35046786f, 0.32018837f, 0.27399403f, 0.30944747f, 0.30909210f, 0.21060349f, -0.20050518f, 0.41487774f, 0.30077168f, 0.06590446f, 0.02871335f, -0.03778861f, -0.13380268f, -0.05623968f, 0.03394020f, 0.04360137f, 0.03243282f, 0.32867527f, 0.06299030f, -0.15879671f, -0.15744849f, 0.34004298f, -0.11406171f, 0.25482091f, 0.21603011f, 0.43150741f, 0.15349992f, 0.40681505f, 0.33526698f, 0.22424130f, -0.05605049f, 0.28618842f, 0.06201487f, 0.17408429f, 0.30588242f, 0.38763779f, 0.29766670f, 0.28451493f, 0.13626571f, -0.08026771f, -0.09127478f, -0.19075115f, -0.00800626f, 0.04032473f, -0.01635945f, 0.01892370f, 0.15181363f, 0.00293216f, 0.12779436f, 0.12133082f, 0.32969469f, 0.22203384f, 0.49284223f, 0.28247803f, 0.14457625f, 0.10647390f, 0.17431147f, -0.01279092f, 0.01835684f, -0.05425585f, 0.10684764f, 0.07566690f, -0.16725411f, 0.13350762f, 0.12625697f, 0.11054616f, -0.00118957f, -0.16408591f, 0.00204903f, -0.03519062f, -0.16496761f, -0.03076877f, 0.09273058f, 0.16264994f, 0.09182920f, 0.18744960f, -0.00309078f, -0.08932964f, 0.29973441f, 0.10041926f, 0.21385914f, -0.03456112f, -0.21249485f, -0.03049893f, 0.11938266f, -0.06514394f, 0.11312505f, -0.13172898f, -0.18350509f, -0.19716467f, -0.07886001f, -0.01360920f, 0.16077648f, -0.11948609f, -0.12108908f, -0.10883231f, -0.08626077f, -0.17766489f, -0.15864602f, -0.27711913f, -0.02969546f, 0.33893412f, 0.52680075f, 0.31600803f, 0.26304805f, -0.02107012f, 0.21286665f, 0.25866741f, -0.00912623f, 0.06093851f, 0.01356411f, 0.11943389f, 0.00858551f, -0.06927542f, 0.27305290f, 0.07892393f, -0.16090122f, -0.12366240f, -0.05947071f, 0.00381345f, -0.26192346f, 0.01911777f, 0.00403347f, -0.31642738f, -0.07808818f, -0.02864646f, -0.01410560f, 0.10364880f, -0.06592918f, -0.10893993f, 0.16249754f, 0.19482608f, 0.56971234f, 0.06155689f, 0.62316704f, 0.16588099f, 0.51247263f, 0.47942007f, 0.27611411f, -0.26939476f, 0.00321411f, 0.15751515f, 0.21946016f, -0.04192336f, 0.02999814f, -0.10002827f, -0.20742099f, 0.04442057f, -0.00469167f, 0.09354788f, -0.04665414f, -0.17963864f, -0.05100492f, -0.15544526f, -0.03115486f, 0.18030156f, 0.04854667f, -0.12630279f, -0.21324556f, -0.20345339f, -0.10532363f, 0.05607041f, 0.10149662f, 0.24447457f, 0.25210240f, 0.00997261f, -0.02168212f, -0.14187719f, 0.23567146f, 0.18673846f, -0.00097503f, -0.05930962f, -0.01491344f, -0.18490924f, -0.29810014f, -0.28324029f, -0.07026581f, -0.08406803f, -0.01347175f, -0.26458800f, -0.06258105f, -0.06913885f, -0.11956526f, -0.00365572f, -0.16572312f, -0.01096978f, -0.04487581f, 0.05048341f, 0.06142379f, -0.19130000f, -0.07974283f, 0.03408578f, 0.15490574f, -0.05420876f, -0.09583563f, 0.04378304f, 0.07439178f, -0.06856665f, -0.08095399f, 0.10636504f, 0.01042410f, -0.26823342f, 0.12809798f, -0.07482319f, 0.01223667f, 0.01472397f, 0.12116924f, -0.07122893f, -0.19763222f },
    { 0.08121798f, -0.01125491f, -0.09693125f, 0.03202857f, 0.04937449f, 0.08607795f, 0.13795516f, 0.10745299f, 0.08837326f, 0.24977805f, 0.05510091f, 0.14066158f, 0.12254579f, 0.11910300f, 0.03408358f, 0.00288679f, 0.06826960f, 0.11350578f, 0.14423604f, 0.02390140f, 0.02596754f, 0.01406335f, 0.06928705f, -0.02258679f, 0.15714619f, 0.03727967f, 0.14981668f, -0.02244020f, 0.02483935f, 0.09128118f, 0.00700495f, 0.14702725f, 0.04336168f, 0.19595066f, -0.06135735f, 0.03115450f, 0.05710196f, 0.17963998f, 0.06374118f, -0.16484569f, 0.02722947f, 0.01119559f, -0.10651321f, -0.00014675f, 0.07628042f, 0.04411336f, -0.02621548f, -0.01703179f, 0.06411675f, -0.02795315f, 0.14586522f, -0.00314370f, -0.04189920f, 0.06143627f, -0.01967037f, 0.15400565f, 0.08653980f, 0.03908435f, 0.13391967f, 0.07985839f, 0.15485220f, 0.03981312f, 0.10537349f, 0.04879664f, -0.19193776f, -0.02227767f, -0.38748688f, -0.02841817f, -0.13746123f, -0.33015069f, -0.39829627f, -0.19876654f, -0.09292280f, 0.03564319f, 0.11325599f, 0.06142252f, -0.01993152f, -0.06977488f, 0.06624473f, -0.02000217f, 0.11117418f, 0.04858353f, -0.02629213f, 0.15180570f, -0.21374986f, 0.04165693f, 0.08040009f, 0.23480070f, 0.22384524f, 0.05932393f, 0.07818430f, -0.16300279f, -0.14940989f, -0.09831868f, -0.36653545f, -0.36347839f, -0.45312446f, -0.46174240f, -0.51515847f, -0.32020354f, -0.64985305f, -0.59231603f, -0.01269491f, 0.00687128f, -0.02310480f, -0.10865064f, -0.41710573f, -0.17140546f, -0.21261987f, 0.17289819f, -0.12500846f, 0.08008420f, -0.02979848f, -0.01935096f, -0.09098465f, 0.18490970f, 0.05353577f, -0.09124948f, -0.01474772f, -0.24429698f, -0.19244456f, -0.29672351f, -0.05363360f, 0.15892056f, -0.09452969f, -0.11028930f, -0.13797608f, 0.00520000f, 0.01964160f, -0.17943712f, -0.02206359f, 0.13288563f, -0.28172028f, -0.17060778f, -0.07317441f, 0.07959055f, -0.10127496f, 0.23289090f, -0.01484056f, -0.03005942f, 0.13033043f, 0.04158772f, -0.12615933f, -0.05272510f, 0.26744291f, 0.28202662f, 0.10696362f, 0.18978174f, -0.21706513f, -0.02658203f, 0.05205444f, 0.00857938f, -0.05655618f, -0.07026979f, -0.16317855f, -0.23258272f, -0.02211435f, -0.02914063f, -0.14323565f, 0.25291789f, 0.25197303f, 0.09382677f, 0.35605732f, 0.12982158f, -0.00905779f, 0.02961638f, 0.04504507f, 0.03582108f, 0.06232512f, -0.08342876f, 0.11920760f, 0.05386615f, 0.10800584f, 0.34517160f, 0.08995648f, -0.03666021f, -0.10291657f, -0.26213354f, -0.15412223f, -0.13698874f, 0.09623957f, -0.09105868f, -0.15148613f, -0.20388746f, 0.00616925f, -0.10854535f, -0.10026412f, 0.12709019f, 0.01397931f, -0.21426643f, 0.20650733f, 0.16006280f, 0.31231171f, 0.16097593f, 0.10290428f, -0.10757490f, 0.03770411f, -0.04005431f, -0.11858239f, -0.23941474f, 0.03045960f, 0.01286350f, 0.10147094f, 0.11779774f, 0.08867640f, -0.04377011f, -0.02737688f, -0.18163282f, -0.01542735f, -0.02169600f, -0.14846602f, -0.00650529f, -0.18139224f, -0.03618500f, 0.10494685f, 0.02271922f, -0.08347163f, -0.15851904f, -0.04032045f, 0.16930492f, 0.20176052f, 0.51797140f, 0.17630607f, -0.08800502f, -0.03765678f, -0.00399177f, -0.14380686f, -0.07488676f, 0.12905370f, -0.11445096f, 0.32422912f, 0.02609660f, 0.06707148f, 0.02558865f, 0.00838261f, -0.38715786f, -0.25219983f, -0.11345005f, -0.24820212f, -0.06243539f, 0.03198782f, -0.12470969f, 0.06540963f, -0.21820924f, -0.22754908f, -0.09346886f, -0.38967592f, -0.06657723f, 0.39122382f, 0.46236768f, 0.29200810f, -0.10880522f, 0.09049767f, 0.06829688f, -0.01553439f, -0.03579336f, -0.03978394f, -0.44618964f, 0.11179289f, 0.07861602f, 0.17105035f, 0.08361906f, 0.05932525f, -0.27842051f, -0.11348283f, -0.16257846f, -0.50344080f, -0.14494273f, -0.01594655f, -0.04157136f, -0.13664639f, -0.28788576f, -0.02555379f, 0.12564565f, 0.03282514f, 0.06211957f, 0.46394613f, 0.54086906f, 0.17093137f, -0.01416218f, 0.00064091f, -0.00777617f, -0.08059397f, 0.08884225f, -0.07797514f, -0.03200360f, 0.06691211f, 0.14568546f, 0.17489411f, 0.12632157f, 0.25090468f, -0.04079660f, 0.00302634f, -0.32021898f, -0.57582033f, -0.44506013f, -0.21583293f, -0.16451292f, -0.00105093f, -0.01637092f, 0.00070556f, -0.17466824f, 0.29822826f, 0.09836279f, 0.09953544f, 0.70732629f, 0.35803369f, 0.11775149f, 0.09473072f, 0.11750146f, 0.00839882f, 0.05268676f, 0.11720991f, 0.26517284f, 0.15369847f, 0.34460586f, 0.20912333f, 0.26192689f, 0.38539138f, 0.23039597f, 0.31797296f, 0.24420579f, 0.01674554f, -0.23235278f, -0.12453720f, -0.00719900f, -0.02687017f, 0.03448558f, 0.28888765f, -0.18528242f, -0.09107417f, 0.01122154f, 0.26445982f, 0.46074969f, 0.32136768f, 0.08334116f, 0.04353211f, -0.03350132f, -0.11670963f, 0.16072361f, -0.01852361f, 0.08860064f, 0.20030943f, -0.05249183f, 0.13758488f, 0.48402947f, 0.24720307f, 0.26944277f, 0.65897822f, 0.53460991f, 0.33601582f, -0.01861984f, 0.07433033f, 0.22143058f, 0.23312689f, 0.18959391f, 0.61300832f, 0.42117399f, 0.19116338f, 0.46783590f, -0.00297713f, 0.32257220f, 0.17825545f, 0.08694290f, -0.11639810f, 0.09603730f, -0.14153767f, -0.19373435f, 0.25695100f, 0.21504766f, 0.31543443f, 0.26375121f, 0.29032212f, 0.17874424f, -0.17603306f, 0.13436897f, 0.31173512f, 0.39700168f, 0.37092301f, 0.20349777f, 0.07745223f, -0.06827121f, 0.08617999f, 0.28690067f, 0.46174440f, -0.14093038f, -0.14920564f, -0.10581094f, -0.07905176f, 0.02761194f, 0.32173046f, 0.09513337f, -0.00117714f, -0.12111186f, 0.08506467f, -0.07178748f, 0.03797570f, 0.19692536f, 0.17964290f, 0.07423416f, 0.32444298f, 0.17897199f, -0.11006578f, 0.07343596f, 0.34842309f, 0.35741767f, 0.46933988f, 0.26563036f, 0.17434759f, 0.01477494f, -0.28263187f, -0.31240287f, -0.26677746f, -0.44602692f, -0.42686492f, -0.38127750f, -0.19189009f, -0.07052512f, -0.11830568f, 0.01247335f, -0.02519495f, 0.03043092f, 0.03187108f, -0.09704856f, -0.16627882f, -0.38154346f, -0.13975076f, -0.02343057f, 0.38634372f, 0.18374583f, -0.00527372f, -0.07466426f, 0.32279548f, 0.21276870f, 0.29920846f, 0.03514352f, 0.12646396f, -0.35851216f, -0.11622819f, -0.42910615f, -0.13758048f, -0.38459045f, 0.19823806f, -0.18184225f, -0.01302312f, -0.20814058f, 0.03877668f, 0.27639705f, -0.17250890f, -0.08938277f, 0.19435179f, 0.00231448f, -0.60632694f, -0.61538082f, -0.41792586f, -0.13609736f, -0.05679410f, -0.05165210f, 0.24803051f, 0.09920065f, 0.55625987f, 0.45099512f, 0.18795554f, 0.11509708f, 0.03019313f, 0.02225959f, -0.11453722f, -0.32661453f, -0.32921997f, 0.21244475f, 0.28370315f, -0.04389318f, 0.11734764f, -0.07046409f, -0.15576266f, 0.00150049f, 0.02434252f, -0.07542472f, 0.07091730f, -0.24615970f, -0.46863711f, -0.90518558f, -0.43900168f, -0.46716681f, -0.31998420f, -0.22835274f, 0.05126325f, 0.26407048f, 0.07191891f, 0.27906203f, 0.14637361f, -0.01098791f, -0.11319378f, -0.26854318f, -0.14759931f, -0.15174726f, -0.08113322f, 0.28849575f, -0.12078390f, 0.05523843f, -0.11482398f, -0.49921054f, -0.09264832f, -0.05216665f, -0.02810875f, -0.06031712f, 0.05917021f, -0.09838755f, -0.36094853f, -0.63399267f, -0.34508511f, -0.45044154f, -0.67809689f, -0.72578889f, -0.60743248f, -0.14467634f, -0.37614673f, -0.05081333f, -0.11398793f, -0.02225670f, -0.08790735f, -0.20266643f, -0.07999000f, 0.09192187f, -0.06670572f, 0.17172742f, -0.06451808f, 0.02480593f, -0.33535552f, -0.21928604f, 0.03534767f, -0.06705599f, 0.17391950f, 0.02776187f, 0.00425720f, 0.10910513f, 0.16317427f, -0.02491724f, -0.06301862f, -0.35446358f, -0.65535039f, -0.53546053f, -0.59646803f, -0.90040928f, -0.77849036f, -0.27106553f, -0.36038899f, -0.12340993f, 0.21361500f, -0.08878351f, 0.00649348f, 0.07100528f, -0.27423534f, 0.08481943f, 0.19853032f, 0.03662657f, 0.05864415f, -0.11893608f, 0.01871131f, -0.11181539f, 0.16242009f, -0.04672963f, 0.12723228f, 0.18953285f, 0.41446921f, 0.09709508f, 0.09384564f, -0.00473609f, 0.09762383f, 0.10496826f, -0.04212503f, -0.03621916f, -0.14573835f, -0.12080634f, -0.05230319f, 0.03095235f, 0.16813309f, 0.22737299f, 0.12941821f, -0.11338214f, 0.06018449f, 0.01987704f, 0.19984914f, 0.33498982f, -0.09447660f, 0.07872102f, 0.09648161f, -0.05598835f, -0.05670895f, 0.10464648f, 0.19144258f, 0.30145338f, 0.39288568f, 0.36025554f, 0.19751433f, 0.25681493f, 0.07472636f, -0.04013195f, 0.07290100f, 0.18445565f, -0.13145405f, -0.20099069f, -0.03205959f, 0.18592648f, -0.07002271f, -0.03349839f, 0.17691585f, -0.09497923f, -0.02765275f, 0.00768032f, 0.21721926f, -0.18152811f, -0.13865407f, -0.16714193f, 0.04580669f, 0.07266498f, 0.07826793f, 0.06346494f, 0.05553560f, 0.29255843f, 0.32682359f, 0.06159902f, 0.24606906f, 0.16697837f, -0.04002366f, -0.02602476f, -0.07889873f, 0.10459308f, -0.12850671f, 0.01927611f, -0.16712382f, -0.07343142f, -0.16399881f, -0.06723341f, 0.20792472f, -0.25684935f, -0.04958847f, -0.12778717f, -0.12190879f, -0.11709481f, -0.15124828f, -0.00184456f, -0.05394338f, 0.14204784f, 0.21213941f, 0.08476629f, 0.00715421f, 0.33072093f, 0.15388080f, 0.14409080f, 0.11262774f, -0.14984442f, 0.32596675f, 0.21372437f, 0.04383553f, -0.01713075f, -0.01720368f, 0.01784902f, 0.00490859f, 0.01284515f, 0.06404637f, 0.33171201f, 0.27004731f, -0.05680034f, -0.04288032f, -0.10838569f, 0.09503419f, 0.22810780f, -0.14371637f, -0.06894583f, 0.10755346f, -0.27876788f, -0.03801753f, -0.00760408f, 0.11774775f, 0.20359753f, 0.00202165f, -0.10507184f, 0.02196446f, -0.06417119f, 0.09946266f, 0.14277244f, 0.24254763f, 0.01267871f, 0.18839636f, -0.16902167f, -0.01234938f, -0.14598268f, 0.08074814f, 0.00702833f, -0.23227219f, -0.08149754f, -0.02031546f, 0.07007641f, 0.25884962f, 0.35271224f, -0.01450324f, -0.06146349f, -0.10927168f, 0.01974762f, -0.17032371f, 0.06170309f, 0.00332998f, 0.18724287f, -0.24438788f, -0.13907440f, 0.04466410f, -0.02343472f, 0.05856794f, 0.10694072f, -0.17792685f, -0.47234169f, 0.01651111f, -0.13353214f, 0.32339647f, -0.00375242f, -0.05475704f, -0.32923257f, -0.12931356f, 0.09306706f, 0.28104943f, 0.03854884f, 0.16014183f, 0.07442366f, 0.11308612f, 0.18137887f, 0.02808757f, 0.01628737f, 0.22696851f, 0.09069792f, 0.08495780f, 0.12764059f, 0.12279485f, 0.01157679f, -0.03963649f, -0.21127146f, -0.27175096f, -0.13084243f, -0.32061982f, -0.21257521f, 0.14796820f, -0.36986482f, -0.14697188f, -0.00513924f, -0.09104360f, 0.26008973f, -0.03452908f, -0.19065104f, -0.12581447f, 0.17326063f, 0.00390358f, -0.09350338f, 0.00857537f, 0.17022359f, 0.00920904f, 0.09662148f, 0.07606451f, -0.03448210f, -0.01750196f, 0.06261986f, 0.17472363f, 0.04581840f, 0.04294945f, 0.00269162f, 0.02159914f, -0.03959756f, -0.04001695f, -0.10168022f, -0.11627127f, -0.27733704f, -0.05808417f, 0.01591664f, -0.06588414f, -0.08231043f, -0.09270403f, 0.07295778f, 0.06700946f, 0.18769532f, -0.07213433f, 0.00436781f, 0.05634041f, 0.10206588f, 0.10071433f, -0.07496256f },
    { 0.12500347f, -0.00864293f, 0.18972485f, 0.06455178f, -0.06135857f, 0.01830489f, 0.14509572f, 0.28169346f, -0.03567684f, -0.15588821f, 0.02337439f, 0.10357332f, 0.15578404f, 0.04520255f, -0.11750568f, 0.07732586f, 0.07907984f, 0.33893588f, 0.13150895f, 0.00682652f, 0.16828886f, 0.10343776f, 0.16808830f, -0.06401162f, 0.17020431f, 0.11613297f, 0.06222048f, 0.01209309f, -0.00586476f, 0.06505605f, -0.00471307f, 0.17202175f, -0.01870526f, 0.18966140f, 0.10618062f, 0.13580285f, 0.16218832f, 0.10507740f, 0.24392293f, 0.19333665f, 0.02425049f, 0.02383935f, -0.08845504f, 0.25826526f, -0.06624528f, 0.14041820f, 0.21596524f, 0.24141760f, 0.08723991f, 0.00079546f, -0.03930279f, 0.08757413f, 0.20175309f, -0.02876369f, -0.05366014f, 0.15761721f, -0.13425075f, 0.11427666f, 0.22526792f, 0.20303099f, 0.11135809f, 0.01255677f, 0.23762518f, 0.05424320f, 0.22700684f, 0.10868544f, 0.20098999f, 0.57183045f, 0.48590246f, 0.46225071f, 0.64894855f, 0.39906526f, -0.15738375f, 0.09392063f, 0.02477663f, 0.09522097f, 0.14275759f, 0.23452736f, 0.11461281f, 0.15556416f, 0.09834772f, 0.10007536f, 0.08948719f, 0.31261641f, 0.01204812f, 0.03375287f, 0.04128191f, -0.01035016f, 0.07590438f, 0.06987225f, 0.02823647f, 0.08983237f, -0.02340336f, -0.01406582f, -0.32804152f, 0.12815820f, 0.34581813f, 0.49958944f, 0.52957755f, 0.38805473f, 0.22021985f, 0.10064398f, 0.51577425f, 0.43169719f, -0.06064445f, -0.02452683f, 0.07451516f, 0.21782154f, 0.11179437f, 0.06309938f, 0.11261277f, 0.19026412f, 0.01580742f, 0.19105762f, 0.13104552f, 0.13629998f, 0.09714592f, 0.00882751f, -0.19954020f, -0.09011713f, -0.29819873f, -0.37046421f, -0.54587591f, -0.00272147f, -0.17076573f, -0.08420699f, -0.05291717f, -0.08724287f, 0.06571480f, -0.17882158f, -0.11665481f, 0.14667644f, -0.03571105f, -0.04347119f, 0.03312718f, -0.23710187f, -0.44660184f, -0.36667091f, -0.04221367f, -0.02522236f, 0.05428430f, 0.04107057f, 0.04528036f, 0.11966051f, 0.07098038f, -0.18328421f, -0.32867920f, -0.28308871f, -0.45148149f, -0.33103308f, -0.33168206f, -0.50998473f, -0.62135851f, -0.28980175f, 0.09949463f, 0.10464031f, -0.40649861f, -0.41084322f, -0.36726186f, -0.12532008f, -0.45899710f, 0.00281965f, -0.01277908f, -0.05799586f, -0.05396070f, -0.08530715f, -0.06477997f, 0.08953527f, 0.04125524f, 0.07366531f, 0.12860581f, 0.03095808f, -0.03365775f, -0.11605207f, -0.29549083f, -0.09223396f, 0.11099145f, -0.09588610f, -0.55741978f, -0.37896243f, -0.24651541f, -0.23250784f, -0.24545664f, -0.20438156f, -0.19298418f, -0.13005440f, 0.00203274f, -0.21758567f, 0.15128548f, -0.03493283f, 0.04227173f, -0.02585652f, -0.03801335f, -0.18802848f, 0.08686875f, 0.06351966f, -0.03730142f, 0.11216816f, 0.02054646f, -0.09351519f, -0.08346914f, -0.02194396f, -0.34280828f, -0.10730790f, -0.09517036f, -0.11259519f, -0.26055601f, -0.19477467f, 0.03929798f, -0.17791046f, 0.04738316f, -0.14356497f, -0.09064982f, -0.07252676f, 0.19643775f, 0.06611686f, -0.09282729f, -0.00705990f, 0.17215250f, -0.15647560f, -0.18664771f, -0.01659498f, 0.12356571f, 0.05538202f, 0.08404417f, -0.07845050f, -0.06987835f, -0.14071064f, 0.04520511f, -0.33310688f, -0.42724586f, -0.40031502f, -0.48574010f, -0.14864300f, -0.15415721f, -0.50695992f, -0.17596816f, -0.18928801f, 0.04760529f, -0.15998521f, -0.10781459f, 0.14109203f, -0.06381518f, -0.09961230f, 0.15532781f, 0.07379471f, -0.15000688f, -0.40112013f, -0.46785089f, -0.26503420f, -0.07863121f, -0.00792338f, 0.10554582f, 0.05267000f, 0.02557916f, -0.28595117f, -0.05077027f, -0.63378346f, -0.22720413f, -0.40525430f, -0.28644890f, -0.31620345f, -0.18066259f, -0.34874657f, -0.10188206f, -0.19936591f, -0.08795007f, 0.03839445f, 0.22420628f, 0.02651838f, -0.08260278f, -0.12500297f, -0.02554016f, -0.21758533f, -0.38333699f, -0.16661255f, -0.32210261f, -0.39962086f, -0.12578990f, 0.06530386f, 0.26568541f, 0.15054981f, -0.15829805f, -0.11350089f, -0.41530529f, -0.50366616f, -0.72101426f, -0.28116807f, -0.07885725f, 0.01220570f, -0.16416778f, -0.04021119f, -0.04477381f, -0.02254826f, -0.02015956f, 0.18005352f, 0.08805100f, 0.08461533f, -0.02345268f, -0.04799065f, -0.07574485f, 0.06061435f, -0.09675954f, 0.18908295f, 0.12639917f, -0.03418033f, 0.09472719f, 0.06598780f, 0.10440201f, 0.07563864f, 0.01242952f, 0.03051833f, -0.74133170f, -0.49654546f, -0.33056608f, -0.02528909f, 0.10880989f, 0.18319291f, 0.12218542f, 0.02973784f, -0.35362187f, -0.05365955f, -0.05402661f, -0.16938874f, -0.17742872f, -0.22165480f, 0.03127339f, 0.00904255f, 0.03259424f, 0.33026913f, 0.09305634f, 0.10587493f, 0.23945247f, -0.06400980f, -0.06605180f, 0.30786431f, 0.19736023f, 0.06733785f, -0.19960037f, -0.41446245f, -0.78596187f, -0.23319486f, 0.12535109f, 0.19403440f, -0.00849880f, 0.29389933f, -0.02077367f, -0.06653494f, 0.14292842f, -0.07824312f, -0.19169089f, -0.07497108f, -0.20785472f, -0.17799348f, -0.09270453f, -0.11528140f, -0.02013215f, 0.15154250f, 0.11941634f, 0.53798658f, 0.34025002f, -0.02222756f, 0.01687457f, 0.14072989f, 0.09874970f, 0.13558772f, -0.04033778f, -0.15145034f, -0.30418363f, 0.00042567f, 0.38561195f, 0.41862482f, 0.04116903f, 0.03915020f, 0.15620805f, 0.04133375f, -0.10993035f, -0.47555214f, 0.00313048f, -0.12663747f, -0.24430145f, -0.12010609f, -0.11058693f, 0.00725058f, 0.05566864f, 0.22675084f, 0.15669549f, 0.52080113f, 0.45449591f, -0.07937318f, -0.11523832f, 0.02566533f, 0.24962121f, 0.03304159f, 0.29112902f, 0.11820401f, 0.11148913f, 0.59553587f, 0.74733239f, 0.34023103f, 0.08329213f, 0.39995250f, 0.04397405f, 0.01020243f, -0.04491375f, -0.30356571f, 0.00138411f, 0.04207766f, 0.01751488f, -0.18824832f, 0.03825525f, 0.13408709f, 0.24218483f, 0.26956499f, 0.33752280f, 0.44956464f, 0.37292951f, -0.11056524f, 0.03803518f, 0.12844238f, -0.20591335f, 0.13068011f, 0.00439435f, -0.13239667f, 0.09350838f, 0.79864657f, 0.90126091f, 0.48472992f, 0.42182073f, 0.30891126f, 0.46016309f, 0.39785814f, 0.07173971f, -0.10793290f, -0.16212851f, -0.14001375f, 0.14864060f, -0.08286950f, 0.09050763f, 0.06516908f, -0.02252604f, 0.36514646f, 0.19184448f, -0.09757186f, -0.08159770f, -0.14019929f, -0.14323549f, 0.07526011f, -0.01140821f, -0.01132067f, 0.19536778f, -0.12919806f, -0.00361211f, 0.51568782f, 0.32669559f, 0.27797642f, 0.26147789f, 0.32693505f, 0.50270647f, 0.55910701f, -0.12534428f, -0.05038061f, -0.13393754f, -0.25792620f, -0.20307943f, 0.02156666f, 0.09706414f, -0.00359086f, -0.08946200f, -0.17425507f, -0.26259923f, -0.45219177f, -0.07939397f, -0.48826316f, -0.36771822f, 0.03062741f, 0.15189351f, 0.16223930f, -0.07739837f, -0.35569075f, -0.51017642f, -0.02040982f, -0.14645042f, 0.24406245f, 0.18949424f, 0.17707656f, 0.44982603f, 0.22440286f, 0.24761587f, 0.08810191f, 0.04862926f, -0.18477128f, -0.22284280f, -0.29353806f, -0.21921226f, -0.19228876f, 0.11032420f, 0.04666371f, -0.10106192f, -0.27201766f, -0.12443981f, -0.13008113f, 0.02663193f, 0.09524158f, 0.11455819f, 0.17503665f, -0.18113552f, -0.32569221f, -0.66530937f, -0.46404958f, -0.25168645f, -0.17751920f, -0.12862690f, 0.24566618f, 0.00737439f, 0.21021363f, 0.27531141f, 0.21147974f, 0.24937643f, 0.02189536f, -0.13969456f, -0.04606672f, -0.01000598f, -0.08316080f, 0.09225047f, 0.02683189f, -0.14928944f, -0.05021955f, 0.17322332f, 0.23319481f, 0.02438198f, 0.05996313f, 0.21205200f, 0.17878658f, 0.22657560f, -0.14002945f, -0.40256056f, -0.67742634f, -0.36412236f, -0.25985220f, -0.19830048f, -0.27403745f, -0.17081416f, 0.05421235f, 0.17598785f, 0.06117703f, 0.14739841f, 0.15227968f, -0.06596134f, -0.20138302f, -0.05107259f, -0.10028243f, -0.09432753f, -0.11391539f, -0.16596986f, 0.06577904f, 0.25597116f, 0.06377155f, 0.17277154f, 0.08776038f, 0.22890647f, -0.03205002f, 0.08227156f, -0.07945684f, -0.31684744f, -0.37153244f, -0.33826724f, -0.33051881f, -0.28884298f, -0.16789147f, -0.16841389f, 0.02639455f, 0.15995337f, 0.08889200f, 0.38023785f, 0.33404344f, 0.07951143f, 0.11379971f, 0.17080179f, 0.31221786f, 0.07438208f, -0.11634357f, -0.02639551f, -0.12177791f, 0.11503141f, 0.04987618f, 0.04071797f, 0.20171817f, 0.04269029f, 0.08731129f, 0.17676742f, -0.08083600f, -0.35698748f, -0.11719982f, 0.28757334f, 0.15532467f, -0.13397346f, 0.08760243f, 0.14662457f, 0.22757569f, 0.12356035f, 0.02619571f, 0.20191970f, 0.18124269f, -0.01063553f, -0.05434262f, 0.09766020f, 0.11915697f, 0.11948029f, -0.10639913f, -0.09056936f, -0.49133924f, 0.14901766f, 0.05083532f, 0.20020731f, -0.03171578f, -0.09974772f, 0.15468857f, -0.12574729f, -0.04780651f, -0.24889588f, 0.29621115f, 0.29992777f, 0.00294800f, 0.18782698f, -0.00885454f, -0.01919851f, -0.06480037f, -0.05169186f, -0.02562124f, 0.15457788f, 0.17225337f, 0.13744976f, 0.07956123f, -0.35748768f, 0.04368322f, -0.10437078f, -0.16892815f, -0.27789572f, -0.28585792f, -0.08006255f, 0.26536828f, 0.10816135f, 0.06577884f, 0.29037723f, 0.05115313f, 0.02343689f, 0.04684965f, -0.14655003f, 0.35616174f, 0.07748456f, 0.09416623f, -0.20054543f, 0.06245394f, 0.02778965f, -0.07239369f, 0.15667973f, 0.06945655f, 0.15565649f, 0.07684080f, 0.10792761f, 0.19150883f, 0.01900182f, 0.07603595f, -0.11954775f, -0.17035629f, -0.20859748f, -0.34283668f, -0.17342497f, 0.04417377f, 0.05991496f, -0.04267842f, 0.07472131f, 0.01807731f, -0.18927480f, -0.01913263f, -0.11975986f, 0.00499202f, -0.22087634f, -0.31346959f, -0.11320990f, 0.24560633f, -0.00880489f, -0.32079235f, 0.18843675f, 0.01301942f, 0.36036357f, 0.31637129f, 0.10535161f, 0.01592045f, -0.08060818f, -0.04905020f, -0.37593251f, -0.26127008f, -0.14448532f, -0.10590402f, 0.08456200f, 0.15765510f, -0.06127043f, 0.08584078f, 0.20198426f, 0.17554088f, 0.02212776f, -0.04653077f, 0.05729784f, -0.17389794f, -0.30589476f, -0.50914705f, -0.16241869f, -0.03436831f, -0.64954400f, -0.53321350f, -0.44642586f, -0.29867122f, -0.31571621f, -0.84276342f, -0.97203916f, -0.94405049f, -0.69899642f, -0.33515581f, -0.24001169f, -0.12174689f, -0.12013189f, 0.17027453f, 0.07917140f, 0.09918105f, 0.06794807f, 0.13723525f, 0.12134711f, 0.22493751f, 0.12466870f, 0.06751550f, 0.04787278f, -0.04413262f, -0.17562850f, -0.25619763f, -0.35119000f, -0.40794480f, -0.53356105f, -0.29860675f, -0.59445131f, -0.76420683f, -0.58072102f, -0.58230621f, -0.40218297f, -0.32005706f, -0.27393541f, 0.01542482f, -0.04392003f, 0.07818270f, 0.14594148f, -0.05417100f, -0.08620189f, 0.12202661f, 0.00803972f, 0.14380030f, 0.23160052f, 0.21039456f, 0.14700490f, 0.08690210f, 0.13793373f, -0.00710697f, 0.05986806f, 0.04814515f, 0.13503069f, 0.01340230f, -0.01544270f, 0.13717505f, 0.10370717f, 0.03864740f, 0.08582041f, 0.15130915f, -0.13746753f, 0.04735017f, -0.08163270f, 0.06886102f, 0.29700106f, 0.21821518f, 0.15671612f, 0.08970474f, 0.18029557f, 0.06496084f, 0.25069326f, -0.22726044f },
    { -0.09981044f, -0.15808259f, -0.07167543f, 0.15206684f, 0.03295109f, -0.11857346f, -0.15612425f, -0.07391906f, 0.02225048f, -0.06053593f, -0.06110475f, -0.04091636f, -0.10971315f, -0.08833847f, -0.09621759f, -0.03842615f, -0.02258406f, 0.03597610f, 0.08237684f, 0.08099461f, 0.03671143f, -0.07323240f, -0.03515407f, -0.12693878f, -0.11521401f, 0.09282599f, -0.07827231f, 0.06403664f, 0.20090927f, -0.02971711f, -0.02874057f, -0.03647957f, 0.15212570f, 0.00084301f, 0.16740216f, -0.16062443f, 0.04273342f, 0.24516097f, 0.00904088f, 0.05791241f, 0.30454877f, 0.25121966f, 0.02532767f, -0.12797524f, 0.27818510f, 0.04551276f, 0.08380764f, 0.22419135f, 0.07960789f, -0.00609411f, 0.01009053f, -0.02234884f, -0.00292961f, -0.03996544f, -0.03490088f, 0.04536941f, 0.10103508f, 0.16924453f, -0.07192605f, -0.02749760f, -0.07023568f, -0.05885421f, -0.03033110f, 0.05748992f, 0.11906201f, 0.32141367f, 0.47048709f, 0.36651683f, 0.30643544f, 0.22540963f, 0.22829211f, -0.04595102f, 0.12522112f, 0.21082780f, 0.29608575f, 0.18296744f, 0.12655833f, 0.36980805f, 0.26166290f, 0.10994840f, 0.09462260f, -0.09501732f, -0.13962722f, -0.08967900f, 0.14355052f, -0.04249037f, -0.05363780f, 0.06481269f, 0.04332025f, -0.03892196f, 0.16886179f, 0.14912470f, 0.27707300f, 0.40233743f, 0.48627198f, 0.67253304f, 0.60036725f, 0.70152760f, 0.20160349f, -0.25879553f, -0.11464524f, -0.25512037f, -0.20812562f, -0.08841089f, 0.08075427f, 0.31451234f, 0.26341608f, 0.25040427f, 0.04760485f, -0.06729769f, 0.10243386f, -0.06166289f, -0.20616753f, -0.18192753f, -0.22379474f, 0.00080232f, -0.03469986f, 0.10782789f, -0.08559243f, -0.17998672f, 0.05087267f, 0.54707223f, 0.33091077f, 0.18243898f, -0.05255459f, 0.00614784f, 0.34236702f, -0.14242031f, -0.16623399f, -0.00839423f, -0.12745537f, 0.06710579f, -0.37570423f, -0.23528117f, -0.22727385f, 0.02461619f, -0.00858080f, -0.10279623f, 0.03827064f, 0.01141513f, -0.02886145f, -0.16012205f, -0.09202921f, -0.08425625f, -0.30910781f, -0.21746907f, -0.20791186f, -0.06617218f, 0.07417106f, 0.25975519f, 0.29708096f, -0.00311045f, 0.19917874f, 0.28127873f, 0.13144626f, -0.06533525f, -0.18998995f, 0.01915754f, -0.07488018f, 0.26002407f, 0.19330753f, 0.06672691f, -0.40980691f, -0.27975124f, -0.16995683f, -0.02044370f, 0.17947334f, -0.10919679f, -0.03147920f, -0.09047074f, -0.04990613f, -0.26359174f, -0.55358618f, -0.20081292f, -0.23763902f, 0.21654426f, 0.09874374f, -0.27060029f, 0.09280798f, 0.20716064f, 0.12670338f, 0.07354278f, -0.04305577f, 0.17952381f, -0.17879309f, 0.08722943f, -0.09205855f, 0.27421862f, 0.12274294f, 0.04878122f, 0.02825249f, 0.08137175f, 0.25249138f, 0.01195289f, -0.07722037f, -0.07073788f, 0.21283372f, -0.04675311f, -0.02653419f, -0.18657972f, -0.44178855f, -0.38972130f, -0.56250918f, -0.01034362f, 0.10275493f, -0.07131294f, 0.07796102f, 0.19946881f, 0.22217725f, 0.07234342f, -0.21285246f, 0.04045900f, -0.21072486f, -0.27507207f, 0.05639468f, -0.28883952f, -0.38857368f, -0.06729074f, 0.13239126f, 0.46074277f, 0.38256454f, 0.22304472f, -0.02616391f, 0.06133356f, -0.13305764f, -0.19566369f, 0.17217948f, -0.25230440f, -0.67775977f, -0.20592724f, -0.06574323f, 0.00515934f, -0.05712956f, 0.20677115f, -0.11201608f, 0.04123187f, 0.09434409f, -0.00307842f, 0.12928505f, -0.11328900f, -0.09262010f, -0.07968067f, -0.03365365f, 0.06819899f, -0.14472972f, -0.08623860f, 0.16262491f, 0.19940896f, 0.63742959f, 0.14344896f, 0.17881638f, 0.15791954f, -0.00073197f, 0.05621826f, -0.08178694f, -0.28189731f, -0.60153794f, -0.39777890f, -0.12970009f, 0.27023652f, 0.24135669f, -0.01090903f, 0.09219798f, 0.17965931f, 0.09794702f, 0.31468889f, 0.26400012f, -0.30335450f, -0.25447816f, -0.36108822f, -0.26210129f, -0.16580716f, -0.21861471f, 0.05483815f, -0.21156242f, 0.16993660f, 0.86690348f, 0.55948234f, 0.09796338f, 0.10543347f, 0.15129974f, -0.16199441f, 0.12872358f, -0.16212800f, -0.52628255f, -0.32855561f, 0.06534962f, 0.17938054f, 0.06164907f, 0.01229672f, 0.47483990f, 0.32999915f, 0.31391609f, 0.70869845f, 0.41180393f, -0.47849625f, -0.61618906f, -0.58401948f, -0.33812162f, -0.57650685f, -0.26324514f, 0.22104059f, -0.05405193f, 0.45046747f, 0.90925163f, 0.27913037f, -0.00546475f, 0.08119415f, -0.11322179f, -0.07986444f, -0.11798568f, -0.23554967f, -0.64985788f, -0.19635309f, 0.32233199f, 0.29491290f, 0.18193330f, 0.14215162f, 0.11542736f, 0.01733482f, -0.13920172f, 0.72945660f, 0.37593949f, -0.71311206f, -0.43994090f, -0.38454118f, -0.11531099f, -0.38801119f, -0.37461430f, -0.14049144f, -0.17034920f, 0.51510620f, 0.90724486f, 0.24382852f, 0.02701958f, 0.00224292f, -0.00265080f, -0.12428489f, -0.14357789f, -0.09155726f, -0.61317015f, -0.14857857f, 0.56548232f, 0.68111300f, 0.28760561f, 0.59185129f, 0.09680768f, 0.04170346f, -0.16963284f, 0.32840788f, 0.04935357f, -0.37989262f, -0.26437545f, -0.09141503f, -0.32242540f, -0.31399080f, -0.21522388f, 0.32283235f, 0.27288651f, 0.00094694f, 0.22756538f, -0.22911997f, -0.11407528f, 0.08600079f, -0.02452555f, 0.12382520f, -0.10002230f, -0.07468620f, -0.50104189f, -0.26612642f, -0.11673404f, 0.31618452f, 0.07827928f, 0.08762283f, 0.26602587f, 0.14275599f, 0.16915320f, 0.27565706f, -0.19947299f, -0.09898340f, -0.01490480f, -0.49002546f, -0.10061162f, -0.29886860f, 0.08239612f, 0.02787998f, 0.19206385f, 0.05554169f, -0.34575501f, -0.51263398f, -0.19851804f, 0.07268383f, 0.06689731f, 0.03954576f, -0.03964835f, -0.15834162f, 0.02706632f, -0.17147042f, -0.25550660f, -0.07715906f, -0.05809712f, -0.03056489f, 0.19527662f, 0.13098869f, -0.00785982f, 0.26158506f, -0.16837353f, -0.07830346f, -0.08990930f, -0.70025098f, -0.13248768f, -0.12244174f, 0.04798582f, -0.07269903f, -0.03375803f, -0.10196928f, -0.02171306f, -0.47798342f, 0.12475133f, -0.07248592f, -0.03485689f, 0.02755906f, -0.06902447f, -0.24582954f, -0.07506249f, -0.18370882f, -0.32393396f, 0.01081389f, 0.08371735f, -0.11114647f, 0.07527293f, 0.20756161f, 0.15498696f, 0.06280399f, 0.11272726f, 0.02002708f, -0.57236779f, -0.55395877f, 0.01002371f, -0.04230424f, 0.09368205f, 0.17057638f, -0.06820330f, -0.10472862f, 0.10157918f, 0.00804327f, -0.23799239f, 0.10533359f, -0.04725987f, 0.06577609f, -0.10036092f, -0.21237247f, -0.17927864f, -0.23406172f, -0.23985402f, 0.01793625f, -0.00110844f, 0.08070041f, 0.07905063f, 0.03640876f, 0.02719007f, 0.10649882f, 0.02885058f, -0.25465995f, -0.62479597f, -0.54330242f, -0.15735689f, -0.04190420f, -0.23221040f, -0.18515643f, 0.05022267f, -0.05852527f, -0.21842107f, 0.10186121f, -0.08832600f, -0.23655419f, 0.06395400f, -0.04242452f, 0.03802137f, 0.01710530f, -0.30287334f, 0.33291182f, 0.18249823f, -0.01003981f, -0.09617943f, 0.19357103f, 0.18613635f, 0.06864528f, -0.03151642f, -0.06165392f, -0.14260048f, -0.31884798f, -0.04069812f, -0.02092429f, -0.09272401f, -0.14434734f, -0.04948485f, -0.25154814f, -0.05847070f, 0.23835553f, -0.33960378f, -0.15278137f, -0.04801473f, -0.15163083f, 0.10738117f, 0.07560844f, -0.00158633f, -0.50980407f, 0.09259520f, 0.21624841f, 0.12884706f, 0.08826523f, 0.12776418f, 0.26129264f, 0.16734385f, 0.44804576f, 0.09025772f, -0.11889858f, -0.26891881f, -0.26768348f, 0.01498423f, -0.12582079f, -0.23409335f, -0.08544056f, 0.00860816f, -0.41185662f, -0.21473479f, 0.17153101f, -0.12389985f, -0.13692266f, 0.00812937f, 0.13114162f, -0.06166907f, 0.18736270f, -0.18912067f, -0.33784467f, -0.26024804f, 0.09834069f, 0.23955093f, -0.21779117f, 0.08045399f, 0.23552540f, 0.27704194f, 0.13230814f, 0.28993940f, -0.05787251f, -0.24153911f, -0.01686989f, -0.24271405f, 0.00897403f, -0.06795647f, -0.10495163f, -0.09158239f, -0.14445017f, -0.34077227f, -0.10017732f, -0.05191506f, -0.22236794f, -0.06361944f, -0.01866380f, 0.17779832f, -0.00577678f, 0.05747691f, -0.11647313f, -0.32681844f, -0.04474675f, -0.03933230f, 0.10447689f, 0.29266036f, 0.19959681f, 0.18744205f, 0.12960365f, 0.38179028f, 0.14309588f, 0.08953126f, 0.14669992f, -0.25455239f, -0.20930073f, -0.10165565f, -0.04316505f, -0.19564277f, -0.05699481f, 0.02693419f, -0.10243060f, -0.16100998f, -0.20001037f, -0.14618251f, -0.05122200f, -0.10623872f, -0.01155127f, 0.08316627f, -0.10702418f, 0.00142288f, 0.15788117f, 0.18062323f, 0.44561344f, 0.17351803f, 0.23283713f, -0.14349347f, 0.12088969f, 0.01836874f, 0.11980656f, 0.38149431f, 0.00741295f, -0.31935811f, 0.08266496f, 0.18061265f, -0.17670545f, -0.18350418f, -0.03835452f, 0.52101046f, -0.30287623f, -0.43862820f, -0.16197833f, -0.21347712f, -0.09109269f, -0.17320316f, -0.06196325f, 0.12529254f, 0.06989768f, -0.01740689f, -0.17209411f, -0.25063443f, 0.28924084f, 0.19618857f, 0.21456346f, -0.02430830f, 0.09070319f, 0.11809184f, 0.10827293f, 0.28363118f, 0.21359502f, 0.04208381f, -0.10901467f, -0.03256468f, -0.34322798f, -0.21478766f, -0.23752573f, -0.22158687f, -0.23834610f, -0.27118427f, -0.04209319f, -0.12870269f, 0.06081491f, 0.15759292f, -0.02360005f, -0.01628928f, -0.06825544f, -0.03188317f, -0.01861274f, -0.13071167f, -0.05469735f, 0.00288269f, -0.07950354f, 0.00069344f, 0.30237836f, 0.48439771f, -0.01695683f, 0.26532796f, 0.05329835f, 0.47801420f, 0.32018042f, -0.04486017f, -0.24528927f, -0.14868793f, -0.05696209f, -0.04638170f, -0.03951911f, -0.06775010f, 0.02609716f, -0.04913682f, -0.17918548f, 0.03139649f, 0.06825323f, 0.06911182f, -0.09687010f, -0.12292534f, -0.32274863f, -0.38686794f, -0.22616890f, -0.00617995f, 0.10005313f, 0.02801161f, 0.03303867f, 0.29664737f, 0.31992787f, 0.08575825f, 0.26254398f, 0.54050428f, 0.71678138f, 0.42238894f, 0.40670413f, 0.20787233f, -0.02812181f, -0.16369498f, -0.07062352f, -0.10733801f, -0.02069864f, -0.02675516f, -0.09249591f, 0.22175913f, 0.02798461f, -0.14166869f, 0.05228204f, -0.13875142f, -0.35117397f, -0.31733075f, -0.07079848f, -0.40309516f, -0.57735425f, 0.02018504f, 0.12306626f, 0.07747693f, 0.11324802f, -0.11864731f, 0.43391219f, 0.23667887f, 0.35656747f, 0.29454875f, 0.36224312f, 0.15940382f, -0.09249283f, -0.15129115f, 0.03652224f, -0.00963906f, 0.23489137f, 0.08876961f, 0.10082670f, 0.06284676f, -0.01878039f, 0.11393669f, -0.03837002f, 0.04533122f, -0.22709323f, -0.11122665f, -0.16449408f, -0.12793951f, -0.31855115f, -0.12169909f, -0.09141123f, 0.08208118f, -0.14463826f, -0.58768684f, -0.56494683f, -0.30842406f, -0.15197501f, 0.08401035f, -0.06588514f, 0.08288117f, -0.04653123f, -0.00384320f, 0.02991897f, 0.07077278f, 0.06176170f, -0.07158872f, 0.00546712f, -0.02459394f, -0.07531804f, -0.01405132f, -0.08079765f, -0.03370350f, -0.03958024f, 0.12963492f, -0.27177078f, 0.01808427f, -0.02479045f, 0.11840954f, -0.04297341f, 0.03428384f, 0.23073664f, -0.29833555f, -0.02141889f, -0.17998433f, -0.12421715f, -0.00486953f, -0.03804453f, -0.16104886f, -0.19087581f, -0.07432258f, 0.01421882f, 0.11670339f, 0.06769983f, -0.13993056f, -0.13205683f },
    { 0.03785650f, -0.10391830f, 0.03907442f, -0.13886939f, 0.13150667f, 0.10571074f, 0.04138907f, -0.15243250f, 0.05479698f, -0.03188318f, 0.04740990f, 0.05890483f, 0.21914053f, 0.05073613f, 0.10084177f, -0.07803185f, -0.07360679f, 0.16334426f, -0.07841788f, -0.08166531f, 0.09957080f, -0.11122548f, 0.03312197f, -0.20237483f, 0.03634122f, -0.03045547f, -0.09007593f, -0.09991949f, -0.19548580f, 0.24727978f, 0.06967503f, 0.10260503f, 0.01263656f, 0.02056210f, -0.06041243f, -0.00575942f, 0.05439484f, -0.08918444f, -0.05790640f, 0.02931301f, 0.07095090f, 0.07319172f, -0.02263634f, 0.04706344f, -0.04029521f, 0.01995798f, -0.06961622f, -0.19670746f, 0.02736228f, 0.13018112f, -0.02001222f, -0.03834166f, -0.00987265f, -0.05076747f, 0.09908771f, 0.00436637f, -0.15932767f, 0.09772258f, -0.03801433f, -0.12075925f, -0.11965849f, 0.13384567f, 0.07801152f, -0.09517200f, -0.02044615f, 0.04725510f, 0.23208213f, 0.17853719f, -0.16373233f, -0.26775658f, 0.04465898f, 0.04337499f, -0.05255702f, -0.05997547f, -0.18267557f, -0.15879832f, 0.06243795f, -0.01178326f, -0.00088452f, -0.22953948f, -0.10391860f, 0.09333064f, -0.07024710f, -0.00670590f, -0.03019750f, 0.12190280f, 0.05451146f, -0.16278771f, 0.03385677f, -0.01444879f, -0.00209988f, -0.04999496f, -0.08235111f, 0.03508537f, 0.26051289f, 0.13349786f, 0.37907335f, 0.05416651f, -0.07672582f, -0.20774166f, -0.09342736f, -0.06397955f, -0.34090358f, -0.39808628f, -0.35309127f, -0.29751727f, -0.11936504f, -0.19907986f, 0.12397896f, 0.05391846f, -0.08837048f, 0.12330708f, -0.05150627f, -0.02310509f, 0.14122009f, -0.16545013f, -0.09979227f, -0.09039076f, 0.05926373f, 0.22684951f, 0.12248310f, 0.14589274f, 0.18562055f, 0.47148666f, 0.59863967f, 0.62676859f, -0.01044017f, -0.10102013f, 0.16014792f, -0.30687878f, -0.18326429f, -0.46482930f, -0.19762859f, -0.57008255f, -0.05370572f, -0.16723560f, 0.01975340f, 0.14242880f, -0.06616437f, 0.07474084f, -0.10088798f, -0.03312758f, -0.25750762f, 0.03472345f, -0.02403858f, 0.18232778f, 0.03330693f, -0.00925916f, -0.04625172f, -0.00063154f, -0.10872526f, -0.01159876f, 0.15891297f, 0.32353735f, 0.22376446f, 0.21547338f, -0.13314664f, -0.01402231f, 0.16663937f, 0.17019764f, -0.00463936f, -0.19903322f, -0.20736733f, -0.21448036f, 0.12469123f, 0.04486790f, 0.00203277f, -0.04951195f, -0.02188163f, -0.05637718f, -0.06495802f, 0.06875041f, -0.02199120f, -0.08127923f, -0.06180061f, -0.07862498f, -0.15378506f, -0.07319207f, 0.10802979f, 0.01744281f, 0.11428706f, 0.42330468f, 0.50706613f, 0.36143756f, 0.34503585f, 0.61259657f, 0.30473116f, -0.07924509f, 0.13595127f, 0.26632988f, -0.74750066f, -0.91180271f, -0.55705708f, -0.42776719f, 0.15106942f, -0.03295033f, 0.09386450f, -0.04782843f, 0.12183367f, 0.00365460f, 0.11234385f, -0.22425701f, 0.26095960f, 0.11155798f, 0.42991361f, -0.12413772f, 0.16224776f, 0.07067508f, 0.39398521f, 0.29067084f, 0.34574428f, 0.42945585f, 0.34132451f, 0.08465417f, 0.21832205f, -0.17391025f, 0.40626994f, 0.24602628f, -0.16209386f, -0.44711500f, -0.89896721f, -0.26615900f, -0.09204957f, 0.06681444f, -0.26570743f, -0.13080990f, -0.00919013f, -0.03542481f, 0.04772259f, -0.15839475f, 0.03468127f, -0.11124472f, -0.13831483f, -0.01005194f, 0.06571232f, 0.27026793f, 0.33186609f, 0.35905164f, 0.44013226f, 0.11614401f, 0.33886027f, 0.35150895f, 0.32758045f, 0.44825670f, 0.20784684f, 0.26626620f, 0.32764441f, -0.31558320f, -0.42334589f, -0.27914798f, -0.00505447f, 0.04843425f, -0.00625055f, -0.07286464f, -0.07937790f, 0.18001424f, 0.02077219f, 0.06441823f, 0.00762887f, -0.00480325f, -0.09121994f, -0.08507059f, 0.20794895f, -0.14483933f, -0.02425323f, 0.64435303f, 0.61788458f, 0.43296716f, 0.33162346f, 0.28835627f, 0.14966546f, 0.10974014f, 0.04105552f, 0.04278100f, 0.44138849f, -0.12786511f, -0.08259664f, -0.18041675f, -0.05749406f, -0.01067375f, 0.01710888f, -0.05410457f, -0.04726992f, 0.25977635f, -0.25579408f, -0.07365263f, 0.06334781f, 0.08257064f, -0.21537559f, -0.30025771f, -0.15267009f, -0.33983576f, -0.53859538f, 0.12249966f, 0.62450641f, 0.13663715f, 0.07094406f, -0.04094490f, -0.03577580f, -0.11315972f, -0.09385408f, 0.05421990f, 0.15010270f, 0.25424668f, -0.04134564f, 0.11380531f, -0.13806863f, 0.10588529f, -0.06694306f, 0.05307540f, -0.01669978f, -0.12906040f, 0.02612506f, -0.13943265f, -0.10264575f, 0.20769162f, -0.04699004f, -0.37100348f, -0.35027096f, -0.23910852f, -0.82893884f, -0.06808154f, 0.44624627f, -0.13543791f, -0.02892013f, 0.18367040f, 0.23644067f, -0.03548823f, 0.14890471f, 0.05441927f, 0.41312280f, 0.17209171f, -0.04756352f, -0.06293608f, -0.08006418f, 0.11839977f, 0.02477064f, -0.19919094f, 0.08175798f, -0.29115191f, 0.31552175f, -0.02080096f, -0.10173545f, 0.17134140f, -0.05349615f, 0.06020387f, -0.18276778f, -0.32358888f, -0.75623590f, -0.42500320f, 0.19958779f, 0.05463812f, -0.07280416f, 0.21508659f, 0.08910226f, 0.30952770f, -0.02145747f, -0.08847035f, -0.25884575f, -0.14252177f, -0.18558575f, -0.16916205f, -0.05500903f, -0.00902673f, 0.03068075f, 0.05632595f, 0.11948762f, -0.07512284f, 0.08066788f, -0.03560195f, 0.00727391f, -0.05746525f, -0.08866210f, -0.18394861f, 0.05266715f, -0.22347507f, -0.59717482f, -0.20781977f, 0.15282282f, -0.04062855f, 0.13105679f, 0.11805426f, -0.02015213f, 0.18975447f, 0.12828699f, 0.09375054f, -0.28640842f, -0.39314556f, -0.24839257f, 0.08282153f, 0.21525209f, 0.09592289f, -0.17345607f, -0.04181350f, 0.07830717f, -0.16042927f, 0.24141248f, -0.15057962f, -0.03213530f, -0.24142869f, 0.05637379f, -0.21574198f, 0.00940970f, -0.12379935f, -0.38576081f, -0.18607587f, -0.02933072f, 0.11392008f, 0.03301112f, -0.07549940f, -0.01216931f, 0.02797193f, 0.01016853f, 0.29881030f, -0.13861467f, -0.10250527f, -0.26514360f, -0.10434293f, 0.11223261f, 0.08133538f, 0.14359218f, -0.02583037f, -0.21389174f, -0.18360656f, -0.11816756f, 0.03497618f, 0.11726170f, -0.28818735f, -0.08724159f, -0.14698391f, -0.17654981f, 0.07576896f, -0.03193201f, -0.06227640f, 0.04440075f, 0.07761824f, -0.11722213f, -0.04736347f, -0.03484784f, -0.26265594f, 0.05539632f, 0.05253184f, -0.01144092f, 0.00283024f, -0.05649612f, -0.01582936f, 0.11983401f, -0.07562573f, -0.13428409f, -0.04774034f, -0.08253117f, -0.03397477f, 0.09054612f, -0.26846528f, -0.11121479f, -0.06478589f, -0.25339380f, -0.17536932f, 0.06555327f, 0.14717406f, 0.05615815f, -0.37115782f, -0.09172892f, -0.41077048f, 0.04994724f, -0.28886914f, -0.10460283f, -0.46568105f, -0.40360150f, -0.01526180f, 0.12251697f, -0.16811866f, -0.33517450f, 0.18358046f, -0.06322668f, 0.00200822f, -0.19209749f, -0.21189098f, -0.05668447f, -0.22084169f, -0.11763324f, -0.16568053f, -0.22821046f, -0.35158437f, -0.05386105f, 0.06316675f, 0.03107328f, -0.08140446f, -0.11771000f, -0.17104116f, -0.08271453f, -0.08772440f, -0.29699448f, -0.04284692f, -0.25109962f, -0.05688506f, -0.13491008f, 0.02256597f, 0.03068552f, -0.11948901f, -0.09608988f, 0.22736159f, 0.02084241f, -0.29268497f, -0.15808098f, -0.02257045f, -0.10767528f, 0.04420003f, -0.14853117f, -0.26626036f, -0.06196257f, -0.09136990f, 0.07403432f, 0.39528736f, 0.07650458f, 0.10992490f, -0.09720530f, -0.06072194f, 0.00760863f, -0.01302033f, -0.03867963f, -0.06771416f, 0.20095518f, 0.01186089f, 0.02175376f, -0.01482795f, 0.32447091f, -0.09604678f, 0.15900551f, 0.07861482f, 0.10047606f, 0.07799915f, 0.04082077f, -0.04324849f, -0.03534942f, 0.10350981f, -0.28120923f, -0.25785899f, -0.02951688f, 0.31985009f, -0.11387430f, 0.14784379f, 0.03249633f, -0.23403938f, -0.03305765f, 0.02446338f, 0.03599076f, -0.20474173f, 0.04204840f, -0.04196825f, -0.00841908f, 0.24219656f, 0.06829625f, -0.07408501f, 0.11770204f, 0.30514190f, 0.36255896f, 0.35259700f, 0.02843728f, 0.06700981f, -0.01278423f, 0.03238433f, 0.11059955f, 0.19534276f, 0.00120507f, -0.10721914f, -0.02480409f, 0.29271454f, 0.14174519f, -0.16347738f, -0.00411076f, -0.16879188f, -0.05065789f, -0.00266356f, -0.09936169f, -0.11430144f, 0.01573366f, 0.01717047f, -0.01556220f, 0.04854848f, 0.04678426f, 0.20452905f, -0.07249238f, 0.07208124f, 0.33490974f, 0.25561744f, 0.19261909f, -0.03899936f, 0.01261090f, -0.12330705f, -0.10058601f, 0.00941996f, -0.08218900f, 0.12506932f, 0.07473923f, 0.22624417f, -0.19163813f, -0.10250609f, 0.09290318f, -0.07757095f, -0.13648626f, -0.24432814f, -0.10192617f, 0.02330257f, 0.06253893f, -0.02779617f, 0.08232179f, 0.12087850f, -0.08267544f, -0.13520803f, 0.09077803f, 0.22074321f, 0.22837418f, 0.09616458f, -0.03007028f, 0.11636272f, -0.08842704f, 0.12604265f, 0.03165822f, -0.02255435f, -0.04541187f, 0.22037522f, 0.30953005f, -0.01899801f, 0.07322119f, 0.31799403f, -0.21684510f, 0.01843329f, -0.22148499f, -0.06034438f, 0.09383690f, -0.12581730f, -0.11578367f, -0.42115551f, -0.20905635f, -0.18709031f, 0.00701108f, 0.17983720f, 0.04172045f, 0.24699168f, 0.19295058f, 0.03704138f, -0.04015534f, 0.07880510f, -0.07103486f, -0.06370176f, -0.13039212f, -0.06007027f, 0.03189353f, 0.22741421f, 0.15678862f, -0.00513413f, -0.17219777f, -0.10149839f, -0.17072825f, -0.03999309f, 0.17604081f, 0.10259854f, 0.08372636f, -0.06807613f, 0.07748915f, -0.14420901f, -0.17730805f, -0.11613346f, -0.20749675f, 0.23666680f, 0.36661837f, 0.15305926f, -0.05467338f, -0.01684754f, 0.03816493f, -0.10477313f, -0.02884036f, -0.02368858f, -0.09686799f, 0.05710628f, -0.09716132f, 0.17628722f, 0.41077170f, 0.23020472f, 0.30677861f, 0.02067879f, 0.14502734f, -0.19743392f, 0.38481313f, 0.14949375f, -0.12197687f, 0.17973778f, 0.13951698f, 0.04020105f, -0.09356604f, 0.13394058f, 0.04940556f, 0.09065899f, 0.04538487f, 0.30549231f, 0.17602369f, -0.19754615f, 0.05652748f, 0.01952862f, -0.10685150f, 0.03809384f, -0.08185620f, -0.15769227f, 0.07979358f, 0.30114868f, 0.31852132f, 0.27624542f, 0.52447653f, 0.39964122f, 0.38266924f, 0.20587108f, 0.50195628f, 0.36050481f, 0.39467311f, 0.33152232f, 0.14251177f, 0.27528059f, 0.55996978f, 0.59028226f, 0.55067813f, 0.38663608f, -0.05204025f, 0.03279843f, 0.00524120f, 0.18165317f, -0.02061471f, -0.12352339f, 0.11291014f, -0.06537701f, -0.17643170f, 0.10734267f, -0.24416663f, 0.19060390f, 0.23666689f, 0.29645404f, 0.53145206f, 0.38280088f, 0.66752601f, 0.53150344f, 0.45857376f, 0.58513528f, 0.86641216f, 0.32596415f, 0.46281937f, 0.26762661f, 0.66451150f, 0.33399904f, 0.58469987f, 0.25993419f, 0.06561504f, -0.06676596f, 0.05527405f, 0.04359074f, -0.13384448f, 0.07268035f, -0.02734837f, -0.01618895f, -0.04865030f, -0.02280242f, -0.00921519f, -0.27030477f, -0.14802462f, 0.10333047f, 0.14039095f, 0.07323840f, 0.06881697f, 0.08408777f, 0.03017101f, 0.00161683f, 0.18038552f, 0.47697711f, 0.03117364f, 0.11970244f, -0.03970811f, 0.00668483f, -0.03581772f, 0.16178751f, 0.07314889f, 0.00120385f, -0.06717701f, -0.17325950f, 0.00793148f, 0.10641170f },
    { -0.03613901f, -0.04971328f, -0.02801070f, -0.04537080f, -0.04918565f, -0.04291298f, -0.03945371f, -0.04879407f, -0.04877285f, -0.05200916f, -0.04884916f, -0.02183378f, -0.04785201f, -0.06046757f, -0.04324563f, -0.04050473f, -0.04563418f, -0.05318461f, -0.04105808f, -0.03786691f, -0.04682266f, -0.05834243f, -0.05193737f, -0.04996828f, -0.04711168f, -0.05375601f, -0.04603921f, -0.06172422f, -0.05234360f, -0.04084912f, -0.05908688f, -0.03460306f, -0.05673669f, -0.04073045f, -0.00369938f, 0.01618428f, 0.01233454f, -0.01973794f, 0.00587704f, -0.01048827f, 0.08244620f, 0.01088386f, -0.12771662f, -0.01958668f, -0.00336319f, -0.03388252f, -0.05698856f, 0.00029470f, -0.02305871f, -0.05416936f, -0.03088375f, -0.03680346f, -0.04074192f, -0.05786284f, -0.05830366f, -0.01147293f, -0.05471965f, -0.03942604f, -0.03659476f, -0.04911676f, -0.05837845f, -0.05946198f, -0.02309703f, 0.05455945f, 0.00706255f, 0.04292930f, 0.11588372f, 0.16289127f, 0.26259238f, 0.08290735f, -0.08185612f, 0.09668136f, 0.17981015f, 0.14864069f, 0.10048597f, 0.04875143f, 0.01208043f, 0.02528673f, 0.01027152f, -0.01896137f, -0.02291094f, -0.04291549f, -0.04543852f, -0.04650950f, -0.03927853f, -0.04226465f, -0.03543415f, -0.04771760f, -0.05457030f, -0.05033788f, -0.02877678f, 0.14723808f, 0.25038540f, 0.21767248f, 0.07706285f, 0.22276975f, 0.48048791f, 0.35158542f, 0.39879307f, 0.83697981f, 0.54349720f, 0.26083300f, 0.01759702f, -0.19633417f, -0.28509623f, -0.14335626f, -0.00690324f, 0.06530482f, 0.01306221f, -0.03941678f, -0.05672107f, -0.05240763f, -0.04590000f, -0.03678494f, -0.04653011f, -0.06679676f, -0.03629205f, 0.01821776f, 0.19628784f, 0.27619621f, 0.32319123f, 0.22871353f, 0.27930337f, -0.04831936f, 0.17886873f, 0.22617255f, 0.31144899f, 0.20297143f, 0.21935536f, -0.03822695f, -0.27841702f, -0.55986565f, -0.62255949f, -0.42324513f, -0.16927029f, -0.28251860f, -0.32409906f, -0.07036591f, 0.01022778f, -0.02727704f, -0.03097630f, -0.05507811f, -0.04573526f, -0.03104337f, 0.05435532f, 0.19557080f, 0.37660286f, 0.56688046f, 0.49704936f, 0.33125934f, -0.04937807f, -0.23286521f, -0.18078317f, -0.08083364f, -0.03521465f, -0.07222392f, 0.12231482f, 0.17585507f, 0.13382478f, 0.07801954f, -0.11734273f, -0.26572052f, -0.27447850f, -0.26551831f, -0.23736298f, -0.09037673f, -0.06978947f, -0.03647045f, -0.04734465f, -0.06074744f, -0.04755611f, 0.08656702f, 0.08594485f, 0.15783262f, 0.47943357f, 0.71364748f, -0.02825015f, 0.10236473f, 0.05423094f, -0.30403811f, -0.17246562f, -0.10186253f, 0.03865891f, 0.21177684f, 0.05041074f, -0.02292626f, -0.10852169f, -0.07973934f, 0.13437466f, 0.11646233f, -0.16108744f, -0.18876502f, -0.10020681f, -0.23688321f, -0.09638243f, -0.03940843f, -0.05093546f, -0.04523273f, -0.02851016f, 0.03510450f, 0.26929459f, 0.20704892f, 0.21250317f, 0.26129016f, -0.05049955f, -0.30259061f, -0.18741851f, -0.29386583f, -0.26682255f, -0.08506227f, 0.07988897f, -0.01838943f, -0.01732504f, -0.05084492f, -0.13777024f, 0.03621642f, -0.00991493f, -0.03023872f, -0.08065497f, -0.21970500f, -0.27425513f, -0.15435313f, -0.06964583f, -0.03844773f, -0.03562563f, -0.06447367f, -0.03211375f, 0.08162719f, 0.27192089f, 0.17655517f, 0.09342482f, -0.00870892f, -0.19753036f, -0.01525809f, -0.12314335f, -0.23583592f, 0.07938617f, 0.28515413f, 0.05764994f, 0.05741709f, 0.08911345f, -0.07525874f, -0.23983070f, -0.00496976f, -0.12957707f, -0.25856790f, 0.07750498f, -0.21286547f, -0.46610758f, -0.20740400f, 0.05034015f, -0.03185804f, -0.05368949f, -0.04758049f, 0.00072133f, 0.12064274f, 0.27415746f, 0.16589083f, 0.00693652f, -0.22714908f, -0.03272478f, 0.03945914f, -0.17536546f, -0.44527787f, -0.01442537f, 0.10462741f, -0.01056884f, -0.37192988f, -0.06584088f, 0.11878894f, -0.03167699f, -0.00379330f, -0.06601625f, 0.09011023f, 0.28685486f, 0.19920690f, 0.02281027f, -0.06772026f, 0.01528482f, -0.03277561f, -0.05333600f, -0.06361139f, -0.01168193f, 0.21494408f, 0.11763178f, -0.11807480f, 0.23268099f, -0.09680092f, -0.19248693f, 0.01631605f, -0.16017821f, -0.44283393f, -0.21082596f, 0.28625548f, 0.27096987f, 0.01914181f, -0.05363899f, -0.00365824f, 0.18358348f, 0.01709892f, 0.07382631f, 0.03785270f, -0.00931023f, 0.27542010f, 0.18766050f, -0.20927440f, -0.08286761f, -0.06486429f, -0.05329783f, -0.06262723f, -0.05173616f, 0.07810721f, 0.10022121f, -0.04643244f, -0.02439700f, -0.05792359f, -0.15453947f, 0.01238281f, -0.54001850f, -0.41253528f, -0.03711727f, 0.52836847f, 0.42651361f, -0.24692641f, -0.26422194f, -0.26994309f, -0.10884149f, 0.06676809f, -0.16542833f, 0.25558418f, -0.13577820f, 0.05962274f, 0.27886885f, -0.02398530f, -0.10074817f, -0.04885202f, -0.05391398f, -0.05351981f, -0.03555790f, -0.08324564f, -0.08384568f, 0.15185739f, -0.12728861f, -0.03744389f, -0.40351018f, -0.10695567f, -0.36619702f, -0.46308303f, -0.11482454f, 0.47117305f, 0.51795715f, -0.04767542f, -0.13223858f, -0.09961686f, -0.00402670f, 0.03490299f, -0.06190385f, 0.25476530f, -0.23030233f, -0.11181542f, 0.30448014f, 0.04895362f, -0.07410873f, -0.04073133f, -0.02142618f, -0.06761224f, -0.04933658f, -0.12026098f, -0.44692907f, -0.11081555f, -0.03431695f, -0.40912789f, -0.36814117f, -0.20076250f, -0.30910662f, -0.05736855f, 0.08486195f, 0.43452182f, 0.48040232f, 0.29983100f, -0.02896731f, -0.21098439f, -0.18516284f, -0.15622811f, -0.05398605f, -0.08275037f, -0.34775072f, 0.10618428f, 0.39999440f, 0.06110676f, -0.00188744f, -0.00184988f, -0.03936811f, -0.04282968f, -0.03916629f, -0.26223722f, -0.32810184f, -0.33544725f, -0.22502285f, -0.32018253f, -0.22409561f, -0.20241542f, -0.12355418f, 0.08797325f, 0.27937937f, 0.39308381f, 0.33676109f, 0.20670722f, -0.20544082f, -0.24136098f, -0.08591586f, -0.06747239f, -0.16102637f, 0.14954993f, -0.30525559f, -0.06696755f, 0.22751424f, 0.04398059f, -0.01446387f, -0.05422873f, -0.05026533f, -0.04850841f, -0.02550638f, -0.13187023f, -0.06807265f, -0.02656445f, -0.03753204f, -0.22344188f, -0.21830323f, -0.22154535f, -0.19019446f, 0.07511738f, 0.08884138f, 0.37358904f, 0.70647418f, 0.32276139f, -0.03268338f, -0.14586437f, -0.14295152f, -0.08803108f, -0.13662863f, -0.04130005f, -0.01976695f, 0.27052876f, 0.37094721f, 0.14834462f, 0.01646385f, -0.05164510f, -0.05397118f, -0.04775165f, -0.02326462f, 0.15204290f, 0.05970339f, -0.08292751f, -0.22370359f, -0.07535547f, -0.01011504f, 0.31244636f, 0.28435788f, 0.19330381f, -0.03079848f, 0.48124379f, 0.58466864f, 0.23319522f, -0.15550876f, -0.11184794f, -0.02431281f, 0.11087746f, -0.09100617f, -0.08967262f, 0.09448511f, 0.57401788f, 0.54443097f, 0.22065999f, 0.09733051f, -0.04196437f, -0.05037503f, -0.05849583f, -0.04767687f, 0.19824342f, -0.00674163f, 0.02135266f, -0.07444654f, -0.06118324f, -0.13115135f, 0.06779313f, -0.06159505f, 0.21700971f, 0.39714307f, 0.64662898f, 0.34186143f, 0.02309189f, -0.19451477f, -0.17481019f, 0.05146396f, 0.21261269f, 0.02015195f, 0.07567762f, -0.01650883f, 0.53829032f, 0.53767926f, 0.09583822f, -0.00371021f, -0.03019338f, -0.05391099f, -0.02948650f, -0.05224646f, 0.18533170f, -0.02995468f, -0.00486825f, 0.01641210f, 0.10757502f, -0.05841442f, 0.13275997f, -0.03347884f, 0.00688854f, 0.27961025f, 0.30361161f, -0.11499310f, -0.10737401f, -0.00552231f, 0.01051633f, 0.01802773f, 0.19593336f, -0.19136389f, 0.02830399f, 0.08359857f, 0.51587451f, 0.52636796f, 0.07469109f, -0.02927929f, -0.04235942f, -0.04804880f, -0.01954925f, -0.02942001f, 0.11164677f, -0.17988475f, -0.03075060f, -0.06127547f, -0.07972743f, -0.08061934f, 0.04004213f, 0.07851761f, 0.26019010f, 0.34559160f, 0.28035113f, -0.15474530f, -0.11782193f, 0.08232922f, 0.22013143f, 0.01349098f, -0.13025583f, 0.14687365f, 0.17286463f, 0.22795357f, 0.28799045f, 0.02494464f, -0.02688079f, -0.03386765f, -0.06369734f, -0.03613978f, -0.05238735f, -0.02501466f, 0.08745921f, 0.12566039f, -0.28593668f, 0.04264748f, 0.21140872f, 0.08086606f, 0.30778840f, 0.41905329f, 0.25943196f, 0.13601568f, -0.03329070f, 0.02660909f, -0.20829377f, 0.02408384f, -0.04576523f, -0.11540850f, -0.10852502f, 0.32540679f, 0.46614355f, 0.20341137f, 0.08217683f, -0.20211563f, -0.03652187f, -0.03122924f, -0.04500668f, -0.04400327f, -0.05199954f, -0.01047732f, 0.08384670f, 0.15301692f, -0.16255768f, 0.24842900f, 0.23412164f, 0.02370278f, 0.19745345f, 0.18564211f, -0.06393486f, -0.12233411f, -0.08382065f, 0.07114824f, -0.01144141f, -0.01604265f, 0.19932087f, -0.02077138f, 0.10668653f, 0.28355989f, 0.28513750f, 0.12143619f, -0.04156916f, -0.23996001f, 0.00464930f, 0.00532842f, -0.03977970f, -0.03202815f, -0.04905723f, 0.01229536f, 0.09414240f, 0.19048028f, 0.12899432f, 0.44950631f, 0.47185111f, 0.09882194f, 0.18285286f, -0.05709661f, -0.03351688f, -0.06706598f, -0.14947338f, -0.09128740f, 0.12638871f, -0.06729288f, -0.12771153f, -0.09456780f, 0.14372820f, 0.06147720f, -0.00946464f, -0.17034210f, -0.23284185f, -0.17038482f, -0.01040258f, -0.03557061f, -0.05814036f, -0.03866923f, -0.04002316f, 0.01329413f, 0.05136767f, 0.33911604f, 0.18107863f, 0.10241006f, 0.35925680f, 0.15082181f, 0.30864769f, -0.00935570f, 0.13784145f, 0.03769556f, -0.06413933f, -0.13056563f, -0.05603515f, -0.27452192f, -0.21798569f, 0.08555482f, 0.03668324f, -0.20877527f, -0.34479591f, -0.24786296f, -0.20754665f, -0.10597978f, -0.00909184f, -0.02466235f, -0.05470686f, -0.04905426f, -0.04499834f, 0.00509224f, 0.02130547f, 0.21589765f, 0.19561550f, 0.18775181f, 0.19871493f, 0.08296927f, 0.05656840f, 0.05951047f, 0.13129574f, 0.15439068f, -0.02546982f, 0.08431861f, 0.01482573f, -0.06306954f, -0.10316266f, -0.00395962f, -0.04062780f, -0.42519882f, -0.42090306f, -0.23853195f, -0.28923321f, -0.04102098f, -0.00054283f, -0.05688836f, -0.05116947f, -0.06583694f, -0.04847510f, -0.05341063f, -0.06869064f, 0.10211065f, 0.07593521f, 0.08723038f, 0.06511430f, -0.00901568f, -0.29130846f, -0.07106663f, -0.03940789f, 0.00368859f, -0.25146365f, -0.17139649f, -0.16948669f, -0.06679462f, -0.03909465f, -0.32945845f, -0.28773767f, -0.36903441f, -0.44587579f, -0.21949854f, -0.12865047f, -0.06376062f, -0.04829394f, -0.03814636f, -0.04752459f, -0.04297740f, -0.04001996f, -0.05012590f, -0.04927346f, -0.05578167f, -0.14291961f, -0.20304559f, -0.14340825f, -0.25264686f, -0.22800325f, -0.00832159f, -0.02727602f, 0.01766481f, -0.11474448f, -0.34076360f, -0.06843913f, -0.11825714f, -0.19226927f, -0.14273413f, -0.14884666f, -0.18439409f, -0.20182502f, -0.14214204f, -0.04503424f, -0.04908751f, -0.03764741f, -0.04364560f, -0.03403274f, -0.03565425f, -0.05404794f, -0.02988248f, -0.03898740f, -0.06779162f, -0.04931022f, -0.05409836f, -0.06952870f, -0.07807880f, -0.05357382f, -0.10849720f, -0.08834446f, -0.05592372f, -0.07051668f, -0.05636046f, -0.06345117f, -0.06424400f, -0.06730025f, -0.07876759f, -0.06085762f, -0.04187061f, -0.04051269f, -0.08795940f, -0.04660214f, -0.04491263f, -0.03472550f, -0.06337609f, -0.05629929f },
